{"learner":{"attributes":{},"feature_names":["o","h","l","c","v","vw","n","SPY_o","SPY_h","SPY_l","SPY_c","SPY_v","SPY_vw","SPY_n","QQQ_o","QQQ_h","QQQ_l","QQQ_c","QQQ_v","QQQ_vw","QQQ_n","DIA_o","DIA_h","DIA_l","DIA_c","DIA_v","DIA_vw","DIA_n","IWM_o","IWM_h","IWM_l","IWM_c","IWM_v","IWM_vw","IWM_n","VTI_o","VTI_h","VTI_l","VTI_c","VTI_v","VTI_vw","VTI_n","EFA_o","EFA_h","EFA_l","EFA_c","EFA_v","EFA_vw","EFA_n","BIL_o","BIL_h","BIL_l","BIL_c","BIL_v","BIL_vw","BIL_n","SHV_o","SHV_h","SHV_l","SHV_c","SHV_v","SHV_vw","SHV_n","IEI_o","IEI_h","IEI_l","IEI_c","IEI_v","IEI_vw","IEI_n","IEF_o","IEF_h","IEF_l","IEF_c","IEF_v","IEF_vw","IEF_n","TLT_o","TLT_h","TLT_l","TLT_c","TLT_v","TLT_vw","TLT_n","next_c","target_class","c_class","vw_lag_1","vw_lag_2","vw_lag_3","vw_lag_4","vw_lag_5","n_lag_1","n_lag_2","n_lag_3","n_lag_4","n_lag_5","vw_rolling_mean","vw_rolling_std","n_rolling_mean","n_rolling_std","williams_r","stoch_k","roc","cci","adx","atr","20D-EMA","50D-EMA","100D-EMA","bollinger_mavg","bollinger_hband","bollinger_lband","vwap","pvwap","rsi","rsicat","dayofweek","month","quarter","MACDs_12_26_9","MACDh_12_26_9","DMP_16","embed_0","embed_1","embed_2","embed_3","embed_4","embed_5","embed_6","embed_7","embed_8","embed_9","embed_10","embed_11","embed_12","embed_13","embed_14","embed_15","embed_16","embed_17","embed_18","embed_19","embed_20","embed_21","embed_22","embed_23","embed_24","embed_25","embed_26","embed_27","embed_28","embed_29","embed_30","embed_31","embed_32","embed_33","embed_34","embed_35","embed_36","embed_37","embed_38","embed_39","embed_40","embed_41","embed_42","embed_43","embed_44","embed_45","embed_46","embed_47","embed_48","embed_49","embed_50","embed_51","embed_52","embed_53","embed_54","embed_55","embed_56","embed_57","embed_58","embed_59","embed_60","embed_61","embed_62","embed_63","embed_64","embed_65","embed_66","embed_67","embed_68","embed_69","embed_70","embed_71","embed_72","embed_73","embed_74","embed_75","embed_76","embed_77","embed_78","embed_79","embed_80","embed_81","embed_82","embed_83","embed_84","embed_85","embed_86","embed_87","embed_88","embed_89","embed_90","embed_91","embed_92","embed_93","embed_94","embed_95","embed_96","embed_97","embed_98","embed_99"],"feature_types":["float","float","float","float","float","float","int","float","float","float","float","float","float","int","float","float","float","float","float","float","int","float","float","float","float","float","float","int","float","float","float","float","float","float","int","float","float","float","float","float","float","int","float","float","float","float","float","float","int","float","float","float","float","float","float","int","float","float","float","float","float","float","int","float","float","float","float","float","float","int","float","float","float","float","float","float","int","float","float","float","float","float","float","int","float","int","int","float","float","float","float","float","int","int","int","int","int","float","float","float","float","float","float","float","float","float","float","float","float","float","float","float","float","float","float","float","float","float","float","float","float","float","float","float","float","float","float","float","float","float","float","float","float","float","float","float","float","float","float","float","float","float","float","float","float","float","float","float","float","float","float","float","float","float","float","float","float","float","float","float","float","float","float","float","float","float","float","float","float","float","float","float","float","float","float","float","float","float","float","float","float","float","float","float","float","float","float","float","float","float","float","float","float","float","float","float","float","float","float","float","float","float","float","float","float","float","float","float","float","float","float","float","float","float","float","float","float","float","float","float","float","float","float"],"gradient_booster":{"model":{"gbtree_model_param":{"num_parallel_tree":"1","num_trees":"10"},"iteration_indptr":[0,1,2,3,4,5,6,7,8,9,10],"tree_info":[0,0,0,0,0,0,0,0,0,0],"trees":[{"base_weights":[-4.6125017E-8,-4.3117948E0,4.0870757E0,-1.3947785E0,-6.797035E0,7.529295E-1,5.732036E0,-6.452689E-1,-2.982162E0,-5.5277042E0,-1.1307738E1,3.7555096E-1,1.8210164E0,4.7710795E0,8.224018E0,-2.751368E-1,-1.405623E0,-1.6482687E0,-3.4149337E0,-8.46744E0,-5.0186973E0,-1.5095526E1,-8.445157E0,3.2122192E-1,8.881357E-1,2.644277E0,1.241941E0,4.5171056E0,7.2640705E0,4.3131375E0,9.069837E0,-2.397349E-1,-5.8852667E-1,-2.0534937E0,-1.0790714E0,-2.5513456E0,-6.0783607E-1,-2.9132E0,-5.567542E0,-4.7678094E0,-1.0436866E1,-4.538988E0,-7.3286753E0,-9.923308E0,-2.3413187E1,-3.3067176E0,-1.0457383E1,3.073328E-1,7.13146E-1,9.735813E-1,7.509239E-2,6.547488E-1,3.0738869E0,1.9805648E0,9.2635876E-1,4.0025296E0,5.491565E0,4.162475E0,8.942413E0,1.357961E0,5.601689E0,6.369381E0,1.0852206E1,-6.223855E-2,-1.4235398E-1,-1.2643938E-1,-2.8476736E-1,-3.5487124E-1,-8.156202E-1,-1.007807E-1,-3.8146952E-1,-4.9851704E-1,-1.1745478E0,-7.683914E-2,-2.75056E-1,-1.0445656E0,-4.747175E-1,-3.167068E-1,-1.9358631E0,-1.5982835E0,-6.109205E-1,-3.4110599E0,-2.2070612E-1,-1.1167709E0,-1.6864365E0,-3.8388398E-1,-2.4882598E0,-1.0099162E0,-3.8071883E0,-1.9253193E-1,-7.761611E0,-1.3476895E0,-4.9462467E-1,-4.1362767E0,-1.7713435E0,7.8370586E-2,1.17553405E-1,7.164053E-3,2.8048235E-1,3.266235E-1,7.955253E-2,3.1466395E-1,8.819884E-2,1.0136911E0,1.5715264E-1,2.1962664E-1,8.4987843E-1,1.8126604E-1,4.0474343E-1,1.4068518E0,8.987762E-1,1.3865411E0,2.4636307E0,5.021485E-1,1.6036323E0,3.140354E0,1.3966154E0,7.8960314E-2,5.886531E-1,1.9264438E0,5.225688E-1,8.643023E-1,2.4008281E0,2.2930365E0,4.363401E0],"categories":[],"categories_nodes":[],"categories_segments":[],"categories_sizes":[],"default_left":[0,0,0,0,0,0,0,0,0,0,0,0,0,0,0,0,0,0,0,0,0,0,0,0,0,0,0,0,0,0,0,0,0,0,0,0,0,0,0,0,0,0,0,0,0,0,0,0,0,0,0,0,0,0,0,0,0,0,0,0,0,0,0,0,0,0,0,0,0,0,0,0,0,0,0,0,0,0,0,0,0,0,0,0,0,0,0,0,0,0,0,0,0,0,0,0,0,0,0,0,0,0,0,0,0,0,0,0,0,0,0,0,0,0,0,0,0,0,0,0,0,0,0,0,0],"id":0,"left_children":[1,3,5,7,9,11,13,15,17,19,21,23,25,27,29,31,33,35,37,39,41,43,45,47,49,51,53,55,57,59,61,63,65,67,69,71,73,75,77,79,81,83,85,87,89,91,93,95,97,99,-1,101,103,105,107,109,111,113,115,117,119,121,123,-1,-1,-1,-1,-1,-1,-1,-1,-1,-1,-1,-1,-1,-1,-1,-1,-1,-1,-1,-1,-1,-1,-1,-1,-1,-1,-1,-1,-1,-1,-1,-1,-1,-1,-1,-1,-1,-1,-1,-1,-1,-1,-1,-1,-1,-1,-1,-1,-1,-1,-1,-1,-1,-1,-1,-1,-1,-1,-1,-1,-1,-1],"loss_changes":[2.1076668E4,4.2097207E3,3.3631914E3,3.181209E2,1.7353252E3,8.154303E1,9.449785E2,5.139666E1,4.40166E1,3.2710107E2,6.098281E2,3.9476433E0,2.1982666E1,1.5650049E2,3.3467334E2,1.2457333E0,1.0477936E1,2.0059788E1,5.2902954E1,2.052544E2,2.0276465E2,9.722451E2,3.893484E2,5.374689E-1,5.1930046E-1,1.5936508E1,5.8574753E0,1.154126E2,9.812134E1,7.616684E1,3.7369287E2,7.65337E-1,3.2304287E-1,7.7878647E0,5.580887E0,8.053436E0,1.0693631E0,3.5358124E1,3.712729E1,1.0557556E1,1.9083252E2,1.3726416E2,1.9380457E2,3.020349E2,5.4331055E2,1.8146866E1,3.5829272E2,4.2746353E-1,5.891769E-1,6.902838E-1,0E0,4.0255237E-1,1.1455521E1,7.503441E0,2.5897102E0,1.1249805E2,1.7973755E2,2.3436462E1,5.5901367E1,4.775325E0,3.627777E1,1.9915955E2,5.2863135E2,0E0,0E0,0E0,0E0,0E0,0E0,0E0,0E0,0E0,0E0,0E0,0E0,0E0,0E0,0E0,0E0,0E0,0E0,0E0,0E0,0E0,0E0,0E0,0E0,0E0,0E0,0E0,0E0,0E0,0E0,0E0,0E0,0E0,0E0,0E0,0E0,0E0,0E0,0E0,0E0,0E0,0E0,0E0,0E0,0E0,0E0,0E0,0E0,0E0,0E0,0E0,0E0,0E0,0E0,0E0,0E0,0E0,0E0,0E0,0E0,0E0,0E0],"parents":[2147483647,0,0,1,1,2,2,3,3,4,4,5,5,6,6,7,7,8,8,9,9,10,10,11,11,12,12,13,13,14,14,15,15,16,16,17,17,18,18,19,19,20,20,21,21,22,22,23,23,24,24,25,25,26,26,27,27,28,28,29,29,30,30,31,31,32,32,33,33,34,34,35,35,36,36,37,37,38,38,39,39,40,40,41,41,42,42,43,43,44,44,45,45,46,46,47,47,48,48,49,49,51,51,52,52,53,53,54,54,55,55,56,56,57,57,58,58,59,59,60,60,61,61,62,62],"right_children":[2,4,6,8,10,12,14,16,18,20,22,24,26,28,30,32,34,36,38,40,42,44,46,48,50,52,54,56,58,60,62,64,66,68,70,72,74,76,78,80,82,84,86,88,90,92,94,96,98,100,-1,102,104,106,108,110,112,114,116,118,120,122,124,-1,-1,-1,-1,-1,-1,-1,-1,-1,-1,-1,-1,-1,-1,-1,-1,-1,-1,-1,-1,-1,-1,-1,-1,-1,-1,-1,-1,-1,-1,-1,-1,-1,-1,-1,-1,-1,-1,-1,-1,-1,-1,-1,-1,-1,-1,-1,-1,-1,-1,-1,-1,-1,-1,-1,-1,-1,-1,-1,-1,-1,-1],"split_conditions":[1E0,8.217783E0,1.008713E2,9.9166E1,3.0103955E2,3.537564E1,2.9813065E2,2.6779025E0,4.02598E5,-7.673158E-3,1.2476404E-2,6.92938E1,2.75887E5,1.6481519E-2,-1.254199E-3,1.932639E6,2.84103E5,3.268538E6,6.557727E-2,2.218874E2,4.812386E6,-2.441705E-2,2.24667E5,3.595437E8,2.372256E6,9.15325E1,3.517722E1,8.500668E0,4.04514E5,2.4294816E-2,1.102534E2,2.35501E5,6.956E3,2.7699008E7,2.07852E5,2.505217E2,2.8916226E7,5.1176608E-2,2.2644682E-2,-3.891602E-2,2.5891003E5,-2.5208093E-2,1.747203E2,-4.9990673E-2,2.914967E2,-3.052203E-2,-3.6316114E-3,2.0855E4,1.98913E1,2.784512E8,7.509239E-2,1.18240184E8,1.2221E2,2.346438E7,1.3349E2,-4.688392E1,4.048246E6,2.554951E6,6.503873E6,-1.2247978E-2,-3.562069E-2,7.16349E5,3.060286E-2,-6.223855E-2,-1.4235398E-1,-1.2643938E-1,-2.8476736E-1,-3.5487124E-1,-8.156202E-1,-1.007807E-1,-3.8146952E-1,-4.9851704E-1,-1.1745478E0,-7.683914E-2,-2.75056E-1,-1.0445656E0,-4.747175E-1,-3.167068E-1,-1.9358631E0,-1.5982835E0,-6.109205E-1,-3.4110599E0,-2.2070612E-1,-1.1167709E0,-1.6864365E0,-3.8388398E-1,-2.4882598E0,-1.0099162E0,-3.8071883E0,-1.9253193E-1,-7.761611E0,-1.3476895E0,-4.9462467E-1,-4.1362767E0,-1.7713435E0,7.8370586E-2,1.17553405E-1,7.164053E-3,2.8048235E-1,3.266235E-1,7.955253E-2,3.1466395E-1,8.819884E-2,1.0136911E0,1.5715264E-1,2.1962664E-1,8.4987843E-1,1.8126604E-1,4.0474343E-1,1.4068518E0,8.987762E-1,1.3865411E0,2.4636307E0,5.021485E-1,1.6036323E0,3.140354E0,1.3966154E0,7.8960314E-2,5.886531E-1,1.9264438E0,5.225688E-1,8.643023E-1,2.4008281E0,2.2930365E0,4.363401E0],"split_indices":[85,106,84,3,108,107,111,106,96,217,173,47,96,140,185,67,96,39,206,91,39,209,34,4,53,54,109,103,13,163,61,6,62,46,20,2,46,206,161,137,100,171,29,176,0,197,189,41,0,4,0,4,71,18,64,101,39,25,53,134,202,95,219,0,0,0,0,0,0,0,0,0,0,0,0,0,0,0,0,0,0,0,0,0,0,0,0,0,0,0,0,0,0,0,0,0,0,0,0,0,0,0,0,0,0,0,0,0,0,0,0,0,0,0,0,0,0,0,0,0,0,0,0,0,0],"split_type":[0,0,0,0,0,0,0,0,0,0,0,0,0,0,0,0,0,0,0,0,0,0,0,0,0,0,0,0,0,0,0,0,0,0,0,0,0,0,0,0,0,0,0,0,0,0,0,0,0,0,0,0,0,0,0,0,0,0,0,0,0,0,0,0,0,0,0,0,0,0,0,0,0,0,0,0,0,0,0,0,0,0,0,0,0,0,0,0,0,0,0,0,0,0,0,0,0,0,0,0,0,0,0,0,0,0,0,0,0,0,0,0,0,0,0,0,0,0,0,0,0,0,0,0,0],"sum_hessian":[1.194E3,5.81E2,6.13E2,2.68E2,3.13E2,2.03E2,4.1E2,1.83E2,8.5E1,2.46E2,6.7E1,1.51E2,5.2E1,2.98E2,1.12E2,1.24E2,5.9E1,2.2E1,6.3E1,3.4E1,2.12E2,2.7E1,4E1,1.38E2,1.3E1,2E1,3.2E1,2.73E2,2.5E1,2.1E1,9.1E1,1.13E2,1.1E1,1.8E1,4.1E1,1.1E1,1.1E1,5.3E1,1E1,1.3E1,2.1E1,1.78E2,3.4E1,1.8E1,9E0,1.2E1,2.8E1,1.35E2,3E0,1.1E1,2E0,4E0,1.6E1,8E0,2.4E1,1.82E2,9.1E1,1E1,1.5E1,7E0,1.4E1,3.8E1,5.3E1,1.01E2,1.2E1,9E0,2E0,9E0,9E0,9E0,3.2E1,8E0,3E0,6E0,5E0,3.6E1,1.7E1,2E0,8E0,1E1,3E0,1.9E1,2E0,1.04E2,7.4E1,5E0,2.9E1,6E0,1.2E1,1E0,8E0,6E0,6E0,1.5E1,1.3E1,9E1,4.5E1,1E0,2E0,9E0,2E0,1E0,3E0,1.4E1,2E0,4E0,4E0,1.5E1,9E0,1.06E2,7.6E1,7.1E1,2E1,4E0,6E0,1E1,5E0,3E0,4E0,1.1E1,3E0,1.3E1,2.5E1,3E1,2.3E1],"tree_param":{"num_deleted":"0","num_feature":"223","num_nodes":"125","size_leaf_vector":"1"}},{"base_weights":[-8.428489E-3,-3.0871613E0,2.909863E0,-1.7247077E0,-5.889041E0,1.306508E0,4.6966925E0,-6.5647274E-1,-3.122119E0,-4.9454026E0,-9.657454E0,5.8457166E-1,2.731771E0,1.9264861E0,5.094207E0,-2.160064E-1,-1.2860984E0,-2.8371627E0,-7.397706E0,-3.3802052E0,-6.0808897E0,-7.3527846E0,-6.101834E0,5.0773424E-1,3.7409317E0,1.3574047E0,3.540471E0,2.8336928E0,5.01971E-1,4.707843E0,8.1538515E0,-1.8847555E-1,-5.775119E-1,-2.417858E0,-1.0160193E0,-4.2093377E0,-2.2345173E0,-2.5234814E0,-6.6842246E-1,-5.946125E0,-2.1618109E0,-7.622375E0,-4.040548E0,-4.852007E0,-1.2369295E1,3.9417925E-1,2.0936816E0,1.5412356E0,3.2923037E-1,1.053383E0,1.1946799E0,3.9739044E0,6.2916857E-1,4.097432E0,7.810888E-1,2.2292474E-1,4.9105898E-1,8.451442E0,4.3449903E0,9.346085E0,3.4123178E0,-6.06604E-2,2.4144019E-1,-3.9394146E-1,-1.1425313E0,-2.4652244E-1,-7.113016E-1,-1.9792591E0,-1.0467147E0,-5.8894867E-1,-1.5546597E0,-9.9972355E-1,-2.5463905E0,-1.3814985E0,-3.5777298E-1,-1.1519157E0,-2.5848927E0,-3.7822568E-1,-1.5154437E0,-6.3905203E-1,-2.4532123E0,-7.013965E-1,-4.375462E0,8.1256926E-1,9.993832E-2,9.9637645E-1,3.1280053E-1,4.182884E-1,-1.3258095E-1,1.2947807E0,6.999136E-2,-1.840392E-1,3.7480897E-1,1.4882214E0,4.654002E-1,-6.2190752E-2,6.946505E-1,1.3739994E-1,-3.1894518E-3,4.539983E0,1.6982205E0,1.3701149E0,9.5679544E-2,3.3823175E0,1.4409862E0,1.5394552E0,2.5201178E-1],"categories":[],"categories_nodes":[],"categories_segments":[],"categories_sizes":[],"default_left":[0,0,0,0,0,0,0,0,0,0,0,0,0,0,0,0,0,0,0,0,0,0,0,0,0,0,0,0,0,0,0,0,0,0,0,0,0,0,0,0,0,0,0,0,0,0,0,0,0,0,0,0,0,0,0,0,0,0,0,0,0,0,0,0,0,0,0,0,0,0,0,0,0,0,0,0,0,0,0,0,0,0,0,0,0,0,0,0,0,0,0,0,0,0,0,0,0,0,0,0,0,0,0,0,0,0,0],"id":1,"left_children":[1,3,5,7,9,11,13,15,17,19,21,23,25,27,29,31,33,35,37,39,41,43,-1,45,47,49,51,53,55,57,59,61,-1,63,65,67,69,-1,-1,71,73,75,77,79,81,83,85,-1,-1,87,-1,89,91,93,95,97,-1,99,101,103,105,-1,-1,-1,-1,-1,-1,-1,-1,-1,-1,-1,-1,-1,-1,-1,-1,-1,-1,-1,-1,-1,-1,-1,-1,-1,-1,-1,-1,-1,-1,-1,-1,-1,-1,-1,-1,-1,-1,-1,-1,-1,-1,-1,-1,-1,-1],"loss_changes":[1.0745628E4,2.211588E3,1.7529258E3,5.8460657E2,6.278838E2,3.3281158E2,3.095337E2,6.1843872E1,1.8613208E2,2.531438E2,7.613313E2,5.0728874E1,1.16342224E2,4.768611E1,2.6069336E2,5.8949785E0,2.566455E1,1.2373059E2,3.3673096E1,1.9660779E2,2.459751E2,3.414298E2,0E0,3.7534363E1,1.2820465E1,2.932177E1,8.330585E1,5.6460526E1,4.702101E0,2.716294E2,1.207395E2,1.9623523E0,0E0,2.1114403E1,1.8058174E1,5.9549988E1,8.1011536E1,0E0,0E0,1.112312E2,1.0580502E2,1.5114185E2,1.06038635E2,1.9075592E2,1.881521E2,2.7357061E1,1.459977E1,0E0,0E0,2.0497288E1,0E0,7.4477905E1,8.47318E0,2.3077087E1,1.56460085E1,7.735147E-1,0E0,2.686283E2,1.8539453E2,1.2980383E2,2.6645134E1,0E0,0E0,0E0,0E0,0E0,0E0,0E0,0E0,0E0,0E0,0E0,0E0,0E0,0E0,0E0,0E0,0E0,0E0,0E0,0E0,0E0,0E0,0E0,0E0,0E0,0E0,0E0,0E0,0E0,0E0,0E0,0E0,0E0,0E0,0E0,0E0,0E0,0E0,0E0,0E0,0E0,0E0,0E0,0E0,0E0,0E0],"parents":[2147483647,0,0,1,1,2,2,3,3,4,4,5,5,6,6,7,7,8,8,9,9,10,10,11,11,12,12,13,13,14,14,15,15,16,16,17,17,18,18,19,19,20,20,21,21,23,23,24,24,25,25,26,26,27,27,28,28,29,29,30,30,31,31,33,33,34,34,35,35,36,36,39,39,40,40,41,41,42,42,43,43,44,44,45,45,46,46,49,49,51,51,52,52,53,53,54,54,55,55,57,57,58,58,59,59,60,60],"right_children":[2,4,6,8,10,12,14,16,18,20,22,24,26,28,30,32,34,36,38,40,42,44,-1,46,48,50,52,54,56,58,60,62,-1,64,66,68,70,-1,-1,72,74,76,78,80,82,84,86,-1,-1,88,-1,90,92,94,96,98,-1,100,102,104,106,-1,-1,-1,-1,-1,-1,-1,-1,-1,-1,-1,-1,-1,-1,-1,-1,-1,-1,-1,-1,-1,-1,-1,-1,-1,-1,-1,-1,-1,-1,-1,-1,-1,-1,-1,-1,-1,-1,-1,-1,-1,-1,-1,-1,-1,-1],"split_conditions":[1E0,2.3789648E2,2.017067E2,5.48238E5,3.34891E2,3.094605E0,4.7894E5,1.1514E2,-9.254758E-1,-1.9784039E-2,-2.4498641E-2,1.7821E2,9.15255E1,-3.200325E-2,2.331E2,3.4671E2,1.1693E2,-1.9615175E-2,3.3369724E7,-4.308924E-3,-5.0850513E1,-2.8476644E-2,-6.101834E0,1.2177E2,1.9111E2,2.1179751E-3,3.0363485E8,3.863562E-2,5.911933E-2,3.4059673E1,1.291672E6,3.4641E2,-5.775119E-1,1.7129561E-2,6.34538E5,-5.7275232E-2,4.1890663E1,-2.5234814E0,-6.6842246E-1,2.7236893E1,-8.826047E0,-8.368537E-3,7.764327E-1,2.4849398E-2,1.4422938E-2,-4.5821846E-2,3.2310622E7,1.5412356E0,3.2923037E-1,4.9129985E-3,1.1946799E0,1.806301E2,9.397266E7,7.7128504E7,3.385E3,3.0302E6,4.9105898E-1,2.0404205E-4,2.2893E2,2.532494E7,2.526E3,-6.06604E-2,2.4144019E-1,-3.9394146E-1,-1.1425313E0,-2.4652244E-1,-7.113016E-1,-1.9792591E0,-1.0467147E0,-5.8894867E-1,-1.5546597E0,-9.9972355E-1,-2.5463905E0,-1.3814985E0,-3.5777298E-1,-1.1519157E0,-2.5848927E0,-3.7822568E-1,-1.5154437E0,-6.3905203E-1,-2.4532123E0,-7.013965E-1,-4.375462E0,8.1256926E-1,9.993832E-2,9.9637645E-1,3.1280053E-1,4.182884E-1,-1.3258095E-1,1.2947807E0,6.999136E-2,-1.840392E-1,3.7480897E-1,1.4882214E0,4.654002E-1,-6.2190752E-2,6.946505E-1,1.3739994E-1,-3.1894518E-3,4.539983E0,1.6982205E0,1.3701149E0,9.5679544E-2,3.3823175E0,1.4409862E0,1.5394552E0,2.5201178E-1],"split_indices":[85,108,84,6,90,98,92,70,101,189,148,31,54,187,37,21,70,179,32,174,101,179,0,70,2,141,4,200,178,115,67,21,0,217,96,180,103,0,0,122,120,141,121,199,136,166,46,0,0,191,0,2,11,11,69,39,0,186,35,46,55,0,0,0,0,0,0,0,0,0,0,0,0,0,0,0,0,0,0,0,0,0,0,0,0,0,0,0,0,0,0,0,0,0,0,0,0,0,0,0,0,0,0,0,0,0,0],"split_type":[0,0,0,0,0,0,0,0,0,0,0,0,0,0,0,0,0,0,0,0,0,0,0,0,0,0,0,0,0,0,0,0,0,0,0,0,0,0,0,0,0,0,0,0,0,0,0,0,0,0,0,0,0,0,0,0,0,0,0,0,0,0,0,0,0,0,0,0,0,0,0,0,0,0,0,0,0,0,0,0,0,0,0,0,0,0,0,0,0,0,0,0,0,0,0,0,0,0,0,0,0,0,0,0,0,0,0],"sum_hessian":[1.194E3,5.81E2,6.13E2,3.92E2,1.89E2,3.24E2,2.89E2,2.23E2,1.69E2,1.53E2,3.6E1,2.16E2,1.08E2,3.7E1,2.52E2,1.32E2,9.1E1,1.6E2,9E0,6.6E1,8.7E1,3.1E1,5E0,2.12E2,4E0,4.1E1,6.7E1,2.2E1,1.5E1,2.26E2,2.6E1,1.31E2,1E0,1.6E1,7.5E1,4.7E1,1.13E2,7E0,2E0,2E1,4.6E1,4.8E1,3.9E1,2.2E1,9E0,1.99E2,1.3E1,2E0,2E0,3.8E1,3E0,5.8E1,9E0,1.3E1,9E0,1.3E1,2E0,1.8E1,2.08E2,2E1,6E0,1.3E2,1E0,1E1,6E0,6.7E1,8E0,9E0,3.8E1,1.05E2,8E0,1.1E1,9E0,1.2E1,3.4E1,1.1E1,3.7E1,1.1E1,2.8E1,1.3E1,9E0,2E0,7E0,4E0,1.95E2,5E0,8E0,3.1E1,7E0,5.3E1,5E0,3E0,6E0,9E0,4E0,6E0,3E0,6E0,7E0,4E0,1.4E1,1.97E2,1.1E1,1.3E1,7E0,3E0,3E0],"tree_param":{"num_deleted":"0","num_feature":"223","num_nodes":"107","size_leaf_vector":"1"}},{"base_weights":[-1.5758656E-2,-2.2236235E0,2.077064E0,-1.5461535E0,-5.3225126E0,6.4344853E-1,3.121185E0,-4.9143308E-1,-2.494289E0,-5.023378E0,-5.420013E0,5.301597E-1,3.7440407E0,2.596702E0,4.470118E0,-2.2425453E-1,-1.0912896E0,-2.356896E0,-6.390168E0,-1.0775899E1,-4.55646E0,2.9975617E-1,1.6430571E0,1.57785E0,4.4393212E-1,2.6851127E0,2.4868534E0,1.4094537E0,5.141149E0,-1.4304283E-1,-7.511198E-1,-6.895844E-1,-1.6354389E0,-2.1813965E0,-2.2659264E0,-5.700651E-1,-2.271035E0,-3.653953E0,-3.5283485E-1,-2.8873026E-1,-4.885186E0,2.4468707E-1,7.525956E-1,2.3995364E0,6.531293E-1,2.3458903E0,6.0791917E0,1.5465096E0,3.8496846E-1,3.9013789E0,4.66589E0,-3.1560194E-2,-2.0338902E-1,-3.9014325E-1,-4.004359E-2,-4.035301E-1,-7.0336595E-2,-3.4980753E-1,-9.721564E-1,-6.2570876E-1,-1.358593E0,-4.3454868E-1,3.699477E-1,-4.4720808E-1,-1.6164914E0,8.895324E-2,-3.2250407E-1,1.6289023E0,4.5660755E-1,8.6527425E-1,-2.5474718E-2,8.084789E-1,3.2352814E-1,2.8866827E0,8.1118107E-1,5.304365E-1,-1.2134276E-1,2.0309336E0,1.0572653E0],"categories":[],"categories_nodes":[],"categories_segments":[],"categories_sizes":[],"default_left":[0,0,0,0,0,0,0,0,0,0,0,0,0,0,0,0,0,0,0,0,0,0,0,0,0,0,0,0,0,0,0,0,0,0,0,0,0,0,0,0,0,0,0,0,0,0,0,0,0,0,0,0,0,0,0,0,0,0,0,0,0,0,0,0,0,0,0,0,0,0,0,0,0,0,0,0,0,0,0],"id":2,"left_children":[1,3,5,7,9,11,13,15,17,19,-1,21,23,25,27,29,31,33,35,37,39,41,43,-1,-1,-1,45,47,49,51,53,55,57,-1,59,-1,-1,-1,-1,61,63,65,-1,67,69,71,73,-1,75,-1,77,-1,-1,-1,-1,-1,-1,-1,-1,-1,-1,-1,-1,-1,-1,-1,-1,-1,-1,-1,-1,-1,-1,-1,-1,-1,-1,-1,-1],"loss_changes":[5.526319E3,1.2136238E3,9.1706836E2,4.7778284E2,3.0571655E2,8.934329E1,2.3955225E2,3.629656E1,1.19826294E2,2.2755347E2,0E0,6.41242E1,2.3099754E1,1.5781079E2,1.9402637E2,6.6957884E0,1.4173363E1,9.3053955E1,2.7998383E1,8.001807E1,1.3467249E2,2.493097E1,3.0633759E1,0E0,0E0,0E0,1.14867676E2,7.0923965E1,2.382959E2,2.742395E0,6.9518375E0,1.2215097E1,1.8071457E1,0E0,8.924475E1,0E0,0E0,0E0,0E0,1.59065E1,1.4567236E2,1.440746E1,0E0,5.5551422E1,3.317823E1,1.06365234E2,8.161127E1,0E0,1.818592E1,0E0,1.6109216E2,0E0,0E0,0E0,0E0,0E0,0E0,0E0,0E0,0E0,0E0,0E0,0E0,0E0,0E0,0E0,0E0,0E0,0E0,0E0,0E0,0E0,0E0,0E0,0E0,0E0,0E0,0E0,0E0],"parents":[2147483647,0,0,1,1,2,2,3,3,4,4,5,5,6,6,7,7,8,8,9,9,11,11,12,12,13,13,14,14,15,15,16,16,17,17,18,18,19,19,20,20,21,21,22,22,26,26,27,27,28,28,29,29,30,30,31,31,32,32,34,34,39,39,40,40,41,41,43,43,44,44,45,45,46,46,48,48,50,50],"right_children":[2,4,6,8,10,12,14,16,18,20,-1,22,24,26,28,30,32,34,36,38,40,42,44,-1,-1,-1,46,48,50,52,54,56,58,-1,60,-1,-1,-1,-1,62,64,66,-1,68,70,72,74,-1,76,-1,78,-1,-1,-1,-1,-1,-1,-1,-1,-1,-1,-1,-1,-1,-1,-1,-1,-1,-1,-1,-1,-1,-1,-1,-1,-1,-1,-1,-1],"split_conditions":[1E0,1.4255997E1,1.612E2,5.36343E5,8.135E1,1.836021E6,1.4255997E1,2.2258358E0,1.4485367E-2,5.42589E5,-5.420013E0,1.3335E2,1.8307997E8,1.4039491E2,-3.3741747E-4,3.0610747E0,6.78663E6,1.8569676E7,-5.618493E-2,7.97E1,1.74938E2,8.0369925E-3,4.9014E5,1.57785E0,4.4393212E-1,2.6851127E0,3.5525E2,2.6251623E-2,-1.091177E-3,1.653388E2,1.65754E6,1.1002276E5,5.36343E5,-2.1813965E0,2.6088772E-2,-5.700651E-1,-2.271035E0,-3.653953E0,-3.5283485E-1,6.285E1,4.37731E5,1.435447E2,7.525956E-1,2.509256E6,-5.6098114E1,1.9793E4,5.080487E-2,1.5465096E0,3.360555E7,3.9013789E0,-2.0741923E-2,-3.1560194E-2,-2.0338902E-1,-3.9014325E-1,-4.004359E-2,-4.035301E-1,-7.0336595E-2,-3.4980753E-1,-9.721564E-1,-6.2570876E-1,-1.358593E0,-4.3454868E-1,3.699477E-1,-4.4720808E-1,-1.6164914E0,8.895324E-2,-3.2250407E-1,1.6289023E0,4.5660755E-1,8.6527425E-1,-2.5474718E-2,8.084789E-1,3.2352814E-1,2.8866827E0,8.1118107E-1,5.304365E-1,-1.2134276E-1,2.0309336E0,1.0572653E0],"split_indices":[85,106,84,6,42,95,106,98,141,95,0,66,4,97,185,120,74,18,123,42,33,185,6,0,0,0,24,219,186,82,60,100,96,0,173,0,0,0,0,42,13,3,0,39,101,62,206,0,32,0,145,0,0,0,0,0,0,0,0,0,0,0,0,0,0,0,0,0,0,0,0,0,0,0,0,0,0,0,0],"split_type":[0,0,0,0,0,0,0,0,0,0,0,0,0,0,0,0,0,0,0,0,0,0,0,0,0,0,0,0,0,0,0,0,0,0,0,0,0,0,0,0,0,0,0,0,0,0,0,0,0,0,0,0,0,0,0,0,0,0,0,0,0,0,0,0,0,0,0,0,0,0,0,0,0,0,0,0,0,0,0],"sum_hessian":[1.194E3,5.81E2,6.13E2,4.78E2,1.03E2,2.59E2,3.54E2,2.27E2,2.51E2,1.02E2,1E0,2.51E2,8E0,2.57E2,9.7E1,1.58E2,6.9E1,2.44E2,7E0,6E0,9.6E1,2.09E2,4.2E1,4E0,4E0,3E0,2.54E2,1.8E1,7.9E1,1.38E2,2E1,4.1E1,2.8E1,3E0,2.41E2,2E0,5E0,5E0,1E0,7E0,8.9E1,2.05E2,4E0,2.3E1,1.9E1,2.46E2,8E0,3E0,1.5E1,3E0,7.6E1,1.3E2,8E0,1E1,1E1,1.6E1,2.5E1,2.3E1,5E0,2.25E2,1.6E1,4E0,3E0,1.2E1,7.7E1,1.98E2,7E0,4E0,1.9E1,4E0,1.5E1,1.92E2,5.4E1,3E0,5E0,5E0,1E1,2.5E1,5.1E1],"tree_param":{"num_deleted":"0","num_feature":"223","num_nodes":"79","size_leaf_vector":"1"}},{"base_weights":[-1.0275042E-2,-1.5926582E0,1.4896554E0,-8.990949E-1,-3.2543857E0,3.7267634E-1,2.230271E0,-1.8301427E0,-4.2349362E-1,-1.884826E0,-4.863158E0,2.0558646E0,2.3874591E-1,1.2747593E0,2.7446718E0,-1.2223473E0,-2.921556E0,-3.3645216E-1,-2.2958617E0,-1.257898E0,-3.7654343E0,-1.1195208E1,-4.276097E0,-2.6178038E-1,2.9674034E0,3.1674448E-1,-1.0815952E0,8.0597766E-2,1.6599368E0,8.186115E0,2.569415E0,-8.1691164E-1,-3.2220938E0,-4.1275396E0,-1.5987102E0,-2.8342518E-1,-2.2352343E0,-3.9358068E-1,-4.132546E0,-2.216544E0,-1.8114245E-1,-4.6987886E0,5.3439933E-1,-3.6972265E0,-8.326214E-1,-9.884396E0,-3.531514E0,-2.2292547E-1,3.217113E-1,3.4722807E0,9.633595E-1,2.5824383E-1,8.236572E-1,-2.9451582E-1,-4.610116E-1,8.181289E-1,-1.7811489E-1,-5.7938504E-1,1.863167E0,3.0765328E-1,2.7625895E0,5.271062E0,2.3187144E0,-1.3166194E0,-1.8384029E-1,-1.971773E-1,-1.4576868E0,-1.6701351E0,-7.1113783E-1,-9.390984E-1,-2.0814359E-1,-7.666117E-2,-7.6782876E-1,3.0683149E-2,-7.9255974E-1,-1.3018516E-1,-2.2704273E-2,-1.5524486E0,-4.0959623E-1,-4.15602E-1,-1.3216143E0,-7.971236E-1,9.6024856E-2,-1.640433E0,-1.3404247E-1,-1.9268522E-1,2.9674235E-1,-2.931997E-1,-3.8071585E0,1.1227426E-1,-1.2464337E0,1.1333885E0,4.499114E-1,3.228897E-3,3.8319123E-1,1.9047031E-2,2.1628061E-1,2.4762833E-2,-1.5110426E-1,-1.3921995E-1,5.604225E-1,6.5282576E-2,-3.04245E-1,3.2722056E-1,8.4622484E-1,5.8695197E-2,2.1209202E0,2.1743283E0,6.644328E-1],"categories":[],"categories_nodes":[],"categories_segments":[],"categories_sizes":[],"default_left":[0,0,0,0,0,0,0,0,0,0,0,0,0,0,0,0,0,0,0,0,0,0,0,0,0,0,0,0,0,0,0,0,0,0,0,0,0,0,0,0,0,0,0,0,0,0,0,0,0,0,0,0,0,0,0,0,0,0,0,0,0,0,0,0,0,0,0,0,0,0,0,0,0,0,0,0,0,0,0,0,0,0,0,0,0,0,0,0,0,0,0,0,0,0,0,0,0,0,0,0,0,0,0,0,0,0,0,0,0],"id":3,"left_children":[1,3,5,7,9,11,13,15,17,19,21,23,25,27,29,31,33,35,37,39,41,43,45,47,49,51,53,55,57,59,61,63,65,67,69,71,73,75,77,79,81,83,85,-1,-1,87,89,-1,-1,91,93,95,-1,97,-1,-1,99,101,103,-1,-1,105,107,-1,-1,-1,-1,-1,-1,-1,-1,-1,-1,-1,-1,-1,-1,-1,-1,-1,-1,-1,-1,-1,-1,-1,-1,-1,-1,-1,-1,-1,-1,-1,-1,-1,-1,-1,-1,-1,-1,-1,-1,-1,-1,-1,-1,-1,-1],"loss_changes":[2.8386628E3,6.678367E2,5.0710168E2,1.8166171E2,3.6759998E2,5.4964977E1,1.7787073E2,8.8635315E1,4.3882347E1,1.0609E2,2.4207751E2,3.8804024E1,2.3926088E1,6.0121506E1,2.0688843E2,7.1147766E1,7.157242E1,2.584707E1,4.0300186E1,7.391885E1,9.481622E1,2.2825378E1,2.699297E2,4.649661E0,9.808304E0,3.0123474E1,4.204117E0,2.3080261E1,4.6134186E1,4.1809235E1,1.4559009E2,5.344716E1,5.9780655E1,5.0039703E1,3.24771E1,1.5658575E1,6.9237366E0,5.6993008E-2,1.0240082E1,6.3033127E1,4.428555E1,5.9708405E1,3.3107452E0,0E0,0E0,1.8755237E2,1.6222034E2,0E0,0E0,3.639679E-1,1.182502E0,1.914785E1,0E0,5.147801E-1,0E0,0E0,1.9005358E1,3.339231E0,6.4233E1,0E0,0E0,1.7206775E2,9.4095825E1,0E0,0E0,0E0,0E0,0E0,0E0,0E0,0E0,0E0,0E0,0E0,0E0,0E0,0E0,0E0,0E0,0E0,0E0,0E0,0E0,0E0,0E0,0E0,0E0,0E0,0E0,0E0,0E0,0E0,0E0,0E0,0E0,0E0,0E0,0E0,0E0,0E0,0E0,0E0,0E0,0E0,0E0,0E0,0E0,0E0,0E0],"parents":[2147483647,0,0,1,1,2,2,3,3,4,4,5,5,6,6,7,7,8,8,9,9,10,10,11,11,12,12,13,13,14,14,15,15,16,16,17,17,18,18,19,19,20,20,21,21,22,22,23,23,24,24,25,25,26,26,27,27,28,28,29,29,30,30,31,31,32,32,33,33,34,34,35,35,36,36,37,37,38,38,39,39,40,40,41,41,42,42,45,45,46,46,49,49,50,50,51,51,53,53,56,56,57,57,58,58,61,61,62,62],"right_children":[2,4,6,8,10,12,14,16,18,20,22,24,26,28,30,32,34,36,38,40,42,44,46,48,50,52,54,56,58,60,62,64,66,68,70,72,74,76,78,80,82,84,86,-1,-1,88,90,-1,-1,92,94,96,-1,98,-1,-1,100,102,104,-1,-1,106,108,-1,-1,-1,-1,-1,-1,-1,-1,-1,-1,-1,-1,-1,-1,-1,-1,-1,-1,-1,-1,-1,-1,-1,-1,-1,-1,-1,-1,-1,-1,-1,-1,-1,-1,-1,-1,-1,-1,-1,-1,-1,-1,-1,-1,-1,-1],"split_conditions":[1E0,2.718829E2,4.93036E5,-1.47726135E-2,2.9101964E7,-2.2615047E-2,2.071467E2,5.9706144E0,-9.254758E-1,4.332699E-2,1.070379E6,-5.0609866E-5,8.359814E-2,2.660043E6,2.016233E2,3.5971561E-3,2.4943826E7,2.256E2,5.93253E1,1.9420289E-2,1.2556232E-2,4.6944E2,9.1415E1,4.4903E2,1.5997153E-2,5.075277E-2,-2.6053925E1,4.49473E5,1.3258021E7,2.918E2,-4.8088983E-2,-9.378776E1,1.701425E6,4.6449183E-3,4.468445E1,2.140681E6,3.9642876E7,3.183412E8,2.093967E2,2.4671458E-2,1.7339461E-3,4.048246E6,3.6438E2,-3.6972265E0,-8.326214E-1,7.463478E7,2E0,-2.2292547E-1,3.217113E-1,1.009424E6,5.4724E1,1.63567E5,8.236572E-1,3.34419E5,-4.610116E-1,8.181289E-1,1.0899805E-2,-5.876209E-2,9.15292E1,3.0765328E-1,2.7625895E0,-2.8539421E-2,-1.2273921E-2,-1.3166194E0,-1.8384029E-1,-1.971773E-1,-1.4576868E0,-1.6701351E0,-7.1113783E-1,-9.390984E-1,-2.0814359E-1,-7.666117E-2,-7.6782876E-1,3.0683149E-2,-7.9255974E-1,-1.3018516E-1,-2.2704273E-2,-1.5524486E0,-4.0959623E-1,-4.15602E-1,-1.3216143E0,-7.971236E-1,9.6024856E-2,-1.640433E0,-1.3404247E-1,-1.9268522E-1,2.9674235E-1,-2.931997E-1,-3.8071585E0,1.1227426E-1,-1.2464337E0,1.1333885E0,4.499114E-1,3.228897E-3,3.8319123E-1,1.9047031E-2,2.1628061E-1,2.4762833E-2,-1.5110426E-1,-1.3921995E-1,5.604225E-1,6.5282576E-2,-3.04245E-1,3.2722056E-1,8.4622484E-1,5.8695197E-2,2.1209202E0,2.1743283E0,6.644328E-1],"split_indices":[85,111,99,180,32,145,84,98,101,219,60,133,193,25,3,146,32,28,0,199,208,10,49,7,181,139,101,94,46,14,179,101,60,208,115,95,4,4,0,161,195,39,7,0,0,18,117,0,0,67,0,34,0,93,0,0,151,137,54,0,0,188,133,0,0,0,0,0,0,0,0,0,0,0,0,0,0,0,0,0,0,0,0,0,0,0,0,0,0,0,0,0,0,0,0,0,0,0,0,0,0,0,0,0,0,0,0,0,0],"split_type":[0,0,0,0,0,0,0,0,0,0,0,0,0,0,0,0,0,0,0,0,0,0,0,0,0,0,0,0,0,0,0,0,0,0,0,0,0,0,0,0,0,0,0,0,0,0,0,0,0,0,0,0,0,0,0,0,0,0,0,0,0,0,0,0,0,0,0,0,0,0,0,0,0,0,0,0,0,0,0,0,0,0,0,0,0,0,0,0,0,0,0,0,0,0,0,0,0,0,0,0,0,0,0,0,0,0,0,0,0],"sum_hessian":[1.194E3,5.81E2,6.13E2,4.11E2,1.7E2,2.45E2,3.68E2,1.38E2,2.73E2,9.3E1,7.7E1,1.7E1,2.28E2,1.3E2,2.38E2,9E1,4.8E1,2.62E2,1.1E1,7.1E1,2.2E1,5E0,7.2E1,5E0,1.2E1,2.16E2,1.2E1,3.2E1,9.8E1,6E0,2.32E2,7.6E1,1.4E1,2.4E1,2.4E1,2.56E2,6E0,6E0,5E0,3.7E1,3.4E1,1.8E1,4E0,4E0,1E0,7E0,6.5E1,4E0,1E0,9E0,3E0,2.12E2,4E0,5E0,7E0,2E0,3E1,8E0,9E1,1E0,5E0,1.8E1,2.14E2,3E0,7.3E1,6E0,8E0,1.2E1,1.2E1,8E0,1.6E1,2.54E2,2E0,1E0,5E0,5E0,1E0,3E0,2E0,2.8E1,9E0,5E0,2.9E1,1.5E1,3E0,1E0,3E0,2E0,5E0,9E0,5.6E1,7E0,2E0,1E0,2E0,1.5E2,6.2E1,2E0,3E0,2.7E1,3E0,3E0,5E0,5.1E1,3.9E1,5E0,1.3E1,3E0,2.11E2],"tree_param":{"num_deleted":"0","num_feature":"223","num_nodes":"109","size_leaf_vector":"1"}},{"base_weights":[-1.6795598E-2,-1.1565759E0,1.0636098E0,-9.506669E-1,-4.163866E0,2.2617482E-1,1.5822669E0,-2.556572E-1,-1.4557194E0,-2.4059336E0,-9.365663E0,1.7094944E-1,6.9439673E-1,1.4150206E0,3.7102563E0,-1.4785512E-1,-1.6950066E0,-4.3213735E0,-1.3283864E0,-1.8806242E0,-1.1256891E0,-3.6349514E0,-4.6860943E0,1.2632623E-1,1.14449E0,4.8804564E0,1.3205163E0,2.2527752E0,2.7230728E0,-1.9081703E-1,6.530491E-1,-4.6783495E-1,-2.863699E0,-5.6899085E0,1.8030721E-1,-2.2463744E0,-1.0790935E0,-2.3692741E0,4.463377E-1,-1.4844149E0,-6.725032E-1,1.0148137E-1,1.9061738E0,6.174713E-1,4.588501E-1,1.6940837E0,3.2065525E0,9.9253225E-1,2.0607417E0,1.089382E0,5.1433268E0,-4.1949455E-2,-4.439526E-1,-1.3128752E-2,-2.9609546E-1,-1.3714758E-1,-9.4265467E-1,-3.400981E-1,-1.8210589E0,-2.9819793E-1,2.709215E-1,-1.0552808E0,-3.06373E-1,5.601466E-2,-3.9287752E-1,-6.332554E-2,-1.107527E0,-1.7025682E-1,2.2040942E-1,-4.4827152E-2,-2.5779927E-1,1.8732846E-2,3.841345E-1,8.5573465E-1,2.043593E-3,-7.775683E-2,1.8651648E-1,7.3934394E-1,-4.6381284E-2,2.4415402E-1,1.0363297E0,1.1083064E0,3.8820896E-1,5.695578E-1,-1.3222648E-1,5.9649503E-1,1.9168336E0],"categories":[],"categories_nodes":[],"categories_segments":[],"categories_sizes":[],"default_left":[0,0,0,0,0,0,0,0,0,0,0,0,0,0,0,0,0,0,0,0,0,0,0,0,0,0,0,0,0,0,0,0,0,0,0,0,0,0,0,0,0,0,0,0,0,0,0,0,0,0,0,0,0,0,0,0,0,0,0,0,0,0,0,0,0,0,0,0,0,0,0,0,0,0,0,0,0,0,0,0,0,0,0,0,0,0,0],"id":4,"left_children":[1,3,5,7,9,11,13,15,17,19,21,23,-1,25,27,29,31,33,35,-1,37,39,-1,41,43,45,47,-1,49,51,-1,53,55,57,59,61,63,65,67,-1,69,71,73,-1,75,77,-1,79,81,83,85,-1,-1,-1,-1,-1,-1,-1,-1,-1,-1,-1,-1,-1,-1,-1,-1,-1,-1,-1,-1,-1,-1,-1,-1,-1,-1,-1,-1,-1,-1,-1,-1,-1,-1,-1,-1],"loss_changes":[1.4727827E3,3.564323E2,2.6632788E2,1.912828E2,3.158098E2,2.6823874E1,1.2963544E2,3.5592464E1,1.0956555E2,1.3635835E2,2.6581335E2,9.890643E0,0E0,1.0916211E2,8.081E1,2.1987928E1,2.1607239E1,8.11151E1,6.714569E1,0E0,4.6021324E1,2.001233E1,0E0,9.623411E0,5.3205957E0,1.4845232E2,8.171448E1,0E0,8.533772E1,1.3791772E1,0E0,1.9382215E0,3.9249725E0,1.04453125E1,4.292617E0,9.608261E1,7.056027E1,3.6324898E1,3.6328866E0,0E0,1.6477263E-1,1.0045581E1,5.372525E0,0E0,9.7978103E-1,1.0350573E1,0E0,1.0320596E2,1.2673297E2,1.94083E1,2.2679413E1,0E0,0E0,0E0,0E0,0E0,0E0,0E0,0E0,0E0,0E0,0E0,0E0,0E0,0E0,0E0,0E0,0E0,0E0,0E0,0E0,0E0,0E0,0E0,0E0,0E0,0E0,0E0,0E0,0E0,0E0,0E0,0E0,0E0,0E0,0E0,0E0],"parents":[2147483647,0,0,1,1,2,2,3,3,4,4,5,5,6,6,7,7,8,8,9,9,10,10,11,11,13,13,14,14,15,15,16,16,17,17,18,18,20,20,21,21,23,23,24,24,25,25,26,26,28,28,29,29,31,31,32,32,33,33,34,34,35,35,36,36,37,37,38,38,40,40,41,41,42,42,44,44,45,45,47,47,48,48,49,49,50,50],"right_children":[2,4,6,8,10,12,14,16,18,20,22,24,-1,26,28,30,32,34,36,-1,38,40,-1,42,44,46,48,-1,50,52,-1,54,56,58,60,62,64,66,68,-1,70,72,74,-1,76,78,-1,80,82,84,86,-1,-1,-1,-1,-1,-1,-1,-1,-1,-1,-1,-1,-1,-1,-1,-1,-1,-1,-1,-1,-1,-1,-1,-1,-1,-1,-1,-1,-1,-1,-1,-1,-1,-1,-1,-1],"split_conditions":[1E0,3.34891E2,4.75458E5,5.48238E5,3.1496353E-2,4.3023466E-3,2.331E2,1.4609922E-2,-2.1969672E-2,2.651771E-2,7.64817E5,1.3353E2,6.9439673E-1,9.14116E1,7.0244794E0,1.1827167E1,2.4163017E-4,7.623854E-3,-9.915041E1,-1.8806242E0,-2.0362874E-3,3.5834E2,-4.6860943E0,5.790316E1,1.1073E2,9.141E1,4.217696E6,2.2527752E0,3.281961E-2,5.702884E5,6.530491E-1,3.4885E2,3.29E1,5.23088E5,6.4496736E7,1.051179E6,-6.5819902E0,1.19154E5,5.23088E5,-1.4844149E0,3.662133E2,5.964338E6,4.49127E1,6.174713E-1,5.149E1,2.938519E2,3.2065525E0,4.1837E4,2.0317346E7,9.2506E5,-1.6126534E-2,-4.1949455E-2,-4.439526E-1,-1.3128752E-2,-2.9609546E-1,-1.3714758E-1,-9.4265467E-1,-3.400981E-1,-1.8210589E0,-2.9819793E-1,2.709215E-1,-1.0552808E0,-3.06373E-1,5.601466E-2,-3.9287752E-1,-6.332554E-2,-1.107527E0,-1.7025682E-1,2.2040942E-1,-4.4827152E-2,-2.5779927E-1,1.8732846E-2,3.841345E-1,8.5573465E-1,2.043593E-3,-7.775683E-2,1.8651648E-1,7.3934394E-1,-4.6381284E-2,2.4415402E-1,1.0363297E0,1.1083064E0,3.8820896E-1,5.695578E-1,-1.3222648E-1,5.9649503E-1,1.9168336E0],"split_indices":[85,90,92,95,199,170,37,151,220,219,94,66,0,54,98,120,201,134,104,0,131,2,0,105,59,51,39,0,196,99,0,22,0,6,4,6,103,83,6,0,0,53,0,0,2,87,0,76,46,67,127,0,0,0,0,0,0,0,0,0,0,0,0,0,0,0,0,0,0,0,0,0,0,0,0,0,0,0,0,0,0,0,0,0,0,0,0],"split_type":[0,0,0,0,0,0,0,0,0,0,0,0,0,0,0,0,0,0,0,0,0,0,0,0,0,0,0,0,0,0,0,0,0,0,0,0,0,0,0,0,0,0,0,0,0,0,0,0,0,0,0,0,0,0,0,0,0,0,0,0,0,0,0,0,0,0,0,0,0,0,0,0,0,0,0,0,0,0,0,0,0,0,0,0,0,0,0],"sum_hessian":[1.194E3,5.81E2,6.13E2,5.45E2,3.6E1,2.35E2,3.78E2,2.3E2,3.15E2,2.8E1,8E0,2.3E2,5E0,3.52E2,2.6E1,2.15E2,1.5E1,1.2E1,3.03E2,6E0,2.2E1,5E0,3E0,2.21E2,9E0,8E0,3.44E2,4E0,2.2E1,2.12E2,3E0,8E0,7E0,9E0,3E0,6.3E1,2.4E2,1.2E1,1E1,3E0,2E0,2.19E2,2E0,3E0,6E0,6E0,2E0,2.4E2,1.04E2,1.4E1,8E0,2.05E2,7E0,5E0,3E0,1E0,6E0,1E0,8E0,1E0,2E0,3E1,3.3E1,3.7E1,2.03E2,5E0,7E0,2E0,8E0,1E0,1E0,2.13E2,6E0,1E0,1E0,1E0,5E0,4E0,2E0,2.25E2,1.5E1,3.2E1,7.2E1,9E0,5E0,3E0,5E0],"tree_param":{"num_deleted":"0","num_feature":"223","num_nodes":"87","size_leaf_vector":"1"}},{"base_weights":[-1.1775371E-2,-8.346603E-1,7.6824224E-1,-6.5522856E-1,-3.0137298E0,3.0102962E-1,1.3430933E0,-3.7356514E-2,-1.0053672E0,-1.7225629E0,-7.8435388E0,1.8380746E0,2.144419E-1,3.1027129E0,1.0565023E0,2.283391E-3,-7.7648544E-1,-2.0290244E0,-7.992775E-1,-3.370193E0,-7.098897E-2,-3.1464999E0,-1.9154632E0,1.2127745E0,9.194597E-1,-1.1203355E0,2.8765613E-1,1.0838134E0,4.372264E0,-3.6861684E-2,1.5598102E0,-4.9868044E-2,4.934019E-1,-1.6739475E0,-1.894592E0,-3.1965246E0,-7.193685E-1,-4.4125633E0,-5.5002517E-1,5.432616E-1,-1.4924089E0,-8.684273E-1,1.5336296E-1,-4.791478E-1,1.7497025E0,1.558284E-1,-1.8305911E0,1.3574474E0,2.5902218E-1,2.6404438E0,3.4489968E-1,3.4951084E0,2.2994928E0,4.040958E0,-3.8094696E-1,6.456328E0,1.2317258E0,-5.133959E-3,-4.6815047E-1,-6.820141E-1,1.1743414E-1,1.3515253E-1,-1.2908677E0,-2.6185986E-1,1.6251646E-1,-1.4781713E0,-3.1637102E-1,8.720437E-2,-3.129146E-1,5.417295E-2,2.9902372E-1,-6.990071E-2,-6.1915845E-1,-2.6834967E-2,-1.9549029E-1,7.704143E-1,2.7375662E-1,9.7662054E-2,-5.3690195E-2,-6.2570643E-1,-2.5882486E-1,5.4623757E-2,4.9267018E-1,8.697433E-1,2.4084643E-1,-1.2310246E-1,2.828934E-1,6.041253E-1,1.2944602E0,2.694241E-1,1.3469752E0,-3.7693456E-1,2.3677891E-1,2.487104E0,4.8981395E-1,4.854475E-1,-2.1988425E-1],"categories":[],"categories_nodes":[],"categories_segments":[],"categories_sizes":[],"default_left":[0,0,0,0,0,0,0,0,0,0,0,0,0,0,0,0,0,0,0,0,0,0,0,0,0,0,0,0,0,0,0,0,0,0,0,0,0,0,0,0,0,0,0,0,0,0,0,0,0,0,0,0,0,0,0,0,0,0,0,0,0,0,0,0,0,0,0,0,0,0,0,0,0,0,0,0,0,0,0,0,0,0,0,0,0,0,0,0,0,0,0,0,0,0,0,0,0],"id":5,"left_children":[1,3,5,7,9,11,13,15,17,19,21,23,25,27,29,31,-1,33,35,37,39,-1,41,-1,43,45,47,49,51,53,55,57,-1,59,-1,61,63,65,67,69,71,-1,-1,73,75,77,79,-1,81,83,85,87,-1,89,91,93,95,-1,-1,-1,-1,-1,-1,-1,-1,-1,-1,-1,-1,-1,-1,-1,-1,-1,-1,-1,-1,-1,-1,-1,-1,-1,-1,-1,-1,-1,-1,-1,-1,-1,-1,-1,-1,-1,-1,-1,-1],"loss_changes":[7.6766956E2,2.2558398E2,1.6450238E2,1.1657019E2,2.60877E2,4.4856186E1,1.3540198E2,1.9825146E1,7.095026E1,9.772334E1,1.21016846E2,3.2734684E1,3.1887356E1,9.2658936E1,1.3102856E2,1.6698694E1,0E0,7.618025E1,5.2870224E1,5.0486847E1,1.739982E1,0E0,1.0985538E1,0E0,1.7094938E1,1.5694103E1,3.6075336E1,1.7492764E1,3.963916E1,1.0817633E2,2.5390228E2,9.325121E0,0E0,6.774545E1,0E0,3.8253113E1,5.467369E1,1.7271439E1,2.7901225E0,2.1226182E0,3.837263E0,0E0,0E0,3.4501708E-1,3.822523E0,4.5599246E-1,9.164047E-1,0E0,3.2268085E1,4.9468994E-2,5.807263E0,1.5598053E1,0E0,4.433838E0,7.3732635E1,7.493021E1,1.18104904E2,0E0,0E0,0E0,0E0,0E0,0E0,0E0,0E0,0E0,0E0,0E0,0E0,0E0,0E0,0E0,0E0,0E0,0E0,0E0,0E0,0E0,0E0,0E0,0E0,0E0,0E0,0E0,0E0,0E0,0E0,0E0,0E0,0E0,0E0,0E0,0E0,0E0,0E0,0E0,0E0],"parents":[2147483647,0,0,1,1,2,2,3,3,4,4,5,5,6,6,7,7,8,8,9,9,10,10,11,11,12,12,13,13,14,14,15,15,17,17,18,18,19,19,20,20,22,22,24,24,25,25,26,26,27,27,28,28,29,29,30,30,31,31,33,33,35,35,36,36,37,37,38,38,39,39,40,40,43,43,44,44,45,45,46,46,48,48,49,49,50,50,51,51,53,53,54,54,55,55,56,56],"right_children":[2,4,6,8,10,12,14,16,18,20,22,24,26,28,30,32,-1,34,36,38,40,-1,42,-1,44,46,48,50,52,54,56,58,-1,60,-1,62,64,66,68,70,72,-1,-1,74,76,78,80,-1,82,84,86,88,-1,90,92,94,96,-1,-1,-1,-1,-1,-1,-1,-1,-1,-1,-1,-1,-1,-1,-1,-1,-1,-1,-1,-1,-1,-1,-1,-1,-1,-1,-1,-1,-1,-1,-1,-1,-1,-1,-1,-1,-1,-1,-1,-1],"split_conditions":[1E0,3.1247E2,2.056489E2,2.7825797E0,3.7759969E-3,-3.4431856E-2,2.209167E2,4.3638013E-2,-3.5655335E-2,1.0772E4,4.585856E-2,1.684872E7,-2.0176338E-2,-1.1587705E-2,2.507633E2,2.649601E2,-7.7648544E-1,6.74881E5,9.1415E1,-1.526632E-3,6.4711E4,-3.1464999E0,8.1310904E7,1.2127745E0,1.7006E2,8.37929E5,-4.9855974E-2,3.1725E2,1.470161E6,-6.2445565E-3,2.476667E2,1.539826E6,4.934019E-1,-4.290809E-2,-1.894592E0,-9.847783E-2,8.8858E4,1.014027E6,4.6279E2,-5.76886E-3,3.548E2,-8.684273E-1,1.5336296E-1,1.6295E2,1E0,2.048267E2,1.6345E4,1.3574474E0,8.918054E0,2.0682E2,-6.995467E-3,1.932937E2,2.2994928E0,2.207203E2,1.2914283E-2,4.543901E-2,2.101372E6,-5.133959E-3,-4.6815047E-1,-6.820141E-1,1.1743414E-1,1.3515253E-1,-1.2908677E0,-2.6185986E-1,1.6251646E-1,-1.4781713E0,-3.1637102E-1,8.720437E-2,-3.129146E-1,5.417295E-2,2.9902372E-1,-6.990071E-2,-6.1915845E-1,-2.6834967E-2,-1.9549029E-1,7.704143E-1,2.7375662E-1,9.7662054E-2,-5.3690195E-2,-6.2570643E-1,-2.5882486E-1,5.4623757E-2,4.9267018E-1,8.697433E-1,2.4084643E-1,-1.2310246E-1,2.828934E-1,6.041253E-1,1.2944602E0,2.694241E-1,1.3469752E0,-3.7693456E-1,2.3677891E-1,2.487104E0,4.8981395E-1,4.854475E-1,-2.1988425E-1],"split_indices":[85,3,88,98,182,145,0,214,168,62,142,32,215,198,84,89,0,20,49,189,41,0,4,0,84,6,141,22,6,144,3,96,0,176,0,123,27,93,7,182,3,0,0,1,86,1,62,0,120,2,191,112,0,2,136,142,67,0,0,0,0,0,0,0,0,0,0,0,0,0,0,0,0,0,0,0,0,0,0,0,0,0,0,0,0,0,0,0,0,0,0,0,0,0,0,0,0],"split_type":[0,0,0,0,0,0,0,0,0,0,0,0,0,0,0,0,0,0,0,0,0,0,0,0,0,0,0,0,0,0,0,0,0,0,0,0,0,0,0,0,0,0,0,0,0,0,0,0,0,0,0,0,0,0,0,0,0,0,0,0,0,0,0,0,0,0,0,0,0,0,0,0,0,0,0,0,0,0,0,0,0,0,0,0,0,0,0,0,0,0,0,0,0,0,0,0,0],"sum_hessian":[1.194E3,5.81E2,6.13E2,5.38E2,4.3E1,3.39E2,2.74E2,1.95E2,3.43E2,3.5E1,8E0,1.7E1,3.22E2,3.7E1,2.37E2,1.93E2,2E0,5.6E1,2.87E2,1.7E1,1.8E1,5E0,3E0,4E0,1.3E1,1.6E1,3.06E2,1.5E1,2.2E1,7.5E1,1.62E2,1.88E2,5E0,5.3E1,3E0,8E0,2.79E2,1.2E1,5E0,1.3E1,5E0,2E0,1E0,5E0,8E0,6E0,1E1,1E0,3.05E2,4E0,1.1E1,1.9E1,3E0,5E0,7E1,9E0,1.53E2,1.85E2,3E0,4.1E1,1.2E1,2E0,6E0,2.49E2,3E1,1E1,2E0,2E0,3E0,8E0,5E0,2E0,3E0,2E0,3E0,3E0,5E0,4E0,2E0,7E0,3E0,2.9E2,1.5E1,3E0,1E0,5E0,6E0,8E0,1.1E1,1E0,4E0,4E1,3E1,6E0,3E0,1.28E2,2.5E1],"tree_param":{"num_deleted":"0","num_feature":"223","num_nodes":"97","size_leaf_vector":"1"}},{"base_weights":[-6.068946E-3,-6.026269E-1,5.5940795E-1,-5.706459E-1,-2.8775377E0,3.8285416E-1,1.4851111E0,-2.0290898E-1,-1.1391032E0,2.0730928E-1,1.1505321E0,2.4379876E0,3.5494682E-1,-6.565234E-2,-1.0559217E0,-2.2790225E-1,-1.566779E0,2.6436764E-1,-1.7642155E0,5.144267E-1,3.8784099E0,1.447868E0,6.5507145E0,1.6125938E0,-1.0903313E0,-4.21936E-3,-1.4499326E0,-1.7734793E0,6.887745E-1,-2.3971946E0,3.4519244E-2,-6.358585E-1,-2.0040188E0,1.2910451E0,2.3409449E-1,-5.952992E-1,-8.501746E-1,2.8491502E0,1.3476895E-1,6.665864E-1,7.016168E0,2.6867497E0,-3.2364732E-1,2.4132662E0,2.2994003E0,3.9364781E0,4.901677E-1,-8.6889917E-1,-3.887828E-1,4.5057783E-1,-1.711553E-2,-1.3665175E-1,-8.849743E-1,-8.0995554E-1,-2.2457416E-1,-3.2888457E-1,3.143184E-1,-2.6594564E-1,-1.1058847E0,-2.4843524E-1,1.8052655E-1,-8.941708E-1,-9.486109E-2,-6.9601786E-1,1.40691E-2,3.3547867E-2,3.3292326E-1,-2.9775074E-1,7.954177E-2,2.2305638E-1,1.0637463E0,8.9274514E-1,-8.5983425E-2,7.135665E-1,-2.6134554E-1,5.006319E-1,2.2427988E0,-2.1571445E-1,1.1233324E0,-7.9577684E-1,2.0927653E-1,7.839001E-1,2.0379017E-1,1.4055731E0,-1.9573227E-1,-3.1674865E-1,3.0218923E-1,1.3391942E-1,-4.9370086E-1],"categories":[],"categories_nodes":[],"categories_segments":[],"categories_sizes":[],"default_left":[0,0,0,0,0,0,0,0,0,0,0,0,0,0,0,0,0,0,0,0,0,0,0,0,0,0,0,0,0,0,0,0,0,0,0,0,0,0,0,0,0,0,0,0,0,0,0,0,0,0,0,0,0,0,0,0,0,0,0,0,0,0,0,0,0,0,0,0,0,0,0,0,0,0,0,0,0,0,0,0,0,0,0,0,0,0,0,0,0],"id":6,"left_children":[1,3,5,7,-1,9,11,13,15,17,19,21,23,25,27,29,31,33,35,37,39,41,43,45,47,49,51,53,55,57,59,61,63,-1,65,67,-1,69,71,73,75,77,79,-1,81,83,85,-1,87,-1,-1,-1,-1,-1,-1,-1,-1,-1,-1,-1,-1,-1,-1,-1,-1,-1,-1,-1,-1,-1,-1,-1,-1,-1,-1,-1,-1,-1,-1,-1,-1,-1,-1,-1,-1,-1,-1,-1,-1],"loss_changes":[4.0345816E2,1.6184128E2,9.978137E1,1.2122269E2,0E0,6.94334E1,1.0467149E2,4.1377583E1,8.849423E1,4.793801E1,1.6458578E2,2.0633627E2,8.537015E1,2.6016262E1,6.2565624E1,4.220865E1,6.1816223E1,4.924832E1,1.3317642E1,6.9641304E1,1.7672577E2,9.743627E1,4.4996735E1,6.3280174E1,2.6747868E1,2.3480232E1,1.804738E1,3.1209274E1,1.0759886E1,1.2311661E1,3.3282665E1,3.7281944E1,6.816699E1,0E0,4.3665154E1,2.655534E0,0E0,1.349984E1,8.345707E1,2.8397675E1,9.654175E0,9.635179E1,4.7039993E1,0E0,2.572403E-1,3.0545052E1,1.54541855E1,0E0,1.8579994E1,0E0,0E0,0E0,0E0,0E0,0E0,0E0,0E0,0E0,0E0,0E0,0E0,0E0,0E0,0E0,0E0,0E0,0E0,0E0,0E0,0E0,0E0,0E0,0E0,0E0,0E0,0E0,0E0,0E0,0E0,0E0,0E0,0E0,0E0,0E0,0E0,0E0,0E0,0E0,0E0],"parents":[2147483647,0,0,1,1,2,2,3,3,5,5,6,6,7,7,8,8,9,9,10,10,11,11,12,12,13,13,14,14,15,15,16,16,17,17,18,18,19,19,20,20,21,21,22,22,23,23,24,24,25,25,26,26,27,27,28,28,29,29,30,30,31,31,32,32,34,34,35,35,37,37,38,38,39,39,40,40,41,41,42,42,44,44,45,45,46,46,48,48],"right_children":[2,4,6,8,-1,10,12,14,16,18,20,22,24,26,28,30,32,34,36,38,40,42,44,46,48,50,52,54,56,58,60,62,64,-1,66,68,-1,70,72,74,76,78,80,-1,82,84,86,-1,88,-1,-1,-1,-1,-1,-1,-1,-1,-1,-1,-1,-1,-1,-1,-1,-1,-1,-1,-1,-1,-1,-1,-1,-1,-1,-1,-1,-1,-1,-1,-1,-1,-1,-1,-1,-1,-1,-1,-1,-1],"split_conditions":[1E0,4.3840198E2,1.4255997E1,2.24182E2,-2.8775377E0,1.9158883E0,3.3880624E7,5.5067625E-2,3.066618E6,1.5996958E0,2.054988E-2,6.74881E5,4.1456318E1,-9.254758E-1,2.0838344E7,2.330145E2,1.685594E6,-1.05159554E-4,2.3571574E2,-6.4403564E-2,1.045091E-2,3.731065E6,7.1653E5,7.7059595E-3,-3.2833192E-2,-2.6366744E-2,2.4824837E1,1.835598E2,3.7972488E-2,9.951891E7,7.49473E5,-4.771287E-3,5.400178E-2,1.2910451E0,3.0765118E-2,5.90737E5,-8.501746E-1,-1.0519478E0,8.433292E6,4.3857794E-2,1.3427E2,2.1947528E7,1.812965E1,2.4132662E0,2.7007E2,1.7108189E8,4.524657E-3,-8.6889917E-1,9.26043E5,4.5057783E-1,-1.711553E-2,-1.3665175E-1,-8.849743E-1,-8.0995554E-1,-2.2457416E-1,-3.2888457E-1,3.143184E-1,-2.6594564E-1,-1.1058847E0,-2.4843524E-1,1.8052655E-1,-8.941708E-1,-9.486109E-2,-6.9601786E-1,1.40691E-2,3.3547867E-2,3.3292326E-1,-2.9775074E-1,7.954177E-2,2.2305638E-1,1.0637463E0,8.9274514E-1,-8.5983425E-2,7.135665E-1,-2.6134554E-1,5.006319E-1,2.2427988E0,-2.1571445E-1,1.1233324E0,-7.9577684E-1,2.0927653E-1,7.839001E-1,2.0379017E-1,1.4055731E0,-1.9573227E-1,-3.1674865E-1,3.0218923E-1,1.3391942E-1,-4.9370086E-1],"split_indices":[85,111,106,91,0,121,32,139,25,121,136,20,115,101,81,91,60,214,107,137,186,25,20,174,192,189,103,87,200,4,96,208,204,0,169,13,0,120,81,139,0,32,105,0,0,11,186,0,6,0,0,0,0,0,0,0,0,0,0,0,0,0,0,0,0,0,0,0,0,0,0,0,0,0,0,0,0,0,0,0,0,0,0,0,0,0,0,0,0],"split_type":[0,0,0,0,0,0,0,0,0,0,0,0,0,0,0,0,0,0,0,0,0,0,0,0,0,0,0,0,0,0,0,0,0,0,0,0,0,0,0,0,0,0,0,0,0,0,0,0,0,0,0,0,0,0,0,0,0,0,0,0,0,0,0,0,0,0,0,0,0,0,0,0,0,0,0,0,0,0,0,0,0,0,0,0,0,0,0,0,0],"sum_hessian":[1.194E3,5.81E2,6.13E2,5.8E2,1E0,5.16E2,9.7E1,3.53E2,2.27E2,4.21E2,9.5E1,5.2E1,4.5E1,3.05E2,4.8E1,7.3E1,1.54E2,4.1E2,1.1E1,7.8E1,1.7E1,4.3E1,9E0,2.4E1,2.1E1,2.93E2,1.2E1,3.4E1,1.4E1,7E0,6.6E1,5E1,1.04E2,2E0,4.08E2,6E0,5E0,1E1,6.8E1,9E0,8E0,2.5E1,1.8E1,6E0,3E0,7E0,1.7E1,5E0,1.6E1,9E0,2.84E2,8E0,4E0,1.7E1,1.7E1,2E0,1.2E1,4E0,3E0,2.6E1,4E1,5E0,4.5E1,9E1,1.4E1,3.59E2,4.9E1,4E0,2E0,3E0,7E0,8E0,6E1,4E0,5E0,1E0,7E0,6E0,1.9E1,5E0,1.3E1,2E0,1E0,6E0,1E0,4E0,1.3E1,1E1,6E0],"tree_param":{"num_deleted":"0","num_feature":"223","num_nodes":"89","size_leaf_vector":"1"}},{"base_weights":[-2.623567E-3,-4.349411E-1,4.0716705E-1,-4.0762424E-1,-2.4459069E0,1.1260555E0,2.6343647E-1,-3.0891815E-1,-1.809953E0,7.465008E-1,3.2777054E0,8.462185E-2,8.6129373E-1,-2.6254627E-1,-2.531978E0,-4.1013827E0,-1.0621923E0,2.7410004E0,3.9551404E-1,-5.0080955E-1,4.653587E0,7.4214474E-3,1.6160496E0,5.589358E-1,3.4855437E0,-1.921302E-1,-1.6309783E0,5.777491E-1,-3.2872226E0,-1.5649105E0,-1.7452736E0,-1.7685722E0,7.8253543E-1,4.2033386E0,3.3438277E-1,-1.4782174E0,6.376915E-1,5.6757936E0,1.1902246E0,1.707636E-1,-7.6732874E-1,2.4741735E0,-6.555808E-1,3.9481202E-1,2.8471599E0,1.5607222E0,4.145317E-2,-6.053874E-1,-4.2062216E-2,-2.2081159E-1,-1.0657765E0,3.1485322E-1,-5.4866124E-2,-2.786277E-1,-1.1485169E0,-6.019023E-1,3.0121781E-2,-9.03559E-2,-7.2998196E-1,2.9608462E-2,6.3519555E-1,1.4890583E0,6.606805E-1,2.8725696E-1,-1.8237957E-1,-5.7904947E-1,2.0719672E-2,-4.401519E-2,3.5713372E-1,1.8662728E0,1.9723035E-1,1.1699939E-2,4.6828994E-1,4.570539E-1,4.99637E-3,7.208805E-1,-2.8693065E-1,8.834664E-1,-7.002268E-2,-3.7575033E-2,-3.432485E-1,5.3841572E-2,5.930886E-1,2.845996E-1,1.5186793E0,3.4812686E-1,-1.585185E-1],"categories":[],"categories_nodes":[],"categories_segments":[],"categories_sizes":[],"default_left":[0,0,0,0,0,0,0,0,0,0,0,0,0,0,0,0,0,0,0,0,0,0,0,0,0,0,0,0,0,0,0,0,0,0,0,0,0,0,0,0,0,0,0,0,0,0,0,0,0,0,0,0,0,0,0,0,0,0,0,0,0,0,0,0,0,0,0,0,0,0,0,0,0,0,0,0,0,0,0,0,0,0,0,0,0,0,0],"id":7,"left_children":[1,3,5,7,-1,9,11,13,15,17,19,21,23,25,27,29,31,33,35,-1,37,39,41,43,45,47,49,51,53,55,-1,57,59,61,63,65,67,69,71,73,75,77,79,81,83,-1,85,-1,-1,-1,-1,-1,-1,-1,-1,-1,-1,-1,-1,-1,-1,-1,-1,-1,-1,-1,-1,-1,-1,-1,-1,-1,-1,-1,-1,-1,-1,-1,-1,-1,-1,-1,-1,-1,-1,-1,-1],"loss_changes":[2.118829E2,1.1938194E2,6.314566E1,7.986196E1,0E0,8.085341E1,5.47697E1,5.5414803E1,6.0754295E1,6.051967E1,1.0986728E2,4.6805836E1,9.1680405E1,5.1142673E1,2.773384E1,3.0073761E1,4.0476326E1,4.434523E1,3.5429592E1,0E0,3.5727814E1,4.7966686E1,3.865949E1,3.905997E1,7.074074E1,4.797134E1,4.2098007E1,1.2684587E0,7.9312515E0,3.8770561E0,0E0,2.0725334E1,8.006041E0,1.2385101E0,4.105275E0,6.426922E0,2.9658451E1,2.0530426E1,1.6463504E0,6.522601E1,4.186646E1,1.8530334E1,1.4113498E0,3.405593E1,2.4635147E1,0E0,3.8013752E0,0E0,0E0,0E0,0E0,0E0,0E0,0E0,0E0,0E0,0E0,0E0,0E0,0E0,0E0,0E0,0E0,0E0,0E0,0E0,0E0,0E0,0E0,0E0,0E0,0E0,0E0,0E0,0E0,0E0,0E0,0E0,0E0,0E0,0E0,0E0,0E0,0E0,0E0,0E0,0E0],"parents":[2147483647,0,0,1,1,2,2,3,3,5,5,6,6,7,7,8,8,9,9,10,10,11,11,12,12,13,13,14,14,15,15,16,16,17,17,18,18,20,20,21,21,22,22,23,23,24,24,25,25,26,26,27,27,28,28,29,29,31,31,32,32,33,33,34,34,35,35,36,36,37,37,38,38,39,39,40,40,41,41,42,42,43,43,44,44,46,46],"right_children":[2,4,6,8,-1,10,12,14,16,18,20,22,24,26,28,30,32,34,36,-1,38,40,42,44,46,48,50,52,54,56,-1,58,60,62,64,66,68,70,72,74,76,78,80,82,84,-1,86,-1,-1,-1,-1,-1,-1,-1,-1,-1,-1,-1,-1,-1,-1,-1,-1,-1,-1,-1,-1,-1,-1,-1,-1,-1,-1,-1,-1,-1,-1,-1,-1,-1,-1,-1,-1,-1,-1,-1,-1],"split_conditions":[1E0,4.3840198E2,-6.272476E0,2.8050732E2,-2.4459069E0,1.3028863E1,5E0,4.1002247E-2,-4.5491792E-2,-4.5535234E-3,-3.1398214E-2,1.654907E6,4.5213E2,1.678942E6,3.14317E5,-2.4017707E-2,3.647032E-2,1.683474E6,1.0992E2,-5.0080955E-1,7.518E1,2.9031917E-2,2.7861202E-2,1.3348E2,3.1018156E7,-2.134121E-2,1.5055738E1,1.109993E2,3.0222E4,8.1310904E7,-1.7452736E0,-1.0952854E-3,7.404067E6,7.7128504E7,9.5479064E7,4.803779E6,5.834E3,1.0986228E8,2.239193E2,-5.0287634E-2,-6.902984E-2,1.0771135E8,1.8307997E8,-8.54789E0,1.028667E2,1.5607222E0,3.793669E7,-6.053874E-1,-4.2062216E-2,-2.2081159E-1,-1.0657765E0,3.1485322E-1,-5.4866124E-2,-2.786277E-1,-1.1485169E0,-6.019023E-1,3.0121781E-2,-9.03559E-2,-7.2998196E-1,2.9608462E-2,6.3519555E-1,1.4890583E0,6.606805E-1,2.8725696E-1,-1.8237957E-1,-5.7904947E-1,2.0719672E-2,-4.401519E-2,3.5713372E-1,1.8662728E0,1.9723035E-1,1.1699939E-2,4.6828994E-1,4.570539E-1,4.99637E-3,7.208805E-1,-2.8693065E-1,8.834664E-1,-7.002268E-2,-3.7575033E-2,-3.432485E-1,5.3841572E-2,5.930886E-1,2.845996E-1,1.5186793E0,3.4812686E-1,-1.585185E-1],"split_indices":[85,111,120,112,0,98,117,152,171,164,155,6,7,6,93,209,221,67,58,0,42,128,195,65,32,220,120,0,48,4,0,210,25,11,4,25,69,18,0,137,184,11,4,101,0,0,4,0,0,0,0,0,0,0,0,0,0,0,0,0,0,0,0,0,0,0,0,0,0,0,0,0,0,0,0,0,0,0,0,0,0,0,0,0,0,0,0],"split_type":[0,0,0,0,0,0,0,0,0,0,0,0,0,0,0,0,0,0,0,0,0,0,0,0,0,0,0,0,0,0,0,0,0,0,0,0,0,0,0,0,0,0,0,0,0,0,0,0,0,0,0,0,0,0,0,0,0,0,0,0,0,0,0,0,0,0,0,0,0,0,0,0,0,0,0,0,0,0,0,0,0,0,0,0,0,0,0],"sum_hessian":[1.194E3,5.81E2,6.13E2,5.8E2,1E0,1.01E2,5.12E2,5.43E2,3.7E1,8.7E1,1.4E1,3.95E2,1.17E2,5.33E2,1E1,8E0,2.9E1,1.2E1,7.5E1,3E0,1.1E1,3.77E2,1.8E1,1.06E2,1.1E1,5.08E2,2.5E1,2E0,8E0,4E0,4E0,2.1E1,8E0,7E0,5E0,8E0,6.7E1,8E0,3E0,3.12E2,6.5E1,1.3E1,5E0,1E2,6E0,7E0,4E0,1.3E1,4.95E2,1.8E1,7E0,1E0,1E0,2E0,6E0,3E0,1E0,7E0,1.4E1,6E0,2E0,4E0,3E0,3E0,2E0,6E0,2E0,2.8E1,3.9E1,7E0,1E0,1E0,2E0,3.1E1,2.81E2,3E0,6.2E1,1.1E1,2E0,3E0,2E0,8.9E1,1.1E1,4E0,2E0,1E0,3E0],"tree_param":{"num_deleted":"0","num_feature":"223","num_nodes":"87","size_leaf_vector":"1"}},{"base_weights":[-5.2974693E-4,-3.182383E-1,3.0062157E-1,-2.9493037E-1,-2.0790207E0,1.3270733E0,2.3816219E-1,-2.2966248E-1,-1.6793159E0,3.7665577E0,7.949407E-1,6.851889E-1,7.207411E-2,-1.6547614E-1,-1.3113511E0,-4.5970297E0,-3.6241972E-1,3.5841686E-1,1.4261384E0,2.4321415E0,2.8430125E-1,3.35343E-1,1.8950703E0,-1.6432406E-1,6.0206634E-1,-1.04496E0,-7.6998696E-2,-1.7938609E0,5.992344E-1,-5.2781324E0,2.560351E-2,-1.6495113E0,3.58508E-1,7.885856E-1,1.8799189E-1,-4.0253124E-1,1.1326061E0,-1.9363357E-1,1.2894971E0,1.9777216E-1,3.8982513E0,6.1866444E-2,-9.621624E-1,1.5009521E0,-8.91144E-2,-1.4409064E-1,-6.4327717E-1,3.926582E-1,-3.7386302E-2,4.184779E-2,-6.852522E-1,-1.4263174E-1,4.5722982E-1,-4.7153893E-1,-1.6901668E0,-7.177309E-1,-1.4826255E-1,3.1026286E-1,-1.1052269E-1,2.897987E-1,-2.590751E-1,-4.3493703E-2,4.2978683E-1,3.191398E-2,-6.2556225E-1,2.7225309E-3,6.5267825E-1,5.448914E-1,-2.4403833E-1,-2.0665126E-1,1.3808258E0,5.040943E-1,1.0584308E-3,-1.2764484E-1,-5.975361E-1,9.081268E-2,6.574557E-1,-5.814486E-1,4.817856E-2],"categories":[],"categories_nodes":[],"categories_segments":[],"categories_sizes":[],"default_left":[0,0,0,0,0,0,0,0,0,0,0,0,0,0,0,0,0,0,0,0,0,0,0,0,0,0,0,0,0,0,0,0,0,0,0,0,0,0,0,0,0,0,0,0,0,0,0,0,0,0,0,0,0,0,0,0,0,0,0,0,0,0,0,0,0,0,0,0,0,0,0,0,0,0,0,0,0,0,0],"id":8,"left_children":[1,3,5,7,-1,9,11,13,15,17,19,21,23,25,27,29,31,-1,-1,33,35,37,39,41,43,45,47,49,51,53,-1,55,57,-1,-1,59,61,63,65,67,69,71,73,75,77,-1,-1,-1,-1,-1,-1,-1,-1,-1,-1,-1,-1,-1,-1,-1,-1,-1,-1,-1,-1,-1,-1,-1,-1,-1,-1,-1,-1,-1,-1,-1,-1,-1,-1],"loss_changes":[1.1443129E2,8.7646965E1,3.904842E1,5.2111126E1,0E0,4.244034E1,4.3013187E1,3.8385864E1,9.8234436E1,9.554596E0,2.4389122E1,6.581821E1,5.3221558E1,4.0849964E1,2.9653114E1,2.5963882E1,1.8221464E1,0E0,0E0,8.3597946E-1,1.4439351E1,6.2330894E1,1.18228874E2,5.311578E1,8.152307E1,2.8764988E1,3.1776064E1,2.4017342E1,7.6821117E0,3.7457275E-1,0E0,4.82576E0,6.7663374E0,0E0,0E0,9.667695E0,4.4239655E0,4.5621635E1,4.9901703E1,3.4211773E1,5.4876266E1,2.171011E1,3.5070137E1,4.6502213E1,3.4940628E1,0E0,0E0,0E0,0E0,0E0,0E0,0E0,0E0,0E0,0E0,0E0,0E0,0E0,0E0,0E0,0E0,0E0,0E0,0E0,0E0,0E0,0E0,0E0,0E0,0E0,0E0,0E0,0E0,0E0,0E0,0E0,0E0,0E0,0E0],"parents":[2147483647,0,0,1,1,2,2,3,3,5,5,6,6,7,7,8,8,9,9,10,10,11,11,12,12,13,13,14,14,15,15,16,16,19,19,20,20,21,21,22,22,23,23,24,24,25,25,26,26,27,27,28,28,29,29,31,31,32,32,35,35,36,36,37,37,38,38,39,39,40,40,41,41,42,42,43,43,44,44],"right_children":[2,4,6,8,-1,10,12,14,16,18,20,22,24,26,28,30,32,-1,-1,34,36,38,40,42,44,46,48,50,52,54,-1,56,58,-1,-1,60,62,64,66,68,70,72,74,76,78,-1,-1,-1,-1,-1,-1,-1,-1,-1,-1,-1,-1,-1,-1,-1,-1,-1,-1,-1,-1,-1,-1,-1,-1,-1,-1,-1,-1,-1,-1,-1,-1,-1,-1],"split_conditions":[1E0,4.3840198E2,-1.2882177E-2,9.9256696E7,-2.0790207E0,1.1419423E-2,-5.282648E-2,3.264587E-2,-9.6435E-3,2.382383E2,-1.8718874E-2,-2.8442958E-2,4.048246E6,-4.2515293E-2,-2.2575708E-2,1.103541E2,1.28635E5,3.5841686E-1,1.4261384E0,1.3760382E8,5E0,2.515E4,2.077101E6,1.7308842E2,2.5989744E7,-2.918043E-2,-6.0556564E-2,2.606411E6,4.5116E2,6.6582972E7,2.560351E-2,7.611E4,9.965682E6,7.885856E-1,1.8799189E-1,1.67455E2,1.4515363E7,1.0739E4,-2.5228359E-2,1.3764034E-2,9.681E1,-1.348996E-2,5.2694904E7,2.7927E4,-5.4998897E-2,-1.4409064E-1,-6.4327717E-1,3.926582E-1,-3.7386302E-2,4.184779E-2,-6.852522E-1,-1.4263174E-1,4.5722982E-1,-4.7153893E-1,-1.6901668E0,-7.177309E-1,-1.4826255E-1,3.1026286E-1,-1.1052269E-1,2.897987E-1,-2.590751E-1,-4.3493703E-2,4.2978683E-1,3.191398E-2,-6.2556225E-1,2.7225309E-3,6.5267825E-1,5.448914E-1,-2.4403833E-1,-2.0665126E-1,1.3808258E0,5.040943E-1,1.0584308E-3,-1.2764484E-1,-5.975361E-1,9.081268E-2,6.574557E-1,-5.814486E-1,4.817856E-2],"split_indices":[85,111,210,18,0,199,165,152,189,0,168,171,39,205,176,56,83,0,0,4,117,76,60,112,46,155,148,39,9,4,0,27,25,0,0,0,46,55,205,175,70,191,18,27,211,0,0,0,0,0,0,0,0,0,0,0,0,0,0,0,0,0,0,0,0,0,0,0,0,0,0,0,0,0,0,0,0,0,0],"split_type":[0,0,0,0,0,0,0,0,0,0,0,0,0,0,0,0,0,0,0,0,0,0,0,0,0,0,0,0,0,0,0,0,0,0,0,0,0,0,0,0,0,0,0,0,0,0,0,0,0,0,0,0,0,0,0,0,0,0,0,0,0,0,0,0,0,0,0,0,0,0,0,0,0,0,0,0,0,0,0],"sum_hessian":[1.194E3,5.81E2,6.13E2,5.8E2,1E0,3.4E1,5.79E2,5.55E2,2.5E1,5E0,2.9E1,1.56E2,4.23E2,5.25E2,3E1,7E0,1.8E1,2E0,3E0,6E0,2.3E1,1.22E2,3.4E1,2.93E2,1.3E2,4.7E1,4.78E2,2.4E1,6E0,6E0,1E0,6E0,1.2E1,5E0,1E0,1.3E1,1E1,7.9E1,4.3E1,1.9E1,1.5E1,2.29E2,6.4E1,5.6E1,7.4E1,3.2E1,1.5E1,1.5E1,4.63E2,5E0,1.9E1,3E0,3E0,1E0,5E0,3E0,3E0,6E0,6E0,3E0,1E1,2E0,8E0,6.9E1,1E1,1.8E1,2.5E1,7E0,1.2E1,2E0,1.3E1,7E0,2.22E2,4.3E1,2.1E1,2.1E1,3.5E1,8E0,6.6E1],"tree_param":{"num_deleted":"0","num_feature":"223","num_nodes":"79","size_leaf_vector":"1"}},{"base_weights":[-1.1510387E-3,8.714929E-3,-1.7671676E0,-2.1258421E-1,2.1810594E-1,-8.4720063E-1,-1.1249021E-1,9.35663E-2,5.621171E-1,-1.5871902E0,-7.02272E-3,-5.4969054E-1,2.5926843E-2,1.6517724E-1,-9.192669E-1,-7.376793E-1,7.5953543E-1,5.0816035E-1,-2.0207791E0,8.017847E-1,-1.1692445E0,-1.3937504E0,-1.3125047E-1,1.06707886E-1,-9.638386E-1,1.0778905E-1,1.9668211E0,7.6801133E-1,-1.2592186E0,1.4643819E0,-1.3083807E0,1.6959906E0,4.8272368E-1,5.5649225E-3,2.3946506E-1,2.7022767E-1,-6.9684666E-1,4.9797204E-1,-3.6945827E-2,1.2101436E-1,-6.459474E-1,-9.358284E-1,-1.3420029E-1,-3.1694105E-1,4.936602E-2,-5.072628E-1,4.5907076E-2,-8.247635E-2,-1.2646973E0,4.357534E-2,-6.225174E-1,-2.155926E-1,7.561255E-1,-5.6508318E-2,-8.013996E-1,1.1051688E-1,4.9388477E-1,-8.0359824E-2,-4.7596124E-1,1.7064673E-1,9.8989046E-1,3.2110763E-1,-2.782842E-2],"categories":[],"categories_nodes":[],"categories_segments":[],"categories_sizes":[],"default_left":[0,0,0,0,0,0,0,0,0,0,0,0,0,0,0,0,0,0,0,0,0,0,0,0,0,0,0,0,0,0,0,0,0,0,0,0,0,0,0,0,0,0,0,0,0,0,0,0,0,0,0,0,0,0,0,0,0,0,0,0,0,0,0],"id":9,"left_children":[1,3,-1,5,7,9,11,13,15,17,19,21,23,25,27,29,31,33,35,37,39,41,43,45,47,49,51,-1,53,55,57,59,61,-1,-1,-1,-1,-1,-1,-1,-1,-1,-1,-1,-1,-1,-1,-1,-1,-1,-1,-1,-1,-1,-1,-1,-1,-1,-1,-1,-1,-1,-1],"loss_changes":[6.948645E1,5.5374E1,0E0,3.681057E1,2.6253021E1,4.910496E1,3.0453793E1,3.2935375E1,4.2386684E1,3.918476E1,3.6658E1,4.255288E1,3.0725338E1,4.3523273E1,3.870751E1,2.95638E1,3.5990807E1,1.1213112E0,3.297734E1,1.8459736E1,2.5625786E1,6.3932938E1,2.2615896E1,2.981475E1,6.380784E1,3.391051E1,2.1137913E1,0E0,4.1837643E1,3.9033508E-1,4.784691E0,5.5965546E1,3.7636734E1,0E0,0E0,0E0,0E0,0E0,0E0,0E0,0E0,0E0,0E0,0E0,0E0,0E0,0E0,0E0,0E0,0E0,0E0,0E0,0E0,0E0,0E0,0E0,0E0,0E0,0E0,0E0,0E0,0E0,0E0],"parents":[2147483647,0,0,1,1,3,3,4,4,5,5,6,6,7,7,8,8,9,9,10,10,11,11,12,12,13,13,14,14,15,15,16,16,17,17,18,18,19,19,20,20,21,21,22,22,23,23,24,24,25,25,26,26,28,28,29,29,30,30,31,31,32,32],"right_children":[2,4,-1,6,8,10,12,14,16,18,20,22,24,26,28,30,32,34,36,38,40,42,44,46,48,50,52,-1,54,56,58,60,62,-1,-1,-1,-1,-1,-1,-1,-1,-1,-1,-1,-1,-1,-1,-1,-1,-1,-1,-1,-1,-1,-1,-1,-1,-1,-1,-1,-1,-1,-1],"split_conditions":[4.3840198E2,1E0,-1.7671676E0,-3.3210897E0,2.5670383E-2,1.013293E6,-5.5484377E-2,2.8524E2,-1.1441457E-3,6.003679E7,1.5189533E-2,-5.122802E-2,7.778486E1,2.987714E2,-2.7979786E-2,3.8012E4,9.143E1,2.0507968E7,-6.272289E0,1.313565E6,7.937049E-3,5.1959166E-3,-3.5941437E-2,-2.148955E-2,1.305413E2,2.5144196E2,-6.693701E0,7.6801133E-1,-4.889067E-2,1.2637E2,1.91004E-2,-3.6610272E-3,7.69918E7,5.5649225E-3,2.3946506E-1,2.7022767E-1,-6.9684666E-1,4.9797204E-1,-3.6945827E-2,1.2101436E-1,-6.459474E-1,-9.358284E-1,-1.3420029E-1,-3.1694105E-1,4.936602E-2,-5.072628E-1,4.5907076E-2,-8.247635E-2,-1.2646973E0,4.357534E-2,-6.225174E-1,-2.155926E-1,7.561255E-1,-5.6508318E-2,-8.013996E-1,1.1051688E-1,4.9388477E-1,-8.0359824E-2,-4.7596124E-1,1.7064673E-1,9.8989046E-1,3.2110763E-1,-2.782842E-2],"split_indices":[111,85,0,121,177,6,165,1,174,11,169,202,115,111,129,48,52,32,121,6,151,149,155,154,114,108,121,0,153,0,216,129,11,0,0,0,0,0,0,0,0,0,0,0,0,0,0,0,0,0,0,0,0,0,0,0,0,0,0,0,0,0,0],"split_type":[0,0,0,0,0,0,0,0,0,0,0,0,0,0,0,0,0,0,0,0,0,0,0,0,0,0,0,0,0,0,0,0,0,0,0,0,0,0,0,0,0,0,0,0,0,0,0,0,0,0,0,0,0,0,0,0,0,0,0,0,0,0,0],"sum_hessian":[1.194E3,1.193E3,1E0,5.8E2,6.13E2,7.8E1,5.02E2,4.51E2,1.62E2,4.1E1,3.7E1,1.2E2,3.82E2,4.22E2,2.9E1,2.1E1,1.41E2,7E0,3.4E1,2.2E1,1.5E1,3.9E1,8.1E1,3.54E2,2.8E1,4.1E2,1.2E1,2E0,2.7E1,4E0,1.7E1,3.1E1,1.1E2,3E0,4E0,3E0,3.1E1,1.1E1,1.1E1,6E0,9E0,1.3E1,2.6E1,1.9E1,6.2E1,8E0,3.46E2,2.4E1,4E0,4.04E2,6E0,2E0,1E1,1.6E1,1.1E1,1E0,3E0,4E0,1.3E1,1.9E1,1.2E1,5.4E1,5.6E1],"tree_param":{"num_deleted":"0","num_feature":"223","num_nodes":"63","size_leaf_vector":"1"}}]},"name":"gbtree"},"learner_model_param":{"base_score":"-3.646122E-2","boost_from_average":"1","num_class":"0","num_feature":"223","num_target":"1"},"objective":{"name":"reg:squarederror","reg_loss_param":{"scale_pos_weight":"1"}}},"version":[2,0,0]}