{"learner":{"attributes":{},"feature_names":["o","h","l","c","v","vw","n","SPY_o","SPY_h","SPY_l","SPY_c","SPY_v","SPY_vw","SPY_n","QQQ_o","QQQ_h","QQQ_l","QQQ_c","QQQ_v","QQQ_vw","QQQ_n","DIA_o","DIA_h","DIA_l","DIA_c","DIA_v","DIA_vw","DIA_n","IWM_o","IWM_h","IWM_l","IWM_c","IWM_v","IWM_vw","IWM_n","VTI_o","VTI_h","VTI_l","VTI_c","VTI_v","VTI_vw","VTI_n","EFA_o","EFA_h","EFA_l","EFA_c","EFA_v","EFA_vw","EFA_n","BIL_o","BIL_h","BIL_l","BIL_c","BIL_v","BIL_vw","BIL_n","SHV_o","SHV_h","SHV_l","SHV_c","SHV_v","SHV_vw","SHV_n","IEI_o","IEI_h","IEI_l","IEI_c","IEI_v","IEI_vw","IEI_n","IEF_o","IEF_h","IEF_l","IEF_c","IEF_v","IEF_vw","IEF_n","TLT_o","TLT_h","TLT_l","TLT_c","TLT_v","TLT_vw","TLT_n","next_c","target_class","c_class","vw_lag_1","vw_lag_2","vw_lag_3","vw_lag_4","vw_lag_5","n_lag_1","n_lag_2","n_lag_3","n_lag_4","n_lag_5","vw_rolling_mean","vw_rolling_std","n_rolling_mean","n_rolling_std","williams_r","stoch_k","roc","cci","adx","atr","20D-EMA","50D-EMA","100D-EMA","bollinger_mavg","bollinger_hband","bollinger_lband","vwap","pvwap","rsi","rsicat","dayofweek","month","quarter","MACDs_12_26_9","MACDh_12_26_9","DMP_16","embed_0","embed_1","embed_2","embed_3","embed_4","embed_5","embed_6","embed_7","embed_8","embed_9","embed_10","embed_11","embed_12","embed_13","embed_14","embed_15","embed_16","embed_17","embed_18","embed_19","embed_20","embed_21","embed_22","embed_23","embed_24","embed_25","embed_26","embed_27","embed_28","embed_29","embed_30","embed_31","embed_32","embed_33","embed_34","embed_35","embed_36","embed_37","embed_38","embed_39","embed_40","embed_41","embed_42","embed_43","embed_44","embed_45","embed_46","embed_47","embed_48","embed_49","embed_50","embed_51","embed_52","embed_53","embed_54","embed_55","embed_56","embed_57","embed_58","embed_59","embed_60","embed_61","embed_62","embed_63","embed_64","embed_65","embed_66","embed_67","embed_68","embed_69","embed_70","embed_71","embed_72","embed_73","embed_74","embed_75","embed_76","embed_77","embed_78","embed_79","embed_80","embed_81","embed_82","embed_83","embed_84","embed_85","embed_86","embed_87","embed_88","embed_89","embed_90","embed_91","embed_92","embed_93","embed_94","embed_95","embed_96","embed_97","embed_98","embed_99"],"feature_types":["float","float","float","float","float","float","int","float","float","float","float","float","float","int","float","float","float","float","float","float","int","float","float","float","float","float","float","int","float","float","float","float","float","float","int","float","float","float","float","float","float","int","float","float","float","float","float","float","int","float","float","float","float","float","float","int","float","float","float","float","float","float","int","float","float","float","float","float","float","int","float","float","float","float","float","float","int","float","float","float","float","float","float","int","float","int","int","float","float","float","float","float","int","int","int","int","int","float","float","float","float","float","float","float","float","float","float","float","float","float","float","float","float","float","float","float","float","float","float","float","float","float","float","float","float","float","float","float","float","float","float","float","float","float","float","float","float","float","float","float","float","float","float","float","float","float","float","float","float","float","float","float","float","float","float","float","float","float","float","float","float","float","float","float","float","float","float","float","float","float","float","float","float","float","float","float","float","float","float","float","float","float","float","float","float","float","float","float","float","float","float","float","float","float","float","float","float","float","float","float","float","float","float","float","float","float","float","float","float","float","float","float","float","float","float","float","float","float","float","float","float","float","float"],"gradient_booster":{"model":{"gbtree_model_param":{"num_parallel_tree":"1","num_trees":"10"},"iteration_indptr":[0,1,2,3,4,5,6,7,8,9,10],"tree_info":[0,0,0,0,0,0,0,0,0,0],"trees":[{"base_weights":[8.822235E-9,-3.3675842E0,3.224283E0,-2.1906188E0,-8.056724E0,2.1502998E0,6.959516E0,-1.0568353E0,-3.1217675E0,-1.4312574E1,-7.338302E0,1.0086528E0,3.34665E0,3.614927E0,7.505006E0,-6.424751E-1,-1.7803484E0,-1.7455364E0,-3.47926E0,-1.5644664E0,-4.7264557E0,-5.868768E0,-8.671942E0,5.4019785E-1,1.7178398E0,2.425321E0,4.2790313E0,1.4723759E0,4.8201604E0,5.3055353E0,7.1712747E0,-9.808916E-1,-5.830433E-1,-2.0216415E0,-1.1975932E0,-1.1973193E0,-2.3109586E0,-6.081678E0,-3.1931777E0,-3.6281686E0,-7.0800576E0,-6.978669E0,-4.0426326E0,3.778002E-1,8.0314744E-1,1.3518026E0,2.2748785E0,2.1906495E0,5.4075584E0,8.091571E0,3.9923015E0,1.6335082E-1,5.536687E-1,6.444404E-1,5.769046E0,1.1944904E1,6.6483455E0,-7.571615E-2,-3.155255E-1,-1.8446754E-1,-9.637027E-2,-5.136707E-1,-8.8082784E-1,-1.9281213E-1,-5.2354836E-1,-4.1657323E-1,-1.4933628E-1,-3.5552838E-1,-8.511879E-1,-8.2549816E-1,-2.8427875E0,-8.995012E-1,-1.3501441E0,-4.789233E-1,-1.3590056E0,-2.6549141E0,-1.2745535E0,-1.7438308E0,-3.901582E0,6.064008E-2,1.496066E-1,1.7645624E-1,4.0544766E-1,1.5460108E-1,4.7028276E-1,7.820601E-1,2.8571203E-1,9.164355E-1,5.37304E-1,4.725333E-1,1.9267569E0,5.884019E-1,2.6359158E0,1.3879468E0,7.2323096E-1,4.0765163E-1,1.8451401E0,1.2906408E0,4.8969183E0,2.243741E0,1.1913834E0],"categories":[],"categories_nodes":[],"categories_segments":[],"categories_sizes":[],"default_left":[0,0,0,0,0,0,0,0,0,0,0,0,0,0,0,0,0,0,0,0,0,0,0,0,0,0,0,0,0,0,0,0,0,0,0,0,0,0,0,0,0,0,0,0,0,0,0,0,0,0,0,0,0,0,0,0,0,0,0,0,0,0,0,0,0,0,0,0,0,0,0,0,0,0,0,0,0,0,0,0,0,0,0,0,0,0,0,0,0,0,0,0,0,0,0,0,0,0,0,0,0],"id":0,"left_children":[1,3,5,7,9,11,13,15,17,19,21,23,25,27,29,31,33,35,37,-1,-1,39,41,43,45,47,49,51,53,-1,55,57,59,61,63,65,67,69,71,73,75,77,-1,79,81,83,85,87,89,91,93,-1,-1,-1,95,97,99,-1,-1,-1,-1,-1,-1,-1,-1,-1,-1,-1,-1,-1,-1,-1,-1,-1,-1,-1,-1,-1,-1,-1,-1,-1,-1,-1,-1,-1,-1,-1,-1,-1,-1,-1,-1,-1,-1,-1,-1,-1,-1,-1,-1],"loss_changes":[1.2986222E4,3.2109395E3,2.4361084E3,4.9183398E2,4.2080762E2,6.4674976E2,2.2099414E2,6.271251E1,1.203689E2,6.2175537E1,1.588081E2,8.046646E1,1.8891699E2,4.7130676E1,2.6727588E2,2.1835403E0,8.40625E0,1.4281631E1,1.317146E2,0E0,0E0,1.2086902E2,3.451753E2,6.059227E0,1.670282E1,7.143561E1,9.231714E1,2.1115112E0,2.0568085E1,0E0,2.0516016E2,7.1536636E-1,7.947197E-1,9.968353E0,6.4743195E0,3.3225136E0,1.2044632E1,1.8868256E2,3.362854E1,3.1247345E1,1.3277124E2,2.1951294E2,0E0,1.8953876E0,5.805912E0,1.020356E1,1.376236E1,3.320691E1,2.1002167E1,1.258255E1,9.716931E1,0E0,0E0,0E0,6.78183E0,2.643883E2,2.0382764E2,0E0,0E0,0E0,0E0,0E0,0E0,0E0,0E0,0E0,0E0,0E0,0E0,0E0,0E0,0E0,0E0,0E0,0E0,0E0,0E0,0E0,0E0,0E0,0E0,0E0,0E0,0E0,0E0,0E0,0E0,0E0,0E0,0E0,0E0,0E0,0E0,0E0,0E0,0E0,0E0,0E0,0E0,0E0,0E0],"parents":[2147483647,0,0,1,1,2,2,3,3,4,4,5,5,6,6,7,7,8,8,9,9,10,10,11,11,12,12,13,13,14,14,15,15,16,16,17,17,18,18,21,21,22,22,23,23,24,24,25,25,26,26,27,27,28,28,30,30,31,31,32,32,33,33,34,34,35,35,36,36,37,37,38,38,39,39,40,40,41,41,43,43,44,44,45,45,46,46,47,47,48,48,49,49,50,50,54,54,55,55,56,56],"right_children":[2,4,6,8,10,12,14,16,18,20,22,24,26,28,30,32,34,36,38,-1,-1,40,42,44,46,48,50,52,54,-1,56,58,60,62,64,66,68,70,72,74,76,78,-1,80,82,84,86,88,90,92,94,-1,-1,-1,96,98,100,-1,-1,-1,-1,-1,-1,-1,-1,-1,-1,-1,-1,-1,-1,-1,-1,-1,-1,-1,-1,-1,-1,-1,-1,-1,-1,-1,-1,-1,-1,-1,-1,-1,-1,-1,-1,-1,-1,-1,-1,-1,-1,-1,-1],"split_conditions":[1E0,1.2938009E1,2.0834329E2,4.365614E0,-3.5027847E-2,2.173604E0,1.1013E2,6.55856E1,2.29474E5,1.9938138E2,1.16652E5,3.3517597E0,3.23138E5,1.9865346E-3,-1.8048186E2,1.2630513E0,5.2544E4,-2.0114554E-2,3.1182E4,-1.5644664E0,-4.7264557E0,-2.939662E-4,3.7482E2,3.815E3,1.046409E6,5.8261268E-2,-9.827342E-2,2.80665E2,2.9286802E-2,5.3055353E0,-1.0450141E-2,5.8856E4,7.58E4,5.237E3,6.452904E6,5.268022E7,1.3415619E2,3.251819E-2,5.2818045E-2,1.224346E6,3.152366E-2,1.8892902E5,-4.0426326E0,2.333E3,3.680981E6,6.126E1,5.116749E4,1.073237E7,1.3585E2,1.5108E2,5.245068E5,1.6335082E-1,5.536687E-1,6.444404E-1,2.103096E6,1.3232252E-3,-1.2167962E-2,-7.571615E-2,-3.155255E-1,-1.8446754E-1,-9.637027E-2,-5.136707E-1,-8.8082784E-1,-1.9281213E-1,-5.2354836E-1,-4.1657323E-1,-1.4933628E-1,-3.5552838E-1,-8.511879E-1,-8.2549816E-1,-2.8427875E0,-8.995012E-1,-1.3501441E0,-4.789233E-1,-1.3590056E0,-2.6549141E0,-1.2745535E0,-1.7438308E0,-3.901582E0,6.064008E-2,1.496066E-1,1.7645624E-1,4.0544766E-1,1.5460108E-1,4.7028276E-1,7.820601E-1,2.8571203E-1,9.164355E-1,5.37304E-1,4.725333E-1,1.9267569E0,5.884019E-1,2.6359158E0,1.3879468E0,7.2323096E-1,4.0765163E-1,1.8451401E0,1.2906408E0,4.8969183E0,2.243741E0,1.1913834E0],"split_indices":[85,106,109,106,184,98,58,90,20,112,83,106,92,216,104,106,48,201,48,0,0,206,14,62,67,207,180,0,155,0,150,96,83,62,25,11,107,146,161,67,146,100,0,69,25,42,100,81,0,0,99,0,0,0,39,191,203,0,0,0,0,0,0,0,0,0,0,0,0,0,0,0,0,0,0,0,0,0,0,0,0,0,0,0,0,0,0,0,0,0,0,0,0,0,0,0,0,0,0,0,0],"split_type":[0,0,0,0,0,0,0,0,0,0,0,0,0,0,0,0,0,0,0,0,0,0,0,0,0,0,0,0,0,0,0,0,0,0,0,0,0,0,0,0,0,0,0,0,0,0,0,0,0,0,0,0,0,0,0,0,0,0,0,0,0,0,0,0,0,0,0,0,0,0,0,0,0,0,0,0,0,0,0,0,0,0,0,0,0,0,0,0,0,0,0,0,0,0,0,0,0,0,0,0,0],"sum_hessian":[1.194E3,5.84E2,6.1E2,4.68E2,1.16E2,4.75E2,1.35E2,2.12E2,2.56E2,1E1,1.06E2,2.44E2,2.31E2,2E1,1.15E2,1.36E2,7.6E1,5.4E1,2.02E2,2E0,8E0,5.3E1,5.3E1,1.48E2,9.6E1,1.18E2,1.13E2,8E0,1.2E1,2E0,1.13E2,1.8E1,1.18E2,5.2E1,2.4E1,2.9E1,2.5E1,1.8E1,1.84E2,2E1,3.3E1,4.1E1,1.2E1,9.3E1,5.5E1,6E1,3.6E1,1.11E2,7E0,6E0,1.07E2,3E0,5E0,4E0,8E0,9E0,1.04E2,2E0,1.6E1,1.04E2,1.4E1,4.1E1,1.1E1,1.3E1,1.1E1,2.2E1,7E0,9E0,1.6E1,1E1,8E0,1.63E2,2.1E1,7E0,1.3E1,1.9E1,1.4E1,3.6E1,5E0,3.9E1,5.4E1,4.1E1,1.4E1,1.3E1,4.7E1,2.8E1,8E0,3.3E1,7.8E1,2E0,5E0,1E0,5E0,7.5E1,3.2E1,1E0,7E0,4E0,5E0,7.8E1,2.6E1],"tree_param":{"num_deleted":"0","num_feature":"223","num_nodes":"101","size_leaf_vector":"1"}},{"base_weights":[-1.6770554E-3,-2.4123857E0,2.306451E0,-1.4674077E0,-5.5514426E0,1.6268631E0,5.4213705E0,-6.808996E-1,-2.0531254E0,-2.470509E0,-6.129408E0,7.309705E-1,2.5163E0,6.2122664E0,2.6576538E0,-4.373939E-1,-1.180294E0,-1.1732304E0,-2.374505E0,5.490009E-1,-3.13509E0,-1.0438793E1,-5.562329E0,4.1517553E-1,1.3576179E0,2.3581817E0,5.2418456E0,5.45596E0,1.0295443E1,1.1559855E0,4.0704E0,-7.666461E-1,-4.0112597E-1,-1.5359412E0,-7.636279E-1,-2.2671366E0,-9.567354E-1,-2.0019085E0,-2.292408E0,2.2001292E-1,-2.8275134E-2,-4.3359823E0,-1.8675338E0,-1.0308758E0,-3.448703E0,-6.2259727E0,-2.8660812E0,3.3294597E-1,1.1806865E0,1.127416E0,1.2532407E0,1.1564828E0,2.5577085E0,9.593614E0,1.3227894E0,6.104165E0,2.2882261E0,4.025724E0,1.41987095E1,-7.513281E-1,2.299085E0,1.2719729E0,3.0544332E-1,-2.654709E-1,-3.5072412E-2,-2.6426908E-1,-1.1443896E-1,-2.926643E-1,-6.96913E-1,-2.9607785E-1,-8.037321E-2,-2.0363289E-1,-8.333774E-1,-2.0980711E-1,-3.7052917E-1,-3.9459816E-1,-7.39353E-1,-5.4663825E-1,-1.5867666E0,-2.96455E-1,-7.3068863E-1,-1.6233398E0,-3.6430368E0,-3.058899E-1,-1.4939568E0,9.3310066E-2,3.9965802E-1,1.7356874E-1,7.1689403E-1,1.7642824E-1,4.8182783E-1,9.0190196E-1,2.493908E-1,1.1485418E0,6.927916E-1,1.1999443E0,3.417168E0,1.0850566E-1,6.580416E-1,2.356567E0,1.1467237E0,1.9711335E0,1.5691054E-1,3.3359045E-1,1.3158245E0,4.591734E0,1.133444E0,-4.891001E-2,-2.5091413E-1,1.3756552E-1,9.4287795E-1],"categories":[],"categories_nodes":[],"categories_segments":[],"categories_sizes":[],"default_left":[0,0,0,0,0,0,0,0,0,0,0,0,0,0,0,0,0,0,0,0,0,0,0,0,0,0,0,0,0,0,0,0,0,0,0,0,0,0,0,0,0,0,0,0,0,0,0,0,0,0,0,0,0,0,0,0,0,0,0,0,0,0,0,0,0,0,0,0,0,0,0,0,0,0,0,0,0,0,0,0,0,0,0,0,0,0,0,0,0,0,0,0,0,0,0,0,0,0,0,0,0,0,0,0,0,0,0,0,0,0,0],"id":1,"left_children":[1,3,5,7,9,11,13,15,17,19,21,23,25,27,29,31,33,35,37,39,41,43,45,47,49,51,53,55,57,59,61,63,65,67,69,71,73,-1,75,-1,-1,77,79,-1,-1,81,83,85,87,-1,89,91,93,95,97,99,101,103,105,107,109,-1,-1,-1,-1,-1,-1,-1,-1,-1,-1,-1,-1,-1,-1,-1,-1,-1,-1,-1,-1,-1,-1,-1,-1,-1,-1,-1,-1,-1,-1,-1,-1,-1,-1,-1,-1,-1,-1,-1,-1,-1,-1,-1,-1,-1,-1,-1,-1,-1,-1],"loss_changes":[6.654812E3,1.7271631E3,1.284582E3,2.0636493E2,2.2524756E2,3.9897107E2,2.2174341E2,2.3075195E1,7.017163E1,4.7875458E1,2.1808105E2,4.9305145E1,9.624036E1,2.0323145E2,5.045308E1,1.2687263E0,8.162842E0,1.4645554E1,5.104712E1,6.6211975E-1,2.0824173E1,4.9308228E1,1.6466919E2,1.0245043E1,1.6336487E1,5.458716E1,2.0902234E2,1.3592627E2,2.3650854E2,3.2250854E1,2.4091797E0,8.185792E-1,8.054428E-1,1.2289635E1,3.1670647E0,7.0388794E0,3.5065308E0,0E0,2.8035706E1,0E0,0E0,1.1929123E1,3.088253E0,0E0,0E0,3.248562E2,8.078786E1,2.9576187E0,1.0264545E1,0E0,1.8300735E1,1.9156147E1,5.586963E1,1.4750427E1,5.901183E0,2.0970312E2,1.0238849E2,1.4227829E0,2.2926514E1,1.638565E-1,1.2536869E1,0E0,0E0,0E0,0E0,0E0,0E0,0E0,0E0,0E0,0E0,0E0,0E0,0E0,0E0,0E0,0E0,0E0,0E0,0E0,0E0,0E0,0E0,0E0,0E0,0E0,0E0,0E0,0E0,0E0,0E0,0E0,0E0,0E0,0E0,0E0,0E0,0E0,0E0,0E0,0E0,0E0,0E0,0E0,0E0,0E0,0E0,0E0,0E0,0E0,0E0],"parents":[2147483647,0,0,1,1,2,2,3,3,4,4,5,5,6,6,7,7,8,8,9,9,10,10,11,11,12,12,13,13,14,14,15,15,16,16,17,17,18,18,19,19,20,20,21,21,22,22,23,23,24,24,25,25,26,26,27,27,28,28,29,29,30,30,31,31,32,32,33,33,34,34,35,35,36,36,38,38,41,41,42,42,45,45,46,46,47,47,48,48,50,50,51,51,52,52,53,53,54,54,55,55,56,56,57,57,58,58,59,59,60,60],"right_children":[2,4,6,8,10,12,14,16,18,20,22,24,26,28,30,32,34,36,38,40,42,44,46,48,50,52,54,56,58,60,62,64,66,68,70,72,74,-1,76,-1,-1,78,80,-1,-1,82,84,86,88,-1,90,92,94,96,98,100,102,104,106,108,110,-1,-1,-1,-1,-1,-1,-1,-1,-1,-1,-1,-1,-1,-1,-1,-1,-1,-1,-1,-1,-1,-1,-1,-1,-1,-1,-1,-1,-1,-1,-1,-1,-1,-1,-1,-1,-1,-1,-1,-1,-1,-1,-1,-1,-1,-1,-1,-1,-1,-1],"split_conditions":[1E0,1.06763E1,1.2263849E1,4.0190063E0,4.201838E2,1.314E2,1.54552E5,6.15568E1,3.4835184E7,-8.729205E1,-3.3671778E-2,2.32649E5,1.6938728E7,2.2694742E-2,6.20045E5,3.4766573E-1,3.5422063E0,1.323475E2,1.480774E7,1.8517E2,1.7034E2,-7.916871E-3,-2.130052E-3,1.3337E2,-1.2209087E-2,3.29956E5,3.560312E-2,-1.4644993E-2,-2.1492831E-2,3.9930467E-2,3.485E2,1.7411E5,2.75322E5,1.50119E5,1.790504E5,1.30775E2,1.6545E4,-2.0019085E0,2.2236185E0,2.2001292E-1,-2.8275134E-2,1.7024E2,4.0879E2,-1.0308758E0,-3.448703E0,1.520376E1,6.1723487E-3,4.3862797E1,4E0,1.127416E0,1.1058E2,2.400188E4,2.659904E6,1.974E2,6.0858E4,3.330742E-2,-2.1598032E-2,1.793468E6,4.3742E2,1.8736E2,1.4622213E1,1.2719729E0,3.0544332E-1,-2.654709E-1,-3.5072412E-2,-2.6426908E-1,-1.1443896E-1,-2.926643E-1,-6.96913E-1,-2.9607785E-1,-8.037321E-2,-2.0363289E-1,-8.333774E-1,-2.0980711E-1,-3.7052917E-1,-3.9459816E-1,-7.39353E-1,-5.4663825E-1,-1.5867666E0,-2.96455E-1,-7.3068863E-1,-1.6233398E0,-3.6430368E0,-3.058899E-1,-1.4939568E0,9.3310066E-2,3.9965802E-1,1.7356874E-1,7.1689403E-1,1.7642824E-1,4.8182783E-1,9.0190196E-1,2.493908E-1,1.1485418E0,6.927916E-1,1.1999443E0,3.417168E0,1.0850566E-1,6.580416E-1,2.356567E0,1.1467237E0,1.9711335E0,1.5691054E-1,3.3359045E-1,1.3158245E0,4.591734E0,1.133444E0,-4.891001E-2,-2.5091413E-1,1.3756552E-1,9.4287795E-1],"split_indices":[85,106,106,106,12,84,83,90,18,101,184,20,74,142,92,98,106,84,32,2,84,161,182,65,213,13,164,167,183,164,21,96,67,92,99,2,76,0,98,0,0,3,7,0,0,98,182,122,117,0,58,100,39,0,41,209,175,25,0,0,106,0,0,0,0,0,0,0,0,0,0,0,0,0,0,0,0,0,0,0,0,0,0,0,0,0,0,0,0,0,0,0,0,0,0,0,0,0,0,0,0,0,0,0,0,0,0,0,0,0,0],"split_type":[0,0,0,0,0,0,0,0,0,0,0,0,0,0,0,0,0,0,0,0,0,0,0,0,0,0,0,0,0,0,0,0,0,0,0,0,0,0,0,0,0,0,0,0,0,0,0,0,0,0,0,0,0,0,0,0,0,0,0,0,0,0,0,0,0,0,0,0,0,0,0,0,0,0,0,0,0,0,0,0,0,0,0,0,0,0,0,0,0,0,0,0,0,0,0,0,0,0,0,0,0,0,0,0,0,0,0,0,0,0,0],"sum_hessian":[1.194E3,5.84E2,6.1E2,4.5E2,1.34E2,5.02E2,1.08E2,1.93E2,2.57E2,2.2E1,1.12E2,2.51E2,2.51E2,8.3E1,2.5E1,1.31E2,6.2E1,7E1,1.87E2,4E0,1.8E1,1.1E1,1.01E2,1.68E2,8.3E1,2.39E2,1.2E1,7.2E1,1.1E1,1.3E1,1.2E1,1.1E1,1.2E2,3.2E1,3E1,1E1,6E1,2E0,1.85E2,3E0,1E0,8E0,1E1,2E0,9E0,8E1,2.1E1,1.53E2,1.5E1,2E0,8.1E1,3.5E1,2.04E2,5E0,7E0,5.9E1,1.3E1,5E0,6E0,5E0,8E0,1.1E1,1E0,9E0,2E0,3E0,1.17E2,2E1,1.2E1,2E1,1E1,3E0,7E0,3.3E1,2.7E1,2.9E1,1.56E2,3E0,5E0,5E0,5E0,7.2E1,8E0,1.2E1,9E0,1.51E2,2E0,1.1E1,4E0,2.9E1,5.2E1,4E0,3.1E1,3.1E1,1.73E2,2E0,3E0,4E0,3E0,3.2E1,2.7E1,3E0,1E1,1E0,4E0,5E0,1E0,1E0,4E0,3E0,5E0],"tree_param":{"num_deleted":"0","num_feature":"223","num_nodes":"111","size_leaf_vector":"1"}},{"base_weights":[3.5091483E-3,-1.7251025E0,1.6585572E0,-1.0422596E0,-3.9935255E0,7.5661176E-1,2.9147766E0,-4.557168E-1,-1.4447621E0,-3.269032E0,-5.970106E0,3.4719446E-1,1.2049285E0,2.5359085E0,5.1491156E0,-9.9750113E-1,-3.4017903E-1,-1.012101E0,-1.8242172E0,-3.003014E0,-3.287383E0,-4.5459843E0,-3.3051503E0,2.1947968E-1,6.85968E-1,2.8595679E0,1.0144492E0,1.2517272E0,2.916036E0,7.8962965E0,1.9632517E0,-1.3827008E0,-3.281554E-1,-3.561495E-1,1.7471546E-1,-8.9245546E-1,-2.9356754E0,-5.006394E0,-1.694764E0,-3.3930447E0,1.07460715E-1,-5.872275E0,-1.8418475E0,1.7373015E-1,6.122805E-1,1.3871141E-1,1.0065668E0,6.064677E-1,3.2990558E0,1.8407811E0,7.5594175E-1,3.1125278E0,9.413504E-1,2.2165997E0,4.0873756E0,2.6641648E0,1.0726359E1,4.120118E0,-1.7425333E-1,-3.862014E-2,-4.5446357E-1,-2.006145E-1,5.418497E-2,-9.9226974E-2,-4.5212373E-1,6.8870224E-2,-3.2342112E-1,-1.0760335E0,-2.6158386E-1,-3.632724E-1,-1.6957616E0,-5.729656E-1,-1.0224283E-1,-1.1821953E0,-3.133619E-1,-3.4948215E-1,1.9830969E-1,-2.117804E0,-1.0072899E0,5.7250846E-2,-6.944277E-1,1.2761353E-1,3.4755044E-2,4.3704577E-2,2.8320578E-1,1.3422178E-1,-6.441712E-2,1.4006521E-1,4.3658814E-1,3.1199035E-1,-1.041049E-1,1.1146786E0,3.9864266E-1,-1.2895101E-1,6.662627E-1,1.7423922E-1,6.418096E-1,-1.1350633E-1,1.1272202E0,5.684566E-1,1.5249225E-1,-1.5159464E-1,7.4074525E-1,1.7003065E0,8.5992485E-1,1.2711797E0,9.524283E-3,1.1257317E0,4.1232796E0,6.0112405E-1,1.6237398E0,-1.929078E-1,3.4016746E-1],"categories":[],"categories_nodes":[],"categories_segments":[],"categories_sizes":[],"default_left":[0,0,0,0,0,0,0,0,0,0,0,0,0,0,0,0,0,0,0,0,0,0,0,0,0,0,0,0,0,0,0,0,0,0,0,0,0,0,0,0,0,0,0,0,0,0,0,0,0,0,0,0,0,0,0,0,0,0,0,0,0,0,0,0,0,0,0,0,0,0,0,0,0,0,0,0,0,0,0,0,0,0,0,0,0,0,0,0,0,0,0,0,0,0,0,0,0,0,0,0,0,0,0,0,0,0,0,0,0,0,0,0,0],"id":2,"left_children":[1,3,5,7,9,11,13,15,17,19,21,23,25,27,29,31,33,35,37,39,-1,41,-1,43,45,47,49,51,53,55,57,59,61,63,-1,65,67,69,71,73,75,77,79,81,83,85,87,89,91,93,95,97,99,101,103,105,107,109,111,-1,-1,-1,-1,-1,-1,-1,-1,-1,-1,-1,-1,-1,-1,-1,-1,-1,-1,-1,-1,-1,-1,-1,-1,-1,-1,-1,-1,-1,-1,-1,-1,-1,-1,-1,-1,-1,-1,-1,-1,-1,-1,-1,-1,-1,-1,-1,-1,-1,-1,-1,-1,-1,-1],"loss_changes":[3.4216792E3,9.0198914E2,6.9008276E2,1.0581592E2,1.7380615E2,6.5108505E1,2.0280493E2,1.1241032E1,4.1988525E1,1.7367737E2,2.0148315E2,7.9835243E0,5.0678772E1,1.0374353E2,2.9957477E2,7.796875E0,2.4764194E0,2.660875E1,4.9599335E1,1.2046942E2,0E0,9.319183E1,0E0,2.3735514E0,8.808319E0,1.4832809E1,3.1504868E1,2.7102577E1,1.293977E2,2.5276135E2,8.370358E1,3.119915E0,2.3732538E0,3.9437943E0,0E0,2.5447456E1,6.278412E0,5.417465E0,3.925235E1,1.090567E2,9.222445E0,3.3013428E1,1.1015816E1,1.7713952E0,2.0295162E0,2.2781382E0,7.069992E0,2.0142274E0,6.5522766E0,3.2024384E1,2.7591026E1,1.7179848E1,1.8030617E1,7.548938E1,1.0338306E2,3.2993935E1,2.0098499E2,1.3770569E1,6.8613462E0,0E0,0E0,0E0,0E0,0E0,0E0,0E0,0E0,0E0,0E0,0E0,0E0,0E0,0E0,0E0,0E0,0E0,0E0,0E0,0E0,0E0,0E0,0E0,0E0,0E0,0E0,0E0,0E0,0E0,0E0,0E0,0E0,0E0,0E0,0E0,0E0,0E0,0E0,0E0,0E0,0E0,0E0,0E0,0E0,0E0,0E0,0E0,0E0,0E0,0E0,0E0,0E0,0E0,0E0],"parents":[2147483647,0,0,1,1,2,2,3,3,4,4,5,5,6,6,7,7,8,8,9,9,10,10,11,11,12,12,13,13,14,14,15,15,16,16,17,17,18,18,19,19,21,21,23,23,24,24,25,25,26,26,27,27,28,28,29,29,30,30,31,31,32,32,33,33,35,35,36,36,37,37,38,38,39,39,40,40,41,41,42,42,43,43,44,44,45,45,46,46,47,47,48,48,49,49,50,50,51,51,52,52,53,53,54,54,55,55,56,56,57,57,58,58],"right_children":[2,4,6,8,10,12,14,16,18,20,22,24,26,28,30,32,34,36,38,40,-1,42,-1,44,46,48,50,52,54,56,58,60,62,64,-1,66,68,70,72,74,76,78,80,82,84,86,88,90,92,94,96,98,100,102,104,106,108,110,112,-1,-1,-1,-1,-1,-1,-1,-1,-1,-1,-1,-1,-1,-1,-1,-1,-1,-1,-1,-1,-1,-1,-1,-1,-1,-1,-1,-1,-1,-1,-1,-1,-1,-1,-1,-1,-1,-1,-1,-1,-1,-1,-1,-1,-1,-1,-1,-1,-1,-1,-1,-1,-1,-1],"split_conditions":[1E0,1.06763E1,6.7507396E0,2.6358E2,1.1844827E-2,1.6304736E0,1.5530946E1,1.405334E2,4.266E3,3.1189227E-3,-2.1230112E1,3.0857E4,-1.0071322E-2,1.663E2,2.4657E4,1.2192E2,1.04601E5,2.8241176E-2,1.7024132E7,8.128846E-3,-3.287383E0,6.62463E5,-3.3051503E0,1.56296E5,2.644E3,-1.3194449E-1,1.7113024E7,-1.3010606E-2,-1.1076358E-2,5.2500236E7,-1.3903087E-3,1.10539E5,-1.18397665E1,8.082617E7,1.7471546E-1,9.146E1,4.4594E2,1.349225E2,3.431E4,-2.2560174E-3,-1.0982636E-2,9.438836E-3,5.312E3,6.2147E4,1.1056E2,3.7763E4,6.2675E1,1.501E2,2.086657E6,-1.6524807E-2,1.25409E5,1.213224E2,7.485073E7,-4.5125276E-2,8.0070016E4,2.358533E6,-1.1497236E1,-5.5737466E-2,1.0271353E1,-3.862014E-2,-4.5446357E-1,-2.006145E-1,5.418497E-2,-9.9226974E-2,-4.5212373E-1,6.8870224E-2,-3.2342112E-1,-1.0760335E0,-2.6158386E-1,-3.632724E-1,-1.6957616E0,-5.729656E-1,-1.0224283E-1,-1.1821953E0,-3.133619E-1,-3.4948215E-1,1.9830969E-1,-2.117804E0,-1.0072899E0,5.7250846E-2,-6.944277E-1,1.2761353E-1,3.4755044E-2,4.3704577E-2,2.8320578E-1,1.3422178E-1,-6.441712E-2,1.4006521E-1,4.3658814E-1,3.1199035E-1,-1.041049E-1,1.1146786E0,3.9864266E-1,-1.2895101E-1,6.662627E-1,1.7423922E-1,6.418096E-1,-1.1350633E-1,1.1272202E0,5.684566E-1,1.5249225E-1,-1.5159464E-1,7.4074525E-1,1.7003065E0,8.5992485E-1,1.2711797E0,9.524283E-3,1.1257317E0,4.1232796E0,6.0112405E-1,1.6237398E0,-1.929078E-1,3.4016746E-1],"split_indices":[85,106,106,17,175,98,106,33,69,168,101,27,177,84,76,71,41,143,32,175,0,94,0,6,55,134,46,150,217,4,141,93,101,18,0,49,9,0,76,221,141,206,62,6,56,27,42,0,60,221,83,0,11,181,100,60,103,168,98,0,0,0,0,0,0,0,0,0,0,0,0,0,0,0,0,0,0,0,0,0,0,0,0,0,0,0,0,0,0,0,0,0,0,0,0,0,0,0,0,0,0,0,0,0,0,0,0,0,0,0,0,0,0],"split_type":[0,0,0,0,0,0,0,0,0,0,0,0,0,0,0,0,0,0,0,0,0,0,0,0,0,0,0,0,0,0,0,0,0,0,0,0,0,0,0,0,0,0,0,0,0,0,0,0,0,0,0,0,0,0,0,0,0,0,0,0,0,0,0,0,0,0,0,0,0,0,0,0,0,0,0,0,0,0,0,0,0,0,0,0,0,0,0,0,0,0,0,0,0,0,0,0,0,0,0,0,0,0,0,0,0,0,0,0,0,0,0,0,0],"sum_hessian":[1.194E3,5.84E2,6.1E2,4.5E2,1.34E2,3.56E2,2.54E2,1.84E2,2.66E2,1E2,3.4E1,1.87E2,1.69E2,2.19E2,3.5E1,3.1E1,1.53E2,1.26E2,1.4E2,9.8E1,2E0,2.8E1,6E0,1.37E2,5E1,1.6E1,1.53E2,5.1E1,1.68E2,1.8E1,1.7E1,1.9E1,1.2E1,1.51E2,2E0,1.2E2,6E0,4E0,1.36E2,8.7E1,1.1E1,1.8E1,1E1,1.24E2,1.3E1,1.9E1,3.1E1,3E0,1.3E1,3.5E1,1.18E2,6E0,4.5E1,1.07E2,6.1E1,7E0,1.1E1,8E0,9E0,2E0,1.7E1,7E0,5E0,1.49E2,2E0,1.7E1,1.03E2,4E0,2E0,1E0,3E0,1.17E2,1.9E1,7E1,1.7E1,3E0,8E0,1.1E1,7E0,2E0,8E0,2.2E1,1.02E2,6E0,7E0,1E1,9E0,1.5E1,1.6E1,2E0,1E0,1E1,3E0,5E0,3E1,1.06E2,1.2E1,1E0,5E0,1.3E1,3.2E1,9E0,9.8E1,2.5E1,3.6E1,4E0,3E0,4E0,7E0,4E0,4E0,7E0,2E0],"tree_param":{"num_deleted":"0","num_feature":"223","num_nodes":"113","size_leaf_vector":"1"}},{"base_weights":[3.002084E-3,-1.2372198E0,1.1904436E0,-8.4358543E-1,-3.3928359E0,8.1091017E-1,2.9309473E0,-5.5583805E-1,-1.5860327E0,-2.7319465E0,-5.8846188E0,4.2878813E-1,1.4022837E0,2.6690252E0,7.8451233E0,-2.6705602E-1,-8.4474146E-1,-1.4530015E0,-1.4502193E0,-2.3190596E0,-2.3301609E0,6.2352943E-1,-7.7886276E0,3.45057E-1,1.836845E0,1.3176564E0,6.435622E0,1.4403776E0,3.49792E0,2.9331012E0,9.8946077E-1,-1.8230718E-1,-1.5602375E0,-7.465514E-1,-2.1490073E0,-2.2990868E0,-9.3820995E-1,-3.686328E0,-1.3705693E0,4.0172672E-1,1.09867275E-1,-9.126601E0,-2.162044E0,1.4538872E-1,6.9737047E-1,8.6805755E-1,9.974263E-1,1.6439984E0,1.2240783E0,2.3404918E0,5.5553836E-1,3.1307623E0,5.471726E-1,2.1703E0,5.509556E0,-8.007E-2,1.2082455E-1,3.812788E-2,-6.626619E-1,-2.0344661E-1,-8.521892E-1,-1.0199935E0,-2.309236E-1,-3.3020988E-1,-1.0088868E0,-2.2768529E-1,-1.3135403E0,1.8618812E-1,-1.394882E0,-1.5154659E0,-1.4701281E-1,4.229565E-2,2.476895E-3,-1.0662519E0,-2.9910033E0,-1.23442985E-1,-7.825224E-1,2.8493917E-2,4.9506915E-1,1.7085308E-1,4.922484E-1,3.79678E-1,-4.186505E-2,3.414954E-1,1.2611556E0,1.1606417E0,4.0182766E-2,-1.8293837E-1,7.000319E-1,2.000879E0,4.830276E-1,2.2532349E0,7.385015E-1],"categories":[],"categories_nodes":[],"categories_segments":[],"categories_sizes":[],"default_left":[0,0,0,0,0,0,0,0,0,0,0,0,0,0,0,0,0,0,0,0,0,0,0,0,0,0,0,0,0,0,0,0,0,0,0,0,0,0,0,0,0,0,0,0,0,0,0,0,0,0,0,0,0,0,0,0,0,0,0,0,0,0,0,0,0,0,0,0,0,0,0,0,0,0,0,0,0,0,0,0,0,0,0,0,0,0,0,0,0,0,0,0,0],"id":3,"left_children":[1,3,5,7,9,11,13,15,17,19,21,23,25,27,29,31,33,35,-1,-1,37,39,41,43,45,47,49,51,53,-1,-1,55,57,59,61,63,65,67,69,-1,71,73,75,77,79,-1,81,-1,83,-1,-1,85,87,89,91,-1,-1,-1,-1,-1,-1,-1,-1,-1,-1,-1,-1,-1,-1,-1,-1,-1,-1,-1,-1,-1,-1,-1,-1,-1,-1,-1,-1,-1,-1,-1,-1,-1,-1,-1,-1,-1,-1],"loss_changes":[1.7613387E3,4.9352478E2,4.012373E2,1.0508249E2,1.3213489E2,1.1306506E2,1.1935852E2,2.9725807E1,5.2604523E1,1.2858789E2,2.2790479E2,3.5560932E1,7.5433655E1,1.0189569E2,1.1674011E1,1.9552368E1,2.1319473E1,5.6207672E1,0E0,0E0,8.474188E1,1.6906576E0,8.5662964E1,2.0369244E1,1.2192879E1,6.92453E1,4.3377304E0,6.472077E1,1.536253E2,0E0,0E0,8.570538E0,1.23198185E1,2.2135689E1,1.8087887E1,6.004477E1,4.9096222E1,1.1905197E2,1.3365509E2,0E0,1.1483785E-2,1.6263062E1,2.0522614E0,1.4028627E1,1.1731754E1,0E0,3.53051E0,0E0,4.4279602E1,0E0,0E0,3.265854E1,6.3422485E1,8.7562485E1,1.2789911E2,0E0,0E0,0E0,0E0,0E0,0E0,0E0,0E0,0E0,0E0,0E0,0E0,0E0,0E0,0E0,0E0,0E0,0E0,0E0,0E0,0E0,0E0,0E0,0E0,0E0,0E0,0E0,0E0,0E0,0E0,0E0,0E0,0E0,0E0,0E0,0E0,0E0,0E0],"parents":[2147483647,0,0,1,1,2,2,3,3,4,4,5,5,6,6,7,7,8,8,9,9,10,10,11,11,12,12,13,13,14,14,15,15,16,16,17,17,20,20,21,21,22,22,23,23,24,24,25,25,26,26,27,27,28,28,31,31,32,32,33,33,34,34,35,35,36,36,37,37,38,38,40,40,41,41,42,42,43,43,44,44,46,46,48,48,51,51,52,52,53,53,54,54],"right_children":[2,4,6,8,10,12,14,16,18,20,22,24,26,28,30,32,34,36,-1,-1,38,40,42,44,46,48,50,52,54,-1,-1,56,58,60,62,64,66,68,70,-1,72,74,76,78,80,-1,82,-1,84,-1,-1,86,88,90,92,-1,-1,-1,-1,-1,-1,-1,-1,-1,-1,-1,-1,-1,-1,-1,-1,-1,-1,-1,-1,-1,-1,-1,-1,-1,-1,-1,-1,-1,-1,-1,-1,-1,-1,-1,-1,-1,-1],"split_conditions":[1E0,3.0075482E2,1.2263849E1,4.08147E5,1.467E5,2.56832E5,2.5708675E-2,1.303526E2,2.1179937E-2,-4.795813E-2,-3.6368124E-2,3.1540316E-2,8.17E1,-2.6802335E-2,4.4712E2,3.6839988E-2,4.006955E1,-5.037034E-2,-1.4502193E0,-2.3190596E0,1E0,3.6007E2,-1.6574752E-2,1.1813E2,-2.4682142E-2,-2.6168939E-2,2.6728E2,1.87117E-2,1E0,2.9331012E0,9.8946077E-1,1.7050132E7,-4.090393E-2,6.871173E0,2.16245E5,-3.3744127E-2,8.02421E5,-4.6856344E-2,2.625126E2,4.0172672E-1,4.2602E2,4.375E3,4.3742924E7,1.7825602E0,1.5040753E7,8.6805755E-1,1.74795E2,1.6439984E0,-9.627281E-1,2.3404918E0,5.5553836E-1,3.5401527E-3,-3.1459756E-2,-4.6856344E-2,-8.188489E-3,-8.007E-2,1.2082455E-1,3.812788E-2,-6.626619E-1,-2.0344661E-1,-8.521892E-1,-1.0199935E0,-2.309236E-1,-3.3020988E-1,-1.0088868E0,-2.2768529E-1,-1.3135403E0,1.8618812E-1,-1.394882E0,-1.5154659E0,-1.4701281E-1,4.229565E-2,2.476895E-3,-1.0662519E0,-2.9910033E0,-1.23442985E-1,-7.825224E-1,2.8493917E-2,4.9506915E-1,1.7085308E-1,4.922484E-1,3.79678E-1,-4.186505E-2,3.414954E-1,1.2611556E0,1.1606417E0,4.0182766E-2,-1.8293837E-1,7.000319E-1,2.000879E0,4.830276E-1,2.2532349E0,7.385015E-1],"split_indices":[85,111,106,94,83,6,188,68,179,217,134,138,45,194,7,158,105,130,0,0,86,15,189,71,167,191,0,146,86,0,0,81,128,98,94,168,99,176,108,0,0,69,4,121,81,0,0,0,101,0,0,142,160,176,181,0,0,0,0,0,0,0,0,0,0,0,0,0,0,0,0,0,0,0,0,0,0,0,0,0,0,0,0,0,0,0,0,0,0,0,0,0,0],"split_type":[0,0,0,0,0,0,0,0,0,0,0,0,0,0,0,0,0,0,0,0,0,0,0,0,0,0,0,0,0,0,0,0,0,0,0,0,0,0,0,0,0,0,0,0,0,0,0,0,0,0,0,0,0,0,0,0,0,0,0,0,0,0,0,0,0,0,0,0,0,0,0,0,0,0,0,0,0,0,0,0,0,0,0,0,0,0,0,0,0,0,0,0,0],"sum_hessian":[1.194E3,5.84E2,6.1E2,4.95E2,8.9E1,5.02E2,1.08E2,3.58E2,1.37E2,7.2E1,1.7E1,3.06E2,1.96E2,1.04E2,4E0,1.8E2,1.78E2,1.33E2,4E0,4E0,6.8E1,4E0,1.3E1,2.9E2,1.6E1,1.94E2,2E0,4.3E1,6.1E1,2E0,2E0,1.7E2,1E1,1.67E2,1.1E1,4.9E1,8.4E1,2.7E1,4.1E1,1E0,3E0,1E1,3E0,1.86E2,1.04E2,6E0,1E1,3E0,1.91E2,1E0,1E0,1.4E1,2.9E1,3.8E1,2.3E1,1.49E2,2.1E1,3E0,7E0,1.63E2,4E0,5E0,6E0,2.4E1,2.5E1,8.1E1,3E0,5E0,2.2E1,7E0,3.4E1,2E0,1E0,2E0,8E0,1E0,2E0,1.81E2,5E0,9.3E1,1.1E1,8E0,2E0,1.87E2,4E0,1.1E1,3E0,1.8E1,1.1E1,3E0,3.5E1,1.3E1,1E1],"tree_param":{"num_deleted":"0","num_feature":"223","num_nodes":"93","size_leaf_vector":"1"}},{"base_weights":[4.380537E-3,-8.949903E-1,8.6547315E-1,-5.20376E-1,-2.1398501E0,5.8610773E-1,2.1908827E0,-2.8298548E-1,-8.6648357E-1,-2.809548E0,-1.1741312E0,3.190552E-1,1.0597669E0,2.8968406E0,6.107124E-1,-2.5431967E-1,-2.118515E0,-7.7151835E-1,-2.2812562E0,-2.2795887E0,-6.6781664E0,-1.691075E0,1.1413682E0,2.6858428E-1,2.9576607E0,9.162103E-1,3.43732E0,2.1982691E0,6.264722E0,1.1279025E0,-1.5452926E0,-2.2162786E-1,-1.6340271E0,-7.598492E-1,-1.3133541E-1,-2.9410512E0,-7.0276576E-1,2.734976E-1,-2.879368E0,-1.6094955E0,-5.145427E0,-1.4040786E-1,-2.2187793E0,-1.3879471E0,-1.2314663E0,5.832792E-1,-2.1095939E-1,-1.0701442E0,3.3793205E-1,1.0036696E0,1.5272069E-1,1.9064523E0,6.137783E-1,1.8885696E0,4.8284012E-1,1.832269E0,2.114162E0,2.0004215E0,9.024877E0,2.289107E0,1.13929845E-1,-6.0914487E-1,-6.64635E-2,-8.156785E-2,1.6951436E-1,-7.1883434E-1,-2.1970553E-2,-2.3519792E-1,-1.2353278E0,-1.839661E-1,-6.679647E-1,1.449688E-1,-2.1894855E-2,-9.1495275E-1,-2.27336E-1,1.744409E-1,-5.8937335E-1,-8.006475E-1,-2.572268E0,-4.8170498E-1,3.844346E-1,3.8595486E-2,-9.8407514E-2,3.70883E-2,-5.39631E-1,8.5655764E-2,4.781657E-1,8.293246E-1,3.4690227E-2,5.4566765E-1,1.0824581E-1,3.878879E-1,-7.363784E-2,3.6737454E-1,1.1094238E0,6.7656946E-1,1.0895566E-1,3.097782E0,1.1544437E0,3.4880617E-1,1.1576525E0,2.9808456E-1,-4.965192E-2],"categories":[],"categories_nodes":[],"categories_segments":[],"categories_sizes":[],"default_left":[0,0,0,0,0,0,0,0,0,0,0,0,0,0,0,0,0,0,0,0,0,0,0,0,0,0,0,0,0,0,0,0,0,0,0,0,0,0,0,0,0,0,0,0,0,0,0,0,0,0,0,0,0,0,0,0,0,0,0,0,0,0,0,0,0,0,0,0,0,0,0,0,0,0,0,0,0,0,0,0,0,0,0,0,0,0,0,0,0,0,0,0,0,0,0,0,0,0,0,0,0,0,0],"id":4,"left_children":[1,3,5,7,9,11,13,15,17,19,21,23,25,27,29,31,33,35,37,39,41,43,45,47,49,51,53,55,57,59,61,63,65,-1,-1,67,69,71,73,75,77,-1,-1,-1,79,-1,81,83,85,-1,-1,87,89,-1,91,93,-1,95,97,99,101,-1,-1,-1,-1,-1,-1,-1,-1,-1,-1,-1,-1,-1,-1,-1,-1,-1,-1,-1,-1,-1,-1,-1,-1,-1,-1,-1,-1,-1,-1,-1,-1,-1,-1,-1,-1,-1,-1,-1,-1,-1,-1],"loss_changes":[9.2623236E2,2.7169666E2,2.2495306E2,3.6810158E1,8.401117E1,6.366678E1,1.1647745E2,1.3615175E1,2.2826782E1,1.467431E2,7.015818E1,4.2486782E1,5.896974E1,1.5797595E2,3.9655132E1,1.1635824E1,1.6765747E0,2.3737976E1,1.7595814E1,1.2806537E2,3.6655273E1,5.771231E1,1.2353719E1,3.0069742E1,3.9957924E0,5.064006E1,8.1396835E1,9.711978E1,1.2318796E2,3.2707233E1,4.0460415E0,1.0474155E1,6.961277E0,0E0,0E0,9.462841E0,2.1694313E1,2.5327122E-1,9.4394684E-1,4.7042725E1,8.750989E1,0E0,0E0,0E0,4.155335E1,0E0,2.4098487E-1,1.4139387E1,1.9622478E1,0E0,0E0,6.1138565E1,4.019284E1,0E0,3.8574271E0,6.2367325E1,0E0,1.6840382E0,7.411072E0,1.849971E1,4.0975046E0,0E0,0E0,0E0,0E0,0E0,0E0,0E0,0E0,0E0,0E0,0E0,0E0,0E0,0E0,0E0,0E0,0E0,0E0,0E0,0E0,0E0,0E0,0E0,0E0,0E0,0E0,0E0,0E0,0E0,0E0,0E0,0E0,0E0,0E0,0E0,0E0,0E0,0E0,0E0,0E0,0E0,0E0],"parents":[2147483647,0,0,1,1,2,2,3,3,4,4,5,5,6,6,7,7,8,8,9,9,10,10,11,11,12,12,13,13,14,14,15,15,16,16,17,17,18,18,19,19,20,20,21,21,22,22,23,23,24,24,25,25,26,26,27,27,28,28,29,29,30,30,31,31,32,32,35,35,36,36,37,37,38,38,39,39,40,40,44,44,46,46,47,47,48,48,51,51,52,52,54,54,55,55,57,57,58,58,59,59,60,60],"right_children":[2,4,6,8,10,12,14,16,18,20,22,24,26,28,30,32,34,36,38,40,42,44,46,48,50,52,54,56,58,60,62,64,66,-1,-1,68,70,72,74,76,78,-1,-1,-1,80,-1,82,84,86,-1,-1,88,90,-1,92,94,-1,96,98,100,102,-1,-1,-1,-1,-1,-1,-1,-1,-1,-1,-1,-1,-1,-1,-1,-1,-1,-1,-1,-1,-1,-1,-1,-1,-1,-1,-1,-1,-1,-1,-1,-1,-1,-1,-1,-1,-1,-1,-1,-1,-1,-1],"split_conditions":[1E0,2.2630061E2,2.3156425E2,2.221E5,3.260437E-2,2.202369E-2,2.6931348E7,6.878002E-2,2.9492792E-2,2.2514338E-2,-1.3521705E-2,6.742085E-2,1.6938728E7,2.399756E7,3.2271664E1,9.965682E6,1.5171E2,1.989792E6,-2.9507974E-2,2.2113306E-2,2.3035E2,-7.1167033E-3,2.3605058E-3,-8.8562155E-3,4.9929748E7,3.1051975E-2,2.1780573E-2,1.075656E6,-2.7323203E-2,9.135928E-3,1.0271353E1,2.81581E5,1.4370416E7,-7.598492E-1,-1.3133541E-1,4.1808516E7,2.5661329E-2,1.291275E2,2.2505E2,8.837246E4,3.3841427E-2,-1.4040786E-1,-2.2187793E0,-1.3879471E0,3.729297E7,5.832792E-1,4.1808516E7,-3.7499055E-2,3.348E2,1.0036696E0,1.5272069E-1,2.1997E2,1.38073E5,1.8885696E0,3.91E2,1.0793429E-2,2.114162E0,4.3098E2,9.752551E7,1.8079755E0,1.4515363E7,-6.0914487E-1,-6.64635E-2,-8.156785E-2,1.6951436E-1,-7.1883434E-1,-2.1970553E-2,-2.3519792E-1,-1.2353278E0,-1.839661E-1,-6.679647E-1,1.449688E-1,-2.1894855E-2,-9.1495275E-1,-2.27336E-1,1.744409E-1,-5.8937335E-1,-8.006475E-1,-2.572268E0,-4.8170498E-1,3.844346E-1,3.8595486E-2,-9.8407514E-2,3.70883E-2,-5.39631E-1,8.5655764E-2,4.781657E-1,8.293246E-1,3.4690227E-2,5.4566765E-1,1.0824581E-1,3.878879E-1,-7.363784E-2,3.6737454E-1,1.1094238E0,6.7656946E-1,1.0895566E-1,3.097782E0,1.1544437E0,3.4880617E-1,1.1576525E0,2.9808456E-1,-4.965192E-2],"split_indices":[85,108,109,96,133,207,81,163,143,219,169,132,74,81,122,25,0,39,172,142,0,193,149,198,4,207,162,95,189,141,98,92,25,0,0,4,185,0,0,100,148,0,0,0,32,0,4,168,21,0,0,31,34,0,7,220,0,7,11,103,46,0,0,0,0,0,0,0,0,0,0,0,0,0,0,0,0,0,0,0,0,0,0,0,0,0,0,0,0,0,0,0,0,0,0,0,0,0,0,0,0,0,0],"split_type":[0,0,0,0,0,0,0,0,0,0,0,0,0,0,0,0,0,0,0,0,0,0,0,0,0,0,0,0,0,0,0,0,0,0,0,0,0,0,0,0,0,0,0,0,0,0,0,0,0,0,0,0,0,0,0,0,0,0,0,0,0,0,0,0,0,0,0,0,0,0,0,0,0,0,0,0,0,0,0,0,0,0,0,0,0,0,0,0,0,0,0,0,0,0,0,0,0,0,0,0,0,0,0],"sum_hessian":[1.194E3,5.84E2,6.1E2,4.5E2,1.34E2,5.05E2,1.05E2,2.68E2,1.82E2,7.8E1,5.6E1,3.24E2,1.81E2,7.2E1,3.3E1,2.65E2,3E0,1.72E2,1E1,7E1,8E0,4.6E1,1E1,3.19E2,5E0,1.72E2,9E0,6.1E1,1.1E1,2.7E1,6E0,2.6E2,5E0,2E0,1E0,4E0,1.68E2,2E0,8E0,5.8E1,1.2E1,1E0,7E0,5E0,4.1E1,6E0,4E0,1.5E1,3.04E2,4E0,1E0,3.9E1,1.33E2,4E0,5E0,5.8E1,3E0,5E0,6E0,1.2E1,1.5E1,4E0,2E0,2.45E2,1.5E1,3E0,2E0,2E0,2E0,1.6E2,8E0,1E0,1E0,7E0,1E0,8E0,5E1,8E0,4E0,3.6E1,5E0,1E0,3E0,6E0,9E0,2.93E2,1.1E1,2.6E1,1.3E1,2.2E1,1.11E2,2E0,3E0,4.5E1,1.3E1,4E0,1E0,4E0,2E0,8E0,4E0,3E0,1.2E1],"tree_param":{"num_deleted":"0","num_feature":"223","num_nodes":"103","size_leaf_vector":"1"}},{"base_weights":[5.2855616E-3,-6.469966E-1,6.298024E-1,-4.281104E-1,-1.846114E0,4.4205913E-1,1.8527884E0,-1.0462863E0,-3.137588E-1,-1.426302E0,-3.4461234E0,3.7726945E-1,2.5038984E0,2.4762201E0,4.3875137E-1,-6.9404674E-1,-3.0966291E0,-2.1304102E-1,-1.1483394E0,-1.4475591E0,-1.2117037E0,2.4043168E-1,-4.716958E0,1.8366785E0,3.1471932E-1,1.4278194E0,4.585708E0,2.0740118E0,2.1559274E0,-5.6246746E-2,2.528993E0,-1.035305E0,4.5842057E-1,-2.790896E-1,-1.0424008E0,-9.659328E-1,-1.5666431E-1,1.3583732E-1,-1.674281E0,-4.002168E0,-9.354808E-1,-3.3540533E0,-2.578878E0,5.2644664E-1,3.5251603E0,3.6818194E-1,-7.5205314E-1,4.3828312E-1,1.8678021E0,4.171727E-1,1.5110542E0,9.807522E-1,3.0151098E0,4.9313065E-1,-4.111844E-1,9.603121E-1,3.0418438E-1,-5.073207E-2,-4.8498884E-1,-2.852658E-1,2.5703707E-1,-5.676403E-1,-1.1067999E-2,-6.1474137E-2,1.5278183E-1,2.3896624E-1,-3.6382914E-1,-7.3906857E-1,-1.8465763E-1,-2.957115E-1,-1.322496E0,-7.1590014E-2,-6.1226743E-1,-3.2670736E-2,-1.0917501E0,-3.1808147E-1,4.048388E-1,1.267553E0,2.1502095E-1,9.238671E-2,5.6203777E-1,3.0755135E-1,-3.8211006E-1,2.0835258E-2,1.5393855E-1,6.520058E-1,1.9023024E-1,8.19767E-2,1.169276E0,1.7890486E0,5.8198106E-1,-3.2048494E-1,4.914667E-2],"categories":[],"categories_nodes":[],"categories_segments":[],"categories_sizes":[],"default_left":[0,0,0,0,0,0,0,0,0,0,0,0,0,0,0,0,0,0,0,0,0,0,0,0,0,0,0,0,0,0,0,0,0,0,0,0,0,0,0,0,0,0,0,0,0,0,0,0,0,0,0,0,0,0,0,0,0,0,0,0,0,0,0,0,0,0,0,0,0,0,0,0,0,0,0,0,0,0,0,0,0,0,0,0,0,0,0,0,0,0,0,0,0],"id":5,"left_children":[1,3,5,7,9,11,13,15,17,19,21,23,25,27,29,31,33,35,37,-1,39,-1,41,43,45,47,49,51,-1,53,55,57,59,-1,-1,61,63,65,67,69,71,73,-1,75,77,79,81,83,85,-1,-1,87,89,-1,91,-1,-1,-1,-1,-1,-1,-1,-1,-1,-1,-1,-1,-1,-1,-1,-1,-1,-1,-1,-1,-1,-1,-1,-1,-1,-1,-1,-1,-1,-1,-1,-1,-1,-1,-1,-1,-1,-1],"loss_changes":[4.8720413E2,1.5275478E2,1.3947108E2,3.473365E1,5.5538086E1,6.9989494E1,7.031952E1,5.346113E1,3.505934E1,4.7399277E1,1.0094348E2,4.652565E1,2.9295494E1,9.118631E1,2.7043554E1,2.682497E1,5.7760773E0,1.5808203E1,3.0620514E1,0E0,5.0211365E1,0E0,4.5187317E1,4.4602547E1,2.8564987E1,4.40592E0,2.03125E-1,5.1572754E1,0E0,1.3950682E1,1.8452244E0,2.59108E1,9.797509E0,0E0,0E0,2.2302614E1,1.1382375E1,1.34406395E1,2.5224594E1,3.0055542E0,4.9582626E1,1.0706528E1,0E0,1.8407423E1,1.4665131E1,4.2303917E1,2.355577E1,1.0238975E-1,1.6375389E0,0E0,0E0,5.258987E1,7.7191864E1,0E0,7.353895E0,0E0,0E0,0E0,0E0,0E0,0E0,0E0,0E0,0E0,0E0,0E0,0E0,0E0,0E0,0E0,0E0,0E0,0E0,0E0,0E0,0E0,0E0,0E0,0E0,0E0,0E0,0E0,0E0,0E0,0E0,0E0,0E0,0E0,0E0,0E0,0E0,0E0,0E0],"parents":[2147483647,0,0,1,1,2,2,3,3,4,4,5,5,6,6,7,7,8,8,9,9,10,10,11,11,12,12,13,13,14,14,15,15,16,16,17,17,18,18,20,20,22,22,23,23,24,24,25,25,26,26,27,27,29,29,30,30,31,31,32,32,35,35,36,36,37,37,38,38,39,39,40,40,41,41,43,43,44,44,45,45,46,46,47,47,48,48,51,51,52,52,54,54],"right_children":[2,4,6,8,10,12,14,16,18,20,22,24,26,28,30,32,34,36,38,-1,40,-1,42,44,46,48,50,52,-1,54,56,58,60,-1,-1,62,64,66,68,70,72,74,-1,76,78,80,82,84,86,-1,-1,88,90,-1,92,-1,-1,-1,-1,-1,-1,-1,-1,-1,-1,-1,-1,-1,-1,-1,-1,-1,-1,-1,-1,-1,-1,-1,-1,-1,-1,-1,-1,-1,-1,-1,-1,-1,-1,-1,-1,-1,-1],"split_conditions":[1E0,3.0075482E2,2.7777E2,-9.695357E-1,1.467E5,8.346E5,2.7192464E7,-7.877489E-1,6.5984E4,-6.72377E-3,-3.6368124E-2,-7.887422E-2,2.0636853E-2,2.5817704E7,-1.0394072E-2,1.854559E-2,2.3118E4,-1.3523792E-2,-4.149229E-2,-1.4475591E0,-1.2209087E-2,2.4043168E-1,1.6744078E1,2.3530617E1,2.428201E2,-2.4212837E-2,1.8292E2,4.030805E-2,2.1559274E0,4.754026E5,9.752551E7,-6.094839E-4,-7.065383E-2,-2.790896E-1,-1.0424008E0,-1.6649057E-4,1.1422897E5,-2.3750512E-2,9.154E1,2.6425E2,-3.8724065E-2,1.9394047E1,-2.578878E0,-3.4256902E0,5.75924E6,2.3288E2,6.490304E7,2.2149E2,1.1308E2,4.171727E-1,1.5110542E0,-6.85278E-4,6.593817E-3,4.9313065E-1,6.335777E-3,9.603121E-1,3.0418438E-1,-5.073207E-2,-4.8498884E-1,-2.852658E-1,2.5703707E-1,-5.676403E-1,-1.1067999E-2,-6.1474137E-2,1.5278183E-1,2.3896624E-1,-3.6382914E-1,-7.3906857E-1,-1.8465763E-1,-2.957115E-1,-1.322496E0,-7.1590014E-2,-6.1226743E-1,-3.2670736E-2,-1.0917501E0,-3.1808147E-1,4.048388E-1,1.267553E0,2.1502095E-1,9.238671E-2,5.6203777E-1,3.0755135E-1,-3.8211006E-1,2.0835258E-2,1.5393855E-1,6.520058E-1,1.9023024E-1,8.19767E-2,1.169276E0,1.7890486E0,5.8198106E-1,-3.2048494E-1,4.914667E-2],"split_indices":[85,111,84,121,83,94,81,103,27,127,134,160,202,81,217,135,27,196,160,0,213,0,106,105,2,182,0,140,0,99,11,150,130,0,0,173,100,134,50,0,186,105,0,103,25,84,11,1,71,0,0,184,188,0,135,0,0,0,0,0,0,0,0,0,0,0,0,0,0,0,0,0,0,0,0,0,0,0,0,0,0,0,0,0,0,0,0,0,0,0,0,0,0],"split_type":[0,0,0,0,0,0,0,0,0,0,0,0,0,0,0,0,0,0,0,0,0,0,0,0,0,0,0,0,0,0,0,0,0,0,0,0,0,0,0,0,0,0,0,0,0,0,0,0,0,0,0,0,0,0,0,0,0,0,0,0,0,0,0,0,0,0,0,0,0,0,0,0,0,0,0,0,0,0,0,0,0,0,0,0,0,0,0,0,0,0,0,0,0],"sum_hessian":[1.194E3,5.84E2,6.1E2,4.95E2,8.9E1,5.3E2,8E1,7.6E1,4.19E2,7.2E1,1.7E1,5.15E2,1.5E1,5.5E1,2.5E1,6.6E1,1E1,3.75E2,4.4E1,3E0,6.9E1,4E0,1.3E1,2E1,4.95E2,1.1E1,4E0,5.2E1,3E0,2.1E1,4E0,5.1E1,1.5E1,2E0,8E0,2.5E1,3.5E2,1.3E1,3.1E1,5E0,6.4E1,1.1E1,2E0,1.2E1,8E0,4.72E2,2.3E1,4E0,7E0,1E0,3E0,2.5E1,2.7E1,3E0,1.8E1,2E0,2E0,2.1E1,3E1,3E0,1.2E1,1.2E1,1.3E1,3.27E2,2.3E1,9E0,4E0,1.7E1,1.4E1,1E0,4E0,4E1,2.4E1,1E0,1E1,4E0,8E0,6E0,2E0,4.55E2,1.7E1,5E0,1.8E1,1E0,3E0,5E0,2E0,2.1E1,4E0,6E0,2.1E1,8E0,1E1],"tree_param":{"num_deleted":"0","num_feature":"223","num_nodes":"93","size_leaf_vector":"1"}},{"base_weights":[5.1434115E-3,-4.7107527E-1,4.6108904E-1,-3.0657533E-1,-1.3724185E0,2.124992E-1,9.9838465E-1,-2.4221978E-1,-1.0983853E0,-1.9395087E0,-4.2586237E-1,1.3826497E-1,1.3769002E0,2.140684E0,7.2282124E-1,-2.0514455E-1,-1.7369133E0,-1.8345011E0,-1.2445503E-1,-6.844776E-1,-3.3612955E0,1.229976E0,-1.4602203E0,1.1147252E-1,2.7293584E0,1.465889E-1,2.1873353E0,2.5991528E0,-1.9549036E-1,4.1587052E-1,1.581124E0,-2.1230469E0,-1.788242E-1,-7.8169197E-1,-5.787015E-1,-7.8464305E-1,-2.5565078E0,-5.3217053E-1,5.340201E-1,3.98446E-2,-2.0050495E0,-1.244737E0,-4.830456E0,-4.2925608E-1,1.7215172E0,-3.1353233E0,-4.6948403E-1,-3.7056413E-1,2.1019946E-1,4.4408837E-1,1.4377754E0,-8.820866E-1,1.1508329E0,2.857936E0,2.7454653E-1,4.165187E0,1.5295748E0,5.664411E-1,-4.2006382E-1,8.017443E-1,-4.4011983E-1,-3.0211064E-1,2.2817137E0,1.4087445E-2,-7.699319E-1,-4.6479173E-2,-6.751433E-1,-5.191649E-2,-2.7799895E-1,4.967513E-2,-4.3371752E-1,-8.31855E-1,-2.9495946E-1,-2.4098633E-1,4.2931918E-2,2.4613841E-1,-3.6416605E-2,2.3178859E-1,-5.762661E-1,-8.9396334E-1,1.3376085E-1,-8.1625974E-1,2.054608E-1,-1.5789002E0,-4.0378287E-1,-2.777009E-2,-1.5318905E-1,1.14103466E-1,5.931885E-1,-9.009619E-2,-1.0492263E0,3.0620217E-2,-6.2003016E-1,1.3869093E-1,-1.9227618E-1,5.324798E-3,1.6478495E-1,-1.2669279E-1,3.2653257E-1,-1.7649867E-2,-3.8370156E-1,3.9288026E-1,5.354898E-2,4.7626474E-1,1.0071236E0,-7.6946355E-2,1.4142813E-1,1.3972647E0,3.406753E-1,5.9814775E-1,3.4205507E-2,2.418202E-1,4.140036E-2,4.287043E-1,-6.6114045E-3,9.3037665E-1,-2.1932743E-1,2.632951E-1,-3.0050924E-1,8.8444686E-1,2.4143137E-2],"categories":[],"categories_nodes":[],"categories_segments":[],"categories_sizes":[],"default_left":[0,0,0,0,0,0,0,0,0,0,0,0,0,0,0,0,0,0,0,0,0,0,0,0,0,0,0,0,0,0,0,0,0,0,0,0,0,0,0,0,0,0,0,0,0,0,0,0,0,0,0,0,0,0,0,0,0,0,0,0,0,0,0,0,0,0,0,0,0,0,0,0,0,0,0,0,0,0,0,0,0,0,0,0,0,0,0,0,0,0,0,0,0,0,0,0,0,0,0,0,0,0,0,0,0,0,0,0,0,0,0,0,0,0,0,0,0,0,0,0,0],"id":6,"left_children":[1,3,5,7,9,11,13,15,17,19,21,23,25,27,29,31,33,35,37,39,41,43,45,47,49,51,53,55,57,59,61,63,65,-1,67,69,71,73,75,77,79,81,83,85,87,89,91,93,95,97,-1,99,101,103,105,107,109,111,-1,113,115,117,119,-1,-1,-1,-1,-1,-1,-1,-1,-1,-1,-1,-1,-1,-1,-1,-1,-1,-1,-1,-1,-1,-1,-1,-1,-1,-1,-1,-1,-1,-1,-1,-1,-1,-1,-1,-1,-1,-1,-1,-1,-1,-1,-1,-1,-1,-1,-1,-1,-1,-1,-1,-1,-1,-1,-1,-1,-1,-1],"loss_changes":[2.5968735E2,8.631773E1,8.1396805E1,2.50088E1,4.748448E1,3.602732E1,5.9204407E1,2.5135088E1,2.6297928E1,9.762491E1,6.1741577E1,2.7117334E1,2.4606548E1,4.013745E1,4.0705147E1,2.233629E1,9.559971E0,1.39121475E1,4.8481894E0,2.9731995E1,7.4836E1,1.2157101E1,3.503889E1,1.8733173E1,1.6731787E1,1.2378588E1,1.8456123E1,4.5553894E1,7.2185493E0,3.8998455E1,5.47837E1,5.8935013E0,2.1678532E1,0E0,6.8653274E-1,6.521165E0,1.358223E0,2.1288264E0,1.4137475E0,3.1656782E1,2.7610111E1,3.6043602E1,1.5524445E1,6.232357E-2,3.021408E0,7.1620255E0,1.3904894E1,1.5382757E1,2.1263935E1,2.134458E0,0E0,1.8853407E0,6.9249487E-1,1.6456223E0,6.43667E-1,1.2610916E1,1.2916138E1,4.0208888E-1,0E0,4.1886944E1,4.0393566E1,1.0783284E1,4.3772675E1,0E0,0E0,0E0,0E0,0E0,0E0,0E0,0E0,0E0,0E0,0E0,0E0,0E0,0E0,0E0,0E0,0E0,0E0,0E0,0E0,0E0,0E0,0E0,0E0,0E0,0E0,0E0,0E0,0E0,0E0,0E0,0E0,0E0,0E0,0E0,0E0,0E0,0E0,0E0,0E0,0E0,0E0,0E0,0E0,0E0,0E0,0E0,0E0,0E0,0E0,0E0,0E0,0E0,0E0,0E0,0E0,0E0,0E0],"parents":[2147483647,0,0,1,1,2,2,3,3,4,4,5,5,6,6,7,7,8,8,9,9,10,10,11,11,12,12,13,13,14,14,15,15,16,16,17,17,18,18,19,19,20,20,21,21,22,22,23,23,24,24,25,25,26,26,27,27,28,28,29,29,30,30,31,31,32,32,34,34,35,35,36,36,37,37,38,38,39,39,40,40,41,41,42,42,43,43,44,44,45,45,46,46,47,47,48,48,49,49,51,51,52,52,53,53,54,54,55,55,56,56,57,57,59,59,60,60,61,61,62,62],"right_children":[2,4,6,8,10,12,14,16,18,20,22,24,26,28,30,32,34,36,38,40,42,44,46,48,50,52,54,56,58,60,62,64,66,-1,68,70,72,74,76,78,80,82,84,86,88,90,92,94,96,98,-1,100,102,104,106,108,110,112,-1,114,116,118,120,-1,-1,-1,-1,-1,-1,-1,-1,-1,-1,-1,-1,-1,-1,-1,-1,-1,-1,-1,-1,-1,-1,-1,-1,-1,-1,-1,-1,-1,-1,-1,-1,-1,-1,-1,-1,-1,-1,-1,-1,-1,-1,-1,-1,-1,-1,-1,-1,-1,-1,-1,-1,-1,-1,-1,-1,-1,-1],"split_conditions":[1E0,3.0075482E2,4.4939E5,5.2818045E-2,3.260437E-2,6.290847E-2,4.871641E7,1.9509783E-2,6.934308E1,2.8085684E-2,-1.3877435E-2,8.17E1,1.7797E2,2.9350849E-2,4.9641933E-2,9.141E1,4.886283E0,1.308054E6,3.25151E6,-2.7455688E-3,6.03364E5,9.0034586E4,3.34639E5,-2.2032639E-2,2.2531E2,-1.7371118E-2,6.5819803E-3,4.2802757E-3,4.4652E2,4.1839708E-2,4.182548E0,5.956E1,9.85716E5,-7.8169197E-1,4.107E5,-2.2351531E-2,8.0579236E-2,2.116E4,9.161E1,8.039403E-3,3.1675E2,5.85104E5,-5.389177E-3,4.3742924E7,1.1399E2,3.85755E5,3.535E2,-6.656585E-2,1.041692E2,2.234831E2,1.4377754E0,1.2448E2,3.3008E2,9.1476E1,3.9839E2,4.4434E2,2.438847E6,4.508209E7,-4.2006382E-1,-2.3322273E-2,3.84814E5,2.182619E6,1.3898866E5,1.4087445E-2,-7.699319E-1,-4.6479173E-2,-6.751433E-1,-5.191649E-2,-2.7799895E-1,4.967513E-2,-4.3371752E-1,-8.31855E-1,-2.9495946E-1,-2.4098633E-1,4.2931918E-2,2.4613841E-1,-3.6416605E-2,2.3178859E-1,-5.762661E-1,-8.9396334E-1,1.3376085E-1,-8.1625974E-1,2.054608E-1,-1.5789002E0,-4.0378287E-1,-2.777009E-2,-1.5318905E-1,1.14103466E-1,5.931885E-1,-9.009619E-2,-1.0492263E0,3.0620217E-2,-6.2003016E-1,1.3869093E-1,-1.9227618E-1,5.324798E-3,1.6478495E-1,-1.2669279E-1,3.2653257E-1,-1.7649867E-2,-3.8370156E-1,3.9288026E-1,5.354898E-2,4.7626474E-1,1.0071236E0,-7.6946355E-2,1.4142813E-1,1.3972647E0,3.406753E-1,5.9814775E-1,3.4205507E-2,2.418202E-1,4.140036E-2,4.287043E-1,-6.6114045E-3,9.3037665E-1,-2.1932743E-1,2.632951E-1,-3.0050924E-1,8.8444686E-1,2.4143137E-2],"split_indices":[85,111,6,161,133,132,18,179,104,187,182,45,28,162,127,51,103,67,60,217,94,100,20,190,0,143,191,145,10,132,98,0,94,0,6,129,123,62,49,129,84,96,199,4,63,13,22,192,91,0,0,0,23,54,7,7,60,4,0,180,96,60,100,0,0,0,0,0,0,0,0,0,0,0,0,0,0,0,0,0,0,0,0,0,0,0,0,0,0,0,0,0,0,0,0,0,0,0,0,0,0,0,0,0,0,0,0,0,0,0,0,0,0,0,0,0,0,0,0,0,0],"split_type":[0,0,0,0,0,0,0,0,0,0,0,0,0,0,0,0,0,0,0,0,0,0,0,0,0,0,0,0,0,0,0,0,0,0,0,0,0,0,0,0,0,0,0,0,0,0,0,0,0,0,0,0,0,0,0,0,0,0,0,0,0,0,0,0,0,0,0,0,0,0,0,0,0,0,0,0,0,0,0,0,0,0,0,0,0,0,0,0,0,0,0,0,0,0,0,0,0,0,0,0,0,0,0,0,0,0,0,0,0,0,0,0,0,0,0,0,0,0,0,0,0],"sum_hessian":[1.194E3,5.84E2,6.1E2,4.95E2,8.9E1,4.18E2,1.92E2,4.59E2,3.6E1,5.5E1,3.4E1,3.94E2,2.4E1,3.6E1,1.56E2,4.49E2,1E1,2E1,1.6E1,3E1,2.5E1,1.3E1,2.1E1,3.91E2,3E0,1E1,1.4E1,3E1,6E0,1.16E2,4E1,5E0,4.44E2,5E0,5E0,9E0,1.1E1,1E1,6E0,2E1,1E1,1.1E1,1.4E1,3E0,1E1,7E0,1.4E1,6.6E1,3.25E2,2E0,1E0,5E0,5E0,1E1,4E0,1.1E1,1.9E1,4E0,2E0,8E1,3.6E1,1.1E1,2.9E1,1E0,4E0,4.4E2,4E0,3E0,2E0,4E0,5E0,9E0,2E0,7E0,3E0,4E0,2E0,1.5E1,5E0,7E0,3E0,6E0,5E0,1.2E1,2E0,1E0,2E0,2E0,8E0,1E0,6E0,1.1E1,3E0,1.6E1,5E1,2.08E2,1.17E2,1E0,1E0,2E0,3E0,4E0,1E0,4E0,6E0,1E0,3E0,9E0,2E0,1.4E1,5E0,2E0,2E0,4.5E1,3.5E1,2E0,3.4E1,4E0,7E0,2.2E1,7E0],"tree_param":{"num_deleted":"0","num_feature":"223","num_nodes":"121","size_leaf_vector":"1"}},{"base_weights":[2.425696E-3,-3.4511817E-1,3.351765E-1,-1.8743175E-1,-8.8484937E-1,2.255422E-1,1.0814526E0,-6.7158125E-2,-6.473397E-1,-1.305769E0,-1.6842572E-1,1.0461577E-1,7.186167E-1,1.3003279E0,-1.3243306E0,-9.775443E-2,1.1403587E0,-1.2268521E-1,-1.1266615E0,-1.9476495E0,-4.5511624E-1,7.5759983E-1,-6.264848E-1,-5.816248E-1,1.3321713E-1,3.417973E0,5.494692E-1,6.720473E-1,2.1575193E0,-5.4111236E-1,-8.392485E-2,-8.226982E-1,-5.1743694E-2,2.3036464E-1,4.1023433E-1,-3.9088464E-1,1.2001226E0,-1.4167055E0,5.369022E-1,-1.4002411E0,-1.586097E0,6.311511E-1,-1.2244418E0,1.4249126E0,-1.7124104E-1,-3.152328E-1,-2.3686998E0,1.1371029E-1,8.5178256E-1,1.2393885E0,-2.2295453E-2,1.0411794E0,2.4416035E-1,2.824158E0,2.4672782E-1,4.037401E0,1.1595985E0,1.6650511E-2,-5.4416694E-2,-3.3305508E-1,2.0299827E-1,-2.6804132E-2,2.0965743E-1,6.223047E-3,9.744105E-2,4.2713955E-2,-2.4282734E-1,5.1283044E-1,7.903553E-2,-7.833283E-1,-2.5557408E-1,-7.396002E-2,2.517409E-1,-1.6031678E-1,-6.568618E-1,4.3948326E-1,-5.4037847E-2,1.8666713E-1,-5.0081396E-1,1.9379333E-1,5.5096185E-1,-8.33976E-2,8.640233E-2,-1.8241934E-1,2.201384E-1,-8.83855E-1,-8.814883E-3,3.090052E-1,1.753428E-2,1.9194166E-1,6.790217E-1,3.2384966E-2,3.501341E-1,1.9479734E-1,1.069268E0,-1.6665839E-2,6.5773034E-1,1.8269837E0,4.9621424E-1,1.0199006E0,1.792149E-1],"categories":[],"categories_nodes":[],"categories_segments":[],"categories_sizes":[],"default_left":[0,0,0,0,0,0,0,0,0,0,0,0,0,0,0,0,0,0,0,0,0,0,0,0,0,0,0,0,0,0,0,0,0,0,0,0,0,0,0,0,0,0,0,0,0,0,0,0,0,0,0,0,0,0,0,0,0,0,0,0,0,0,0,0,0,0,0,0,0,0,0,0,0,0,0,0,0,0,0,0,0,0,0,0,0,0,0,0,0,0,0,0,0,0,0,0,0,0,0,0,0],"id":7,"left_children":[1,3,5,7,9,11,13,15,17,19,21,23,25,27,29,31,33,35,37,39,41,43,45,-1,47,49,51,53,55,-1,57,59,61,63,-1,65,67,69,71,-1,73,75,77,79,81,83,85,87,-1,-1,-1,89,91,93,95,97,99,-1,-1,-1,-1,-1,-1,-1,-1,-1,-1,-1,-1,-1,-1,-1,-1,-1,-1,-1,-1,-1,-1,-1,-1,-1,-1,-1,-1,-1,-1,-1,-1,-1,-1,-1,-1,-1,-1,-1,-1,-1,-1,-1,-1],"loss_changes":[1.3831204E2,4.962249E1,4.9746544E1,2.5069447E1,3.9585564E1,3.1764969E1,4.2794266E1,1.3448815E1,2.3500736E1,4.443306E1,2.1683346E1,2.5388763E1,4.6063828E1,3.7326134E1,4.0109806E0,1.1731814E1,1.544836E0,1.6788818E1,2.4403461E1,3.881476E1,3.1693457E1,1.078107E1,1.7690414E1,0E0,2.211146E1,1.5253792E1,1.4758129E1,3.866259E1,5.1597427E1,0E0,5.0834656E-2,9.80314E0,9.461428E0,5.265157E-2,0E0,8.819752E0,3.3661098E0,2.6107986E1,2.1011229E0,0E0,2.6119652E1,1.1086873E1,1.9115063E1,2.0199413E0,4.7226572E-1,9.661848E0,6.6680183E0,2.1359497E1,0E0,0E0,0E0,1.7193504E1,7.794112E0,8.952343E0,2.1883322E1,3.884633E1,2.4416538E1,0E0,0E0,0E0,0E0,0E0,0E0,0E0,0E0,0E0,0E0,0E0,0E0,0E0,0E0,0E0,0E0,0E0,0E0,0E0,0E0,0E0,0E0,0E0,0E0,0E0,0E0,0E0,0E0,0E0,0E0,0E0,0E0,0E0,0E0,0E0,0E0,0E0,0E0,0E0,0E0,0E0,0E0,0E0,0E0],"parents":[2147483647,0,0,1,1,2,2,3,3,4,4,5,5,6,6,7,7,8,8,9,9,10,10,11,11,12,12,13,13,14,14,15,15,16,16,17,17,18,18,19,19,20,20,21,21,22,22,24,24,25,25,26,26,27,27,28,28,30,30,31,31,32,32,33,33,35,35,36,36,37,37,38,38,40,40,41,41,42,42,43,43,44,44,45,45,46,46,47,47,51,51,52,52,53,53,54,54,55,55,56,56],"right_children":[2,4,6,8,10,12,14,16,18,20,22,24,26,28,30,32,34,36,38,40,42,44,46,-1,48,50,52,54,56,-1,58,60,62,64,-1,66,68,70,72,-1,74,76,78,80,82,84,86,88,-1,-1,-1,90,92,94,96,98,100,-1,-1,-1,-1,-1,-1,-1,-1,-1,-1,-1,-1,-1,-1,-1,-1,-1,-1,-1,-1,-1,-1,-1,-1,-1,-1,-1,-1,-1,-1,-1,-1,-1,-1,-1,-1,-1,-1,-1,-1,-1,-1,-1,-1],"split_conditions":[1E0,6.486837E0,2.7965E2,3.8224591E-3,2.0713491E-2,4.764986E6,4.649565E2,6.77693E5,5.9048E4,3.260437E-2,4.5206508E7,-1.3286004E1,-5.04945E-2,4.9929748E7,4.8223E2,-1.384107E-2,8.1185E4,3.0287342E7,1.7777227E-2,1.39464E5,-2.2201296E-2,7.476559E-3,1.8781742E-2,-5.816248E-1,1.146068E6,2.4372E2,2.664494E6,2.845976E2,-3.7431072E-2,-5.4111236E-1,4.885081E2,4.7991198E-2,1.1551877E5,1.6278E2,4.1023433E-1,4.6243E4,5.0206772E7,7.054445E-3,-2.0861853E-2,-1.4002411E0,-1.8244205E-3,-1.1439528E-3,-2.8958006E-3,-1.48433745E-2,4.3742E2,7.404067E6,3.19E2,-8.622948E-2,8.5178256E-1,1.2393885E0,-2.2295453E-2,4.214826E6,1.204231E8,4.0915E2,4.5452E2,1.1559E2,1.0091989E5,1.6650511E-2,-5.4416694E-2,-3.3305508E-1,2.0299827E-1,-2.6804132E-2,2.0965743E-1,6.223047E-3,9.744105E-2,4.2713955E-2,-2.4282734E-1,5.1283044E-1,7.903553E-2,-7.833283E-1,-2.5557408E-1,-7.396002E-2,2.517409E-1,-1.6031678E-1,-6.568618E-1,4.3948326E-1,-5.4037847E-2,1.8666713E-1,-5.0081396E-1,1.9379333E-1,5.5096185E-1,-8.33976E-2,8.640233E-2,-1.8241934E-1,2.201384E-1,-8.83855E-1,-8.814883E-3,3.090052E-1,1.753428E-2,1.9194166E-1,6.790217E-1,3.2384966E-2,3.501341E-1,1.9479734E-1,1.069268E0,-1.6665839E-2,6.5773034E-1,1.8269837E0,4.9621424E-1,1.0199006E0,1.792149E-1],"split_indices":[85,98,84,145,178,39,5,92,41,133,4,120,156,4,0,196,83,32,194,34,189,143,185,0,13,0,60,89,139,0,1,204,100,0,0,41,4,185,123,0,193,212,178,129,0,25,2,169,0,0,0,53,18,7,84,66,100,0,0,0,0,0,0,0,0,0,0,0,0,0,0,0,0,0,0,0,0,0,0,0,0,0,0,0,0,0,0,0,0,0,0,0,0,0,0,0,0,0,0,0,0],"split_type":[0,0,0,0,0,0,0,0,0,0,0,0,0,0,0,0,0,0,0,0,0,0,0,0,0,0,0,0,0,0,0,0,0,0,0,0,0,0,0,0,0,0,0,0,0,0,0,0,0,0,0,0,0,0,0,0,0,0,0,0,0,0,0,0,0,0,0,0,0,0,0,0,0,0,0,0,0,0,0,0,0,0,0,0,0,0,0,0,0,0,0,0,0,0,0,0,0,0,0,0,0],"sum_hessian":[1.194E3,5.84E2,6.1E2,4.53E2,1.31E2,5.33E2,7.7E1,3.6E2,9.3E1,8.2E1,4.9E1,4.29E2,1.04E2,7.1E1,6E0,3.52E2,8E0,4.5E1,4.8E1,4.6E1,3.6E1,1.6E1,3.3E1,5E0,4.24E2,5E0,9.9E1,4.2E1,2.9E1,4E0,2E0,2E1,3.32E2,2E0,6E0,3.8E1,7E0,4.1E1,7E0,4E0,4.2E1,1.5E1,2.1E1,9E0,7E0,2.9E1,4E0,4.22E2,2E0,4E0,1E0,3.7E1,6.2E1,6E0,3.6E1,9E0,2E1,1E0,1E0,1.7E1,3E0,3.17E2,1.5E1,1E0,1E0,1.7E1,2.1E1,4E0,3E0,1.2E1,2.9E1,2E0,5E0,1.6E1,2.6E1,7E0,8E0,4E0,1.7E1,4E0,5E0,6E0,1E0,2.3E1,6E0,3E0,1E0,2.3E1,3.99E2,2.9E1,8E0,5.5E1,7E0,2E0,4E0,3.2E1,4E0,4E0,5E0,3E0,1.7E1],"tree_param":{"num_deleted":"0","num_feature":"223","num_nodes":"101","size_leaf_vector":"1"}},{"base_weights":[6.5179607E-3,-2.4526815E-1,2.475791E-1,-2.0975555E-1,-1.923515E0,-5.30582E-2,4.3823177E-1,-1.4532372E-2,-3.783102E-1,4.0229887E-1,-4.3163786E0,1.343696E0,-8.8798404E-2,1.203336E0,3.5568905E-1,-6.7602265E-1,3.3153057E-2,-1.8507339E0,-3.226895E-1,-1.5333232E-1,2.6096493E-1,-1.5100127E0,-5.764769E-1,5.107844E-1,1.2517177E-1,-1.6213335E-2,-4.7286487E-1,1.8476037E0,-7.864558E-2,3.258547E-1,8.318557E-1,-1.429855E0,2.3668249E-1,6.965758E-3,1.0969422E0,2.1944827E-1,-2.182106E0,6.820079E-1,-3.8589898E-1,-8.245719E-2,4.0393162E-1,3.582698E-1,-6.7873865E-1,2.6886767E-1,2.4818556E0,-2.241594E-1,3.015108E-1,-7.952771E-1,3.8072154E-1,-4.953656E-1,-2.0550153E-1,-8.532799E-2,2.1313654E-1,8.717897E-3,-3.17806E-1,1.13206916E-1,4.0871882E-1,-8.326812E-1,-3.1004632E-1,-7.70252E-2,2.6606292E-1,-9.219387E-1,-1.0668627E-1,-1.6677413E-3,-7.8985445E-2,3.793235E-1,4.526841E-2,2.5256753E-1,-3.0084493E-2,-2.3972116E-1,-1.9269787E-2,-7.8340776E-2,3.717757E-1,3.7424934E-1,1.1143713E0,8.920813E-4,1.6192377E-1,1.1887932E-1,-3.676439E-1,9.895059E-2,4.4190744E-1],"categories":[],"categories_nodes":[],"categories_segments":[],"categories_sizes":[],"default_left":[0,0,0,0,0,0,0,0,0,0,0,0,0,0,0,0,0,0,0,0,0,0,0,0,0,0,0,0,0,0,0,0,0,0,0,0,0,0,0,0,0,0,0,0,0,0,0,0,0,0,0,0,0,0,0,0,0,0,0,0,0,0,0,0,0,0,0,0,0,0,0,0,0,0,0,0,0,0,0,0,0],"id":8,"left_children":[1,3,5,7,9,11,13,15,17,19,21,23,25,27,29,31,33,35,37,-1,-1,-1,-1,-1,-1,39,41,43,45,47,-1,49,51,53,55,-1,57,59,61,63,65,67,69,71,73,-1,75,77,79,-1,-1,-1,-1,-1,-1,-1,-1,-1,-1,-1,-1,-1,-1,-1,-1,-1,-1,-1,-1,-1,-1,-1,-1,-1,-1,-1,-1,-1,-1,-1,-1],"loss_changes":[7.259226E1,3.4461887E1,3.5044125E1,1.8882421E1,6.852074E1,1.2000343E1,2.3191498E1,8.444512E0,2.4627136E1,3.4342656E0,6.302643E-1,1.2847376E0,6.487789E0,2.9879124E1,2.3543266E1,1.2722901E1,6.9568005E0,1.1008663E1,1.9188091E1,0E0,0E0,0E0,0E0,0E0,0E0,5.516216E0,6.574198E0,2.3364296E1,3.5292962E0,2.0971138E1,0E0,5.177345E-1,2.4240575E0,5.8027754E0,6.3199186E-1,0E0,3.948475E0,3.6895018E0,2.1770473E1,2.376341E0,5.6880035E0,1.8585505E0,2.1670132E0,4.4380713E0,2.1233482E1,0E0,6.384933E-1,8.687281E0,1.7356358E1,0E0,0E0,0E0,0E0,0E0,0E0,0E0,0E0,0E0,0E0,0E0,0E0,0E0,0E0,0E0,0E0,0E0,0E0,0E0,0E0,0E0,0E0,0E0,0E0,0E0,0E0,0E0,0E0,0E0,0E0,0E0,0E0],"parents":[2147483647,0,0,1,1,2,2,3,3,4,4,5,5,6,6,7,7,8,8,9,9,10,10,11,11,12,12,13,13,14,14,15,15,16,16,17,17,18,18,25,25,26,26,27,27,28,28,29,29,31,31,32,32,33,33,34,34,36,36,37,37,38,38,39,39,40,40,41,41,42,42,43,43,44,44,46,46,47,47,48,48],"right_children":[2,4,6,8,10,12,14,16,18,20,22,24,26,28,30,32,34,36,38,-1,-1,-1,-1,-1,-1,40,42,44,46,48,-1,50,52,54,56,-1,58,60,62,64,66,68,70,72,74,-1,76,78,80,-1,-1,-1,-1,-1,-1,-1,-1,-1,-1,-1,-1,-1,-1,-1,-1,-1,-1,-1,-1,-1,-1,-1,-1,-1,-1,-1,-1,-1,-1,-1,-1],"split_conditions":[1E0,1.7449501E1,2.0833764E0,2.907073E2,2.3458768E7,2.3218E2,1.1443E2,-1.1230283E0,1.29E2,7.044E1,4.6148E2,1.85913E5,1.321986E2,8.065E3,8.17E1,2.5669184E7,5.97057E5,1.2413E2,1.335E2,-1.5333232E-1,2.6096493E-1,-1.5100127E0,-5.764769E-1,5.107844E-1,1.2517177E-1,1.041692E2,-1.2398041E0,-2.7683493E-2,6.25476E-4,9.607E1,8.318557E-1,4.9164295E-2,2.7392E2,5.6807E5,3.884E2,2.1944827E-1,1.96482E5,3.8422E4,1.274068E2,5.8373537E0,2.7478E2,1.805196E7,1.8343566E-2,5.2339024E7,1.1366E2,-2.241594E-1,4.4967826E-2,-3.5065025E-2,4.925335E-2,-4.953656E-1,-2.0550153E-1,-8.532799E-2,2.1313654E-1,8.717897E-3,-3.17806E-1,1.13206916E-1,4.0871882E-1,-8.326812E-1,-3.1004632E-1,-7.70252E-2,2.6606292E-1,-9.219387E-1,-1.0668627E-1,-1.6677413E-3,-7.8985445E-2,3.793235E-1,4.526841E-2,2.5256753E-1,-3.0084493E-2,-2.3972116E-1,-1.9269787E-2,-7.8340776E-2,3.717757E-1,3.7424934E-1,1.1143713E0,8.920813E-4,1.6192377E-1,1.1887932E-1,-3.676439E-1,9.895059E-2,4.4190744E-1],"split_indices":[85,106,98,19,81,23,66,121,84,42,0,6,91,69,45,46,95,3,3,0,0,0,0,0,0,91,121,134,166,73,0,123,14,6,8,0,94,83,90,103,15,46,213,4,66,0,136,126,169,0,0,0,0,0,0,0,0,0,0,0,0,0,0,0,0,0,0,0,0,0,0,0,0,0,0,0,0,0,0,0,0],"split_type":[0,0,0,0,0,0,0,0,0,0,0,0,0,0,0,0,0,0,0,0,0,0,0,0,0,0,0,0,0,0,0,0,0,0,0,0,0,0,0,0,0,0,0,0,0,0,0,0,0,0,0,0,0,0,0,0,0,0,0,0,0,0,0,0,0,0,0,0,0,0,0,0,0,0,0,0,0,0,0,0,0],"sum_hessian":[1.194E3,5.84E2,6.1E2,5.73E2,1.1E1,2.37E2,3.73E2,2.66E2,3.07E2,6E0,5E0,5E0,2.32E2,3.5E1,3.38E2,1.7E1,2.49E2,1E1,2.97E2,2E0,4E0,3E0,2E0,3E0,2E0,1.96E2,3.6E1,2.3E1,1.2E1,3.35E2,3E0,9E0,8E0,2.44E2,5E0,1E0,9E0,1.7E1,2.8E2,1.7E2,2.6E1,7E0,2.9E1,7E0,1.6E1,4E0,8E0,1.5E1,3.2E2,6E0,3E0,4E0,4E0,2.4E2,4E0,2E0,3E0,5E0,4E0,3E0,1.4E1,2E0,2.78E2,1.2E2,5E1,5E0,2.1E1,3E0,4E0,2.4E1,5E0,5E0,2E0,9E0,7E0,4E0,4E0,4E0,1.1E1,3.07E2,1.3E1],"tree_param":{"num_deleted":"0","num_feature":"223","num_nodes":"81","size_leaf_vector":"1"}},{"base_weights":[4.299914E-3,-1.7869957E-1,1.7950514E-1,-1.03363305E-1,-6.743808E-1,5.5976216E-2,4.8450005E-1,-1.2405103E-1,1.2077116E0,-9.689476E-1,1.0607929E-1,1.03280924E-1,-8.3890694E-1,3.3970683E0,3.970155E-1,-1.03477724E-1,-1.5640949E0,4.5165357E-1,2.0954044E-1,-3.7236226E-1,-1.9455249E0,-8.302982E-1,5.9840864E-1,6.596827E-2,1.350867E0,-1.0514622E0,2.5732914E-1,8.267534E-3,1.2697669E0,2.653533E-1,1.6641375E0,-7.957958E-2,-1.2569696E0,-5.762896E-1,8.656919E-2,4.2854194E-3,9.000778E-2,-1.4097959E0,8.08736E-2,-9.5383614E-1,-3.161795E0,-6.7803524E-2,-4.7275263E-1,9.5424336E-1,-3.0410942E-1,1.8148497E0,4.394233E-2,5.9795094E-1,6.073409E-1,4.8157534E-1,-1.2485539E0,1.0186479E0,7.938886E-2,2.442619E0,-4.0435195E-2,-3.3685967E-1,-1.6606122E-2,-1.6373357E-1,-6.5619344E-1,-6.915951E-2,-6.1521846E-1,3.788396E-1,-1.2631068E-1,-1.0845595E-1,-4.7538558E-1,-1.5628067E-1,-1.152572E0,-8.713165E-2,1.2341066E-1,1.342232E-1,4.4188815E-1,-1.2067948E-1,-3.137524E-2,6.702973E-2,6.4705384E-1,1.8365848E-1,-1.636834E-3,2.3098275E-1,4.0167373E-2,2.3093821E-1,-1.4229299E-2,-4.532866E-1,1.4276827E-2,4.785981E-1,-1.0557321E-1,7.470553E-2,-2.0953764E-1,2.3792028E-1,1.1055204E0,9.322668E-2,-8.811584E-2],"categories":[],"categories_nodes":[],"categories_segments":[],"categories_sizes":[],"default_left":[0,0,0,0,0,0,0,0,0,0,0,0,0,0,0,0,0,0,0,0,0,0,0,0,0,0,0,0,0,0,0,0,0,0,0,0,0,0,0,0,0,0,0,0,0,0,0,0,0,0,0,0,0,0,0,0,0,0,0,0,0,0,0,0,0,0,0,0,0,0,0,0,0,0,0,0,0,0,0,0,0,0,0,0,0,0,0,0,0,0,0],"id":9,"left_children":[1,3,5,7,9,11,13,15,17,19,21,23,25,27,29,31,33,-1,35,37,39,41,43,45,47,49,-1,-1,-1,51,53,55,57,-1,-1,-1,-1,59,61,63,65,67,-1,69,71,73,75,-1,77,79,81,83,85,87,89,-1,-1,-1,-1,-1,-1,-1,-1,-1,-1,-1,-1,-1,-1,-1,-1,-1,-1,-1,-1,-1,-1,-1,-1,-1,-1,-1,-1,-1,-1,-1,-1,-1,-1,-1,-1],"loss_changes":[3.834672E1,2.1775816E1,2.2992731E1,1.39555E1,1.7804901E1,1.8543478E1,4.3496937E1,1.4710634E1,2.06258E0,3.1901814E1,1.0638992E1,1.9229448E1,8.835903E0,1.3959278E1,2.8253534E1,1.3572861E1,5.182436E0,0E0,4.8717648E-2,1.7041292E1,2.231356E1,4.4409375E0,5.1074033E0,1.5482636E1,4.5202923E0,6.644251E0,0E0,0E0,0E0,2.1912636E1,2.1330425E1,1.2246517E1,5.422721E0,0E0,0E0,0E0,0E0,7.8413525E0,1.5955377E1,4.2842255E0,1.416333E1,6.528809E-1,0E0,2.232913E0,5.5851966E-2,2.2393837E0,1.1231657E1,0E0,4.357972E-1,4.939205E-1,6.193882E0,2.5062954E1,1.693107E1,1.9621803E1,6.249816E-1,0E0,0E0,0E0,0E0,0E0,0E0,0E0,0E0,0E0,0E0,0E0,0E0,0E0,0E0,0E0,0E0,0E0,0E0,0E0,0E0,0E0,0E0,0E0,0E0,0E0,0E0,0E0,0E0,0E0,0E0,0E0,0E0,0E0,0E0,0E0,0E0],"parents":[2147483647,0,0,1,1,2,2,3,3,4,4,5,5,6,6,7,7,8,8,9,9,10,10,11,11,12,12,13,13,14,14,15,15,16,16,18,18,19,19,20,20,21,21,22,22,23,23,24,24,25,25,29,29,30,30,31,31,32,32,37,37,38,38,39,39,40,40,41,41,43,43,44,44,45,45,46,46,48,48,49,49,50,50,51,51,52,52,53,53,54,54],"right_children":[2,4,6,8,10,12,14,16,18,20,22,24,26,28,30,32,34,-1,36,38,40,42,44,46,48,50,-1,-1,-1,52,54,56,58,-1,-1,-1,-1,60,62,64,66,68,-1,70,72,74,76,-1,78,80,82,84,86,88,90,-1,-1,-1,-1,-1,-1,-1,-1,-1,-1,-1,-1,-1,-1,-1,-1,-1,-1,-1,-1,-1,-1,-1,-1,-1,-1,-1,-1,-1,-1,-1,-1,-1,-1,-1,-1],"split_conditions":[1E0,6.77693E5,6.12E3,9.17393E1,4.22163E-3,2.716794E0,1.367579E6,4.552E2,4.218903E7,-2.8566541E-2,-7.6604257E-3,2.324539E0,3.1018156E7,1.865782E7,1.8980255E-2,3.1466056E-2,5.070161E7,4.5165357E-1,2.7229E2,6.62463E5,7.7965744E-3,-3.410271E-3,7.341E1,-1.0420593E-1,-2.3942778E-3,7.9301476E1,2.5732914E-1,8.267534E-3,1.2697669E0,-8.351857E-3,1.3048604E5,-6.0419112E-2,2.469066E6,-5.762896E-1,8.656919E-2,4.2854194E-3,9.000778E-2,6.03364E5,-1.163155E-2,6.0692064E7,2.833497E-2,8.907136E7,-4.7275263E-1,6.47575E5,2.6425E2,1.501E2,-2.1099265E0,5.9795094E-1,6.1879724E7,2.4372E2,-2.2616023E-2,9.38E3,6.322702E1,4.5036044E-4,2.4943826E7,-3.3685967E-1,-1.6606122E-2,-1.6373357E-1,-6.5619344E-1,-6.915951E-2,-6.1521846E-1,3.788396E-1,-1.2631068E-1,-1.0845595E-1,-4.7538558E-1,-1.5628067E-1,-1.152572E0,-8.713165E-2,1.2341066E-1,1.342232E-1,4.4188815E-1,-1.2067948E-1,-3.137524E-2,6.702973E-2,6.4705384E-1,1.8365848E-1,-1.636834E-3,2.3098275E-1,4.0167373E-2,2.3093821E-1,-1.4229299E-2,-4.532866E-1,1.4276827E-2,4.785981E-1,-1.0557321E-1,7.470553E-2,-2.0953764E-1,2.3792028E-1,1.1055204E0,9.322668E-2,-8.811584E-2],"split_indices":[85,93,69,54,210,121,60,3,4,190,222,121,32,32,173,143,18,0,0,92,178,150,44,186,172,104,0,0,0,196,100,157,60,0,0,0,0,94,152,18,133,11,0,95,0,0,121,0,11,0,167,69,115,159,32,0,0,0,0,0,0,0,0,0,0,0,0,0,0,0,0,0,0,0,0,0,0,0,0,0,0,0,0,0,0,0,0,0,0,0,0],"split_type":[0,0,0,0,0,0,0,0,0,0,0,0,0,0,0,0,0,0,0,0,0,0,0,0,0,0,0,0,0,0,0,0,0,0,0,0,0,0,0,0,0,0,0,0,0,0,0,0,0,0,0,0,0,0,0,0,0,0,0,0,0,0,0,0,0,0,0,0,0,0,0,0,0,0,0,0,0,0,0,0,0,0,0,0,0,0,0,0,0,0,0],"sum_hessian":[1.194E3,5.84E2,6.1E2,5.08E2,7.6E1,4.35E2,1.75E2,5.01E2,7E0,5.5E1,2.1E1,4.14E2,2.1E1,4E0,1.71E2,4.95E2,6E0,5E0,2E0,3.5E1,2E1,7E0,1.4E1,4.03E2,1.1E1,1.9E1,2E0,1E0,3E0,1.56E2,1.5E1,4.86E2,9E0,5E0,1E0,1E0,1E0,1E1,2.5E1,1.2E1,8E0,4E0,3E0,1E1,4E0,4E0,3.99E2,5E0,6E0,2E0,1.7E1,3E1,1.26E2,1E1,5E0,1E1,4.76E2,6E0,3E0,4E0,6E0,7E0,1.8E1,7E0,5E0,2E0,6E0,3E0,1E0,6E0,4E0,2E0,2E0,1E0,3E0,3.1E1,3.68E2,4E0,2E0,1E0,1E0,1.4E1,3E0,2.1E1,9E0,1.04E2,2.2E1,5E0,5E0,2E0,3E0],"tree_param":{"num_deleted":"0","num_feature":"223","num_nodes":"91","size_leaf_vector":"1"}}]},"name":"gbtree"},"learner_model_param":{"base_score":"1.023299E-1","boost_from_average":"1","num_class":"0","num_feature":"223","num_target":"1"},"objective":{"name":"reg:squarederror","reg_loss_param":{"scale_pos_weight":"1"}}},"version":[2,0,0]}