{"learner":{"attributes":{},"feature_names":["o","h","l","c","v","vw","n","SPY_o","SPY_h","SPY_l","SPY_c","SPY_v","SPY_vw","SPY_n","QQQ_o","QQQ_h","QQQ_l","QQQ_c","QQQ_v","QQQ_vw","QQQ_n","DIA_o","DIA_h","DIA_l","DIA_c","DIA_v","DIA_vw","DIA_n","IWM_o","IWM_h","IWM_l","IWM_c","IWM_v","IWM_vw","IWM_n","VTI_o","VTI_h","VTI_l","VTI_c","VTI_v","VTI_vw","VTI_n","EFA_o","EFA_h","EFA_l","EFA_c","EFA_v","EFA_vw","EFA_n","BIL_o","BIL_h","BIL_l","BIL_c","BIL_v","BIL_vw","BIL_n","SHV_o","SHV_h","SHV_l","SHV_c","SHV_v","SHV_vw","SHV_n","IEI_o","IEI_h","IEI_l","IEI_c","IEI_v","IEI_vw","IEI_n","IEF_o","IEF_h","IEF_l","IEF_c","IEF_v","IEF_vw","IEF_n","TLT_o","TLT_h","TLT_l","TLT_c","TLT_v","TLT_vw","TLT_n","next_c","target_class","c_class","vw_lag_1","vw_lag_2","vw_lag_3","vw_lag_4","vw_lag_5","n_lag_1","n_lag_2","n_lag_3","n_lag_4","n_lag_5","vw_rolling_mean","vw_rolling_std","n_rolling_mean","n_rolling_std","williams_r","stoch_k","roc","cci","adx","atr","20D-EMA","50D-EMA","100D-EMA","bollinger_mavg","bollinger_hband","bollinger_lband","vwap","pvwap","rsi","rsicat","dayofweek","month","quarter","MACDs_12_26_9","MACDh_12_26_9","DMP_16","embed_0","embed_1","embed_2","embed_3","embed_4","embed_5","embed_6","embed_7","embed_8","embed_9","embed_10","embed_11","embed_12","embed_13","embed_14","embed_15","embed_16","embed_17","embed_18","embed_19","embed_20","embed_21","embed_22","embed_23","embed_24","embed_25","embed_26","embed_27","embed_28","embed_29","embed_30","embed_31","embed_32","embed_33","embed_34","embed_35","embed_36","embed_37","embed_38","embed_39","embed_40","embed_41","embed_42","embed_43","embed_44","embed_45","embed_46","embed_47","embed_48","embed_49","embed_50","embed_51","embed_52","embed_53","embed_54","embed_55","embed_56","embed_57","embed_58","embed_59","embed_60","embed_61","embed_62","embed_63","embed_64","embed_65","embed_66","embed_67","embed_68","embed_69","embed_70","embed_71","embed_72","embed_73","embed_74","embed_75","embed_76","embed_77","embed_78","embed_79","embed_80","embed_81","embed_82","embed_83","embed_84","embed_85","embed_86","embed_87","embed_88","embed_89","embed_90","embed_91","embed_92","embed_93","embed_94","embed_95","embed_96","embed_97","embed_98","embed_99"],"feature_types":["float","float","float","float","float","float","int","float","float","float","float","float","float","int","float","float","float","float","float","float","int","float","float","float","float","float","float","int","float","float","float","float","float","float","int","float","float","float","float","float","float","int","float","float","float","float","float","float","int","float","float","float","float","float","float","int","float","float","float","float","float","float","int","float","float","float","float","float","float","int","float","float","float","float","float","float","int","float","float","float","float","float","float","int","float","int","int","float","float","float","float","float","int","int","int","int","int","float","float","float","float","float","float","float","float","float","float","float","float","float","float","float","float","float","float","float","float","float","float","float","float","float","float","float","float","float","float","float","float","float","float","float","float","float","float","float","float","float","float","float","float","float","float","float","float","float","float","float","float","float","float","float","float","float","float","float","float","float","float","float","float","float","float","float","float","float","float","float","float","float","float","float","float","float","float","float","float","float","float","float","float","float","float","float","float","float","float","float","float","float","float","float","float","float","float","float","float","float","float","float","float","float","float","float","float","float","float","float","float","float","float","float","float","float","float","float","float","float","float","float","float","float","float"],"gradient_booster":{"model":{"gbtree_model_param":{"num_parallel_tree":"1","num_trees":"10"},"iteration_indptr":[0,1,2,3,4,5,6,7,8,9,10],"tree_info":[0,0,0,0,0,0,0,0,0,0],"trees":[{"base_weights":[2.4970357E-9,-1.1578653E0,1.0298233E0,-7.18526E-1,-1.5545583E0,6.435272E-1,1.4591858E0,-4.3883753E-1,-9.511483E-1,-2.197324E0,-1.3705429E0,4.2558283E-1,8.116774E-1,1.901407E0,1.2503122E0,-2.4523926E-1,-4.7592807E-1,-1.001059E0,-3.1038946E-1,-2.2971437E0,-3.7722915E-2,-1.2555588E0,-1.9073726E0,3.2749847E-1,5.6798977E-1,7.548732E-1,1.2274594E0,2.1225002E0,1.0317734E0,2.271968E0,1.1810293E0,-1.1993439E-1,-3.0827528E-1,-1.9037828E-1,-4.979704E-1,-1.056754E0,-4.8504943E-1,-3.6824617E-1,-3.0784363E-2,-1.1545221E0,-2.0899165E0,-1.2032703E0,-2.0973408E0,-3.2390628E0,-1.5670936E0,2.8529945E-1,6.365607E-1,8.664177E-1,4.4656166E-1,8.027888E-1,2.8204718E-1,1.5170578E0,1.2946206E-1,1.3118417E0,1.9658281E0,1.2723552E0,2.1826008E-1,9.885927E-1,1.3483839E0,6.191302E-1,1.2638118E0,-3.8115837E-2,-9.448079E-3,-1.03251316E-1,-3.9747946E-2,-3.0207336E-2,-7.259694E-2,-1.8199274E-1,-1.22371905E-1,-2.944416E-1,-5.382712E-1,-2.0148997E-1,-8.58103E-2,-3.0298071E-2,-1.1670857E-1,-5.448026E-1,-9.955638E-1,-3.9617053E-1,-2.6075464E-1,-7.7249753E-1,-2.211351E-1,-2.7839798E-1,-1.0408727E0,-2.0845899E-1,-5.914873E-1,9.403857E-2,-3.2595631E-3,6.9952615E-2,2.1247803E-1,1.6535331E-1,4.349131E-1,5.5492707E-2,1.6508763E-1,2.6756E-1,1.6687371E-1,2.9309882E-2,1.3051686E-1,1.7614028E-1,5.101833E-1,6.3504386E-1,2.0715311E-1,4.620851E-1,1.7072819E-1,9.8302685E-2,2.449003E-2,4.5735264E-1,1.7326519E-2,3.5192907E-2,2.103909E-1,4.8229414E-1,3.2375658E-1],"categories":[],"categories_nodes":[],"categories_segments":[],"categories_sizes":[],"default_left":[0,0,0,0,0,0,0,0,0,0,0,0,0,0,0,0,0,0,0,0,0,0,0,0,0,0,0,0,0,0,0,0,0,0,0,0,0,0,0,0,0,0,0,0,0,0,0,0,0,0,0,0,0,0,0,0,0,0,0,0,0,0,0,0,0,0,0,0,0,0,0,0,0,0,0,0,0,0,0,0,0,0,0,0,0,0,0,0,0,0,0,0,0,0,0,0,0,0,0,0,0,0,0,0,0,0,0,0,0,0,0],"id":0,"left_children":[1,3,5,7,9,11,13,15,17,19,21,23,25,27,29,31,33,35,37,39,-1,41,43,45,47,49,51,53,55,57,59,61,63,65,67,69,71,73,-1,-1,75,77,79,81,83,85,87,89,91,93,95,97,-1,-1,99,101,103,-1,105,107,109,-1,-1,-1,-1,-1,-1,-1,-1,-1,-1,-1,-1,-1,-1,-1,-1,-1,-1,-1,-1,-1,-1,-1,-1,-1,-1,-1,-1,-1,-1,-1,-1,-1,-1,-1,-1,-1,-1,-1,-1,-1,-1,-1,-1,-1,-1,-1,-1,-1,-1],"loss_changes":[1.4261064E3,9.700421E1,1.0405109E2,1.7084198E1,3.1880737E1,1.1931442E1,2.5240784E1,7.7368546E-1,4.35849E0,1.2945374E1,1.1925812E1,1.8812332E0,3.5136414E0,1.5883423E1,1.1898132E1,1.3679898E-1,5.534992E-1,3.3672028E0,1.0646665E-1,1.1566406E1,0E0,6.015381E0,1.25967865E1,9.921808E-1,1.7511063E0,3.5797348E0,4.185766E0,1.7493286E1,3.8323421E0,6.8983536E0,8.288025E0,1.6646683E-3,4.2737365E-2,1.7293781E-2,6.82354E-1,4.956833E0,3.6488438E-1,1.069808E-2,0E0,0E0,1.281926E1,6.1019287E0,4.5990486E0,5.093765E-1,1.0273834E1,6.790037E-1,1.2407589E-1,2.1429863E0,1.092124E0,2.8420563E0,4.3701136E-1,1.5618668E0,0E0,0E0,1.2209595E1,2.1382103E0,6.294516E-2,0E0,1.7304468E0,1.0311012E0,8.993195E0,0E0,0E0,0E0,0E0,0E0,0E0,0E0,0E0,0E0,0E0,0E0,0E0,0E0,0E0,0E0,0E0,0E0,0E0,0E0,0E0,0E0,0E0,0E0,0E0,0E0,0E0,0E0,0E0,0E0,0E0,0E0,0E0,0E0,0E0,0E0,0E0,0E0,0E0,0E0,0E0,0E0,0E0,0E0,0E0,0E0,0E0,0E0,0E0,0E0,0E0],"parents":[2147483647,0,0,1,1,2,2,3,3,4,4,5,5,6,6,7,7,8,8,9,9,10,10,11,11,12,12,13,13,14,14,15,15,16,16,17,17,18,18,19,19,21,21,22,22,23,23,24,24,25,25,26,26,27,27,28,28,29,29,30,30,31,31,32,32,33,33,34,34,35,35,36,36,37,37,40,40,41,41,42,42,43,43,44,44,45,45,46,46,47,47,48,48,49,49,50,50,51,51,54,54,55,55,56,56,58,58,59,59,60,60],"right_children":[2,4,6,8,10,12,14,16,18,20,22,24,26,28,30,32,34,36,38,40,-1,42,44,46,48,50,52,54,56,58,60,62,64,66,68,70,72,74,-1,-1,76,78,80,82,84,86,88,90,92,94,96,98,-1,-1,100,102,104,-1,106,108,110,-1,-1,-1,-1,-1,-1,-1,-1,-1,-1,-1,-1,-1,-1,-1,-1,-1,-1,-1,-1,-1,-1,-1,-1,-1,-1,-1,-1,-1,-1,-1,-1,-1,-1,-1,-1,-1,-1,-1,-1,-1,-1,-1,-1,-1,-1,-1,-1,-1,-1],"split_conditions":[1E0,4.255E3,8.6932E4,6.1007782E1,9.14274E1,1.287899E2,-2.8042502E-3,2.519E4,5.26543E7,1.0497668E-2,2.498644E0,3.8207E4,2.4559755E-2,6.259795E-3,-2.2609625E-2,1.884873E6,1.4691E2,2.2721E2,7.988471E7,-2.1018064E-2,-3.7722915E-2,9.399082E-3,3.1461E4,2.418881E6,1.157863E6,1.01604E5,3.5559762E-2,0E0,4.178125E-3,2.0110503E-2,6.5581E4,5.8987984E7,8.361202E-1,1.923E3,1.53045E2,2.7397333E-2,-3.7126176E-2,6.456E1,-3.0784363E-2,-1.1545221E0,-3.7318226E-3,8.685279E6,1.2269081E-2,1.11746E5,4.3769E4,6.048024E6,2.8727E2,2.7738184E1,2.7074648E7,6.4655655E1,7.735E4,-1.010894E-2,1.2946206E-1,1.3118417E0,1.1872164E-2,3.7742E-4,4.155823E6,9.885927E-1,1.1472E2,3.539E3,5.8775153E-3,-3.8115837E-2,-9.448079E-3,-1.03251316E-1,-3.9747946E-2,-3.0207336E-2,-7.259694E-2,-1.8199274E-1,-1.22371905E-1,-2.944416E-1,-5.382712E-1,-2.0148997E-1,-8.58103E-2,-3.0298071E-2,-1.1670857E-1,-5.448026E-1,-9.955638E-1,-3.9617053E-1,-2.6075464E-1,-7.7249753E-1,-2.211351E-1,-2.7839798E-1,-1.0408727E0,-2.0845899E-1,-5.914873E-1,9.403857E-2,-3.2595631E-3,6.9952615E-2,2.1247803E-1,1.6535331E-1,4.349131E-1,5.5492707E-2,1.6508763E-1,2.6756E-1,1.6687371E-1,2.9309882E-2,1.3051686E-1,1.7614028E-1,5.101833E-1,6.3504386E-1,2.0715311E-1,4.620851E-1,1.7072819E-1,9.8302685E-2,2.449003E-2,4.5735264E-1,1.7326519E-2,3.5192907E-2,2.103909E-1,4.8229414E-1,3.2375658E-1],"split_indices":[85,69,6,113,54,64,161,83,4,181,98,48,163,211,217,39,29,28,18,130,0,217,27,53,53,96,172,178,146,199,83,11,120,55,30,184,204,0,0,0,222,74,121,34,27,74,7,105,4,115,83,143,0,0,149,129,39,0,0,62,178,0,0,0,0,0,0,0,0,0,0,0,0,0,0,0,0,0,0,0,0,0,0,0,0,0,0,0,0,0,0,0,0,0,0,0,0,0,0,0,0,0,0,0,0,0,0,0,0,0,0],"split_type":[0,0,0,0,0,0,0,0,0,0,0,0,0,0,0,0,0,0,0,0,0,0,0,0,0,0,0,0,0,0,0,0,0,0,0,0,0,0,0,0,0,0,0,0,0,0,0,0,0,0,0,0,0,0,0,0,0,0,0,0,0,0,0,0,0,0,0,0,0,0,0,0,0,0,0,0,0,0,0,0,0,0,0,0,0,0,0,0,0,0,0,0,0,0,0,0,0,0,0,0,0,0,0,0,0,0,0,0,0,0,0],"sum_hessian":[1.194E3,5.62E2,6.32E2,2.68E2,2.94E2,3.34E2,2.98E2,1.23E2,1.45E2,6.3E1,2.31E2,1.47E2,1.87E2,9.3E1,2.05E2,2.1E1,1.02E2,1.34E2,1.1E1,6E1,3E0,1.93E2,3.8E1,8.9E1,5.8E1,1.67E2,2E1,7.3E1,2E1,1.1E1,1.94E2,8E0,1.3E1,8E0,9.4E1,1.2E2,1.4E1,8E0,3E0,5E0,5.5E1,1.84E2,9E0,6E0,3.2E1,8E1,9E0,1.5E1,4.3E1,1.51E2,1.6E1,1.4E1,6E0,3E0,7E1,1.5E1,5E0,4E0,7E0,2.6E1,1.68E2,7E0,1E0,1E1,3E0,4E0,4E0,4E1,5.4E1,1.11E2,9E0,6E0,8E0,1E0,7E0,4.7E1,8E0,1.34E2,5E1,6E0,3E0,1E0,5E0,1.1E1,2.1E1,7.3E1,7E0,2E0,7E0,1.1E1,4E0,1.3E1,3E1,1.09E2,4.2E1,8E0,8E0,3E0,1.1E1,6.2E1,8E0,1E1,5E0,2E0,3E0,6E0,1E0,4E0,2.2E1,5.6E1,1.12E2],"tree_param":{"num_deleted":"0","num_feature":"223","num_nodes":"111","size_leaf_vector":"1"}},{"base_weights":[-3.0901397E-4,-8.254221E-1,7.3355985E-1,-5.446459E-1,-1.1552364E0,4.5824245E-1,1.0395724E0,-3.144792E-1,-7.2692937E-1,-9.4298184E-1,-1.5836806E0,3.4161937E-1,6.124384E-1,1.4757025E0,9.239092E-1,-2.9382464E-1,-7.164663E-1,-7.903104E-1,-3.0843204E-1,-1.5991603E0,-8.431188E-1,-7.800928E-1,-1.8738843E0,2.9416066E-1,6.2250763E-1,7.46687E-1,4.14283E-1,9.489689E-1,1.2685443E0,1.7195946E0,8.742712E-1,-2.4458577E-1,-4.400528E-1,-2.3447895E-1,-5.8622353E-2,-6.273489E-1,-1.0366119E0,-2.0924847E-1,-2.2561137E-1,-2.5208548E-1,-1.8845055E0,-7.7317184E-1,-1.6821411E0,-5.1325744E-1,-5.957866E-1,-2.3259528E0,-1.3292152E0,4.5315912E-1,2.3711191E-1,1.6744143E-1,8.053017E-1,9.343443E-1,5.1690537E-1,3.546095E-1,3.2299617E-1,6.15672E-1,1.6141491E0,2.8327978E-1,1.95499E0,5.0862575E-1,9.746873E-1,-8.073743E-2,1.0847917E-2,-8.0338284E-2,-1.6774628E-1,-2.1191648E-1,-1.1317937E-1,-3.2339107E-2,-3.3140317E-1,-1.03699215E-1,-2.3439437E-2,-1.457663E-1,1.9723553E-2,-3.9961597E-1,-8.3022046E-1,-3.0972308E-1,-1.7106257E-1,-1.542713E-1,-5.653613E-1,-4.124174E-1,-6.890794E-2,-8.0731124E-1,-2.6829576E-1,-6.451416E-2,-4.7963908E-1,8.284842E-3,1.7438242E-1,9.009761E-2,4.185052E-2,-6.49665E-3,9.691503E-2,2.5306305E-1,1.7542671E-2,-5.35962E-3,2.9371458E-1,9.70714E-2,3.1936514E-1,6.284252E-2,1.8352628E-1,2.8128308E-1,-7.4036634E-3,5.7872576E-1,1.3649894E-1,1.1274836E-1,1.4727541E-2,8.513334E-1,4.330519E-1,1.7566845E-1,2.535907E-2,2.7561876E-1,6.1258805E-1],"categories":[],"categories_nodes":[],"categories_segments":[],"categories_sizes":[],"default_left":[0,0,0,0,0,0,0,0,0,0,0,0,0,0,0,0,0,0,0,0,0,0,0,0,0,0,0,0,0,0,0,0,0,0,0,0,0,0,0,0,0,0,0,0,0,0,0,0,0,0,0,0,0,0,0,0,0,0,0,0,0,0,0,0,0,0,0,0,0,0,0,0,0,0,0,0,0,0,0,0,0,0,0,0,0,0,0,0,0,0,0,0,0,0,0,0,0,0,0,0,0,0,0,0,0,0,0,0,0,0,0],"id":1,"left_children":[1,3,5,7,9,11,13,15,17,19,21,23,25,27,29,31,33,35,37,39,41,43,45,47,49,51,53,-1,55,57,59,61,63,-1,-1,65,67,69,-1,71,73,75,77,79,-1,81,83,85,87,89,91,93,95,-1,97,99,101,103,105,107,109,-1,-1,-1,-1,-1,-1,-1,-1,-1,-1,-1,-1,-1,-1,-1,-1,-1,-1,-1,-1,-1,-1,-1,-1,-1,-1,-1,-1,-1,-1,-1,-1,-1,-1,-1,-1,-1,-1,-1,-1,-1,-1,-1,-1,-1,-1,-1,-1,-1,-1],"loss_changes":[7.2420764E2,5.1506836E1,5.2854248E1,1.260981E1,2.1968933E1,5.8150177E0,1.3719391E1,9.2697716E-1,4.2654495E0,1.0119095E1,1.8127365E1,2.3896866E0,3.4947586E0,1.7311996E1,7.9361877E0,8.427839E-1,5.0889492E-2,5.2499237E0,8.9859915E-1,7.981331E0,7.737221E0,6.7030954E0,1.1928207E1,1.4073515E0,2.1111107E0,3.1391296E0,3.823329E0,0E0,1.1641815E1,3.8415146E0,7.8389435E0,7.0554113E-1,5.067811E-1,0E0,0E0,1.5322571E0,3.484455E0,3.4860712E-1,0E0,4.0349218E-1,5.0933228E0,6.987999E0,1.6310749E0,4.814144E0,0E0,1.431871E1,8.666962E0,2.328251E0,7.293892E-1,2.7182186E-1,4.9331188E-1,1.9330444E0,3.8906784E0,0E0,1.6747603E0,4.3523607E0,1.226442E1,4.6570882E-2,8.7049866E-1,1.6145344E0,8.69487E0,0E0,0E0,0E0,0E0,0E0,0E0,0E0,0E0,0E0,0E0,0E0,0E0,0E0,0E0,0E0,0E0,0E0,0E0,0E0,0E0,0E0,0E0,0E0,0E0,0E0,0E0,0E0,0E0,0E0,0E0,0E0,0E0,0E0,0E0,0E0,0E0,0E0,0E0,0E0,0E0,0E0,0E0,0E0,0E0,0E0,0E0,0E0,0E0,0E0,0E0],"parents":[2147483647,0,0,1,1,2,2,3,3,4,4,5,5,6,6,7,7,8,8,9,9,10,10,11,11,12,12,13,13,14,14,15,15,16,16,17,17,18,18,19,19,20,20,21,21,22,22,23,23,24,24,25,25,26,26,28,28,29,29,30,30,31,31,32,32,35,35,36,36,37,37,39,39,40,40,41,41,42,42,43,43,45,45,46,46,47,47,48,48,49,49,50,50,51,51,52,52,54,54,55,55,56,56,57,57,58,58,59,59,60,60],"right_children":[2,4,6,8,10,12,14,16,18,20,22,24,26,28,30,32,34,36,38,40,42,44,46,48,50,52,54,-1,56,58,60,62,64,-1,-1,66,68,70,-1,72,74,76,78,80,-1,82,84,86,88,90,92,94,96,-1,98,100,102,104,106,108,110,-1,-1,-1,-1,-1,-1,-1,-1,-1,-1,-1,-1,-1,-1,-1,-1,-1,-1,-1,-1,-1,-1,-1,-1,-1,-1,-1,-1,-1,-1,-1,-1,-1,-1,-1,-1,-1,-1,-1,-1,-1,-1,-1,-1,-1,-1,-1,-1,-1,-1],"split_conditions":[1E0,7.685797E1,8.6932E4,1.1394E2,6.1221E4,7.5972E1,-1.8366026E-2,2.330911E6,3.0482842E4,3.2449E4,-3.8656965E-2,5.10458E5,6.9271E4,3.2563426E-3,-2.2609625E-2,2.562E3,6.40255E1,1.350693E4,3.103984E0,1.052496E2,9.399082E-3,4.193731E7,-1.848816E-2,1.104821E2,3.758E3,3.4373374E0,2.914E3,9.489689E-1,1.1719E2,1.34437E5,1.4276653E7,1.8146E4,3.2274E4,-2.3447895E-1,-5.8622353E-2,9.154E1,-9.3217E1,4.504E3,-2.2561137E-1,2.648976E7,2.1316E4,-6.6951774E-3,1.3282403E-2,7.7128504E7,-5.957866E-1,-3.1557222E-4,-1.34783005E-2,5.1059243E3,2.7075E2,2.463924E6,5.344048E7,-2.7228314E-2,1.3339E2,3.546095E-1,1.3255052E-2,3.0338E5,-9.144212E-3,1.073575E2,1.1617664E7,5.2918562E4,5.32872E5,-8.073743E-2,1.0847917E-2,-8.0338284E-2,-1.6774628E-1,-2.1191648E-1,-1.1317937E-1,-3.2339107E-2,-3.3140317E-1,-1.03699215E-1,-2.3439437E-2,-1.457663E-1,1.9723553E-2,-3.9961597E-1,-8.3022046E-1,-3.0972308E-1,-1.7106257E-1,-1.542713E-1,-5.653613E-1,-4.124174E-1,-6.890794E-2,-8.0731124E-1,-2.6829576E-1,-6.451416E-2,-4.7963908E-1,8.284842E-3,1.7438242E-1,9.009761E-2,4.185052E-2,-6.49665E-3,9.691503E-2,2.5306305E-1,1.7542671E-2,-5.35962E-3,2.9371458E-1,9.70714E-2,3.1936514E-1,6.284252E-2,1.8352628E-1,2.8128308E-1,-7.4036634E-3,5.7872576E-1,1.3649894E-1,1.1274836E-1,1.4727541E-2,8.513334E-1,4.330519E-1,1.7566845E-1,2.535907E-2,2.7561876E-1,6.1258805E-1],"split_indices":[85,113,6,71,27,84,199,67,100,27,139,13,93,178,217,55,0,100,98,87,217,32,188,61,69,103,62,0,63,93,81,76,93,0,0,49,101,62,0,4,76,156,145,11,0,198,188,100,23,53,4,127,66,0,184,92,132,0,46,100,93,0,0,0,0,0,0,0,0,0,0,0,0,0,0,0,0,0,0,0,0,0,0,0,0,0,0,0,0,0,0,0,0,0,0,0,0,0,0,0,0,0,0,0,0,0,0,0,0,0,0],"split_type":[0,0,0,0,0,0,0,0,0,0,0,0,0,0,0,0,0,0,0,0,0,0,0,0,0,0,0,0,0,0,0,0,0,0,0,0,0,0,0,0,0,0,0,0,0,0,0,0,0,0,0,0,0,0,0,0,0,0,0,0,0,0,0,0,0,0,0,0,0,0,0,0,0,0,0,0,0,0,0,0,0,0,0,0,0,0,0,0,0,0,0,0,0,0,0,0,0,0,0,0,0,0,0,0,0,0,0,0,0,0,0],"sum_hessian":[1.194E3,5.62E2,6.32E2,3.05E2,2.57E2,3.34E2,2.98E2,1.36E2,1.69E2,1.74E2,8.3E1,1.92E2,1.42E2,6E1,2.38E2,1.31E2,5E0,1.46E2,2.3E1,2.1E1,1.53E2,2.3E1,6E1,1.66E2,2.6E1,8.3E1,5.9E1,5E0,5.5E1,1.2E1,2.26E2,1E2,3.1E1,4E0,1E0,9E1,5.6E1,2E1,3E0,4E0,1.7E1,1.43E2,1E1,2E1,3E0,3.1E1,2.9E1,4.2E1,1.24E2,8E0,1.8E1,4.4E1,3.9E1,5E0,5.4E1,2E1,3.5E1,2E0,1E1,5E1,1.76E2,9.2E1,8E0,1.4E1,1.7E1,6.7E1,2.3E1,4E0,5.2E1,9E0,1.1E1,2E0,2E0,1.2E1,5E0,6.1E1,8.2E1,2E0,8E0,4E0,1.6E1,2.4E1,7E0,6E0,2.3E1,1E1,3.2E1,7.4E1,5E1,4E0,4E0,1.7E1,1E0,2E0,4.2E1,3E1,9E0,4E1,1.4E1,1.3E1,7E0,2.7E1,8E0,1E0,1E0,2E0,8E0,4.2E1,8E0,1.69E2,7E0],"tree_param":{"num_deleted":"0","num_feature":"223","num_nodes":"111","size_leaf_vector":"1"}},{"base_weights":[-6.223746E-4,-5.900616E-1,5.2363497E-1,-3.7881327E-1,-8.3832484E-1,2.98037E-1,7.2598135E-1,-2.2374003E-1,-4.9208477E-1,-6.865777E-1,-1.3497535E0,8.9049006E-1,2.6165196E-1,1.2354703E0,6.561642E-1,-2.074006E-1,-1.7820399E-1,-4.659048E-1,-4.5040414E-1,-6.3763744E-1,-1.7875553E0,-1.5446007E0,-4.741224E-1,1.2233335E0,3.6312458E-1,2.320063E-1,9.1675687E-1,5.560584E-1,1.9213746E0,5.446761E-1,9.593469E-1,-1.9246408E-1,-6.1858255E-1,-4.38021E-1,-3.9455876E-1,-7.8167754E-1,-4.3558776E-1,-5.8981568E-2,-7.0617485E-1,-3.4710318E-1,-1.7113783E0,2.2601536E-1,-1.4995184E0,3.842907E-1,1.0569219E-1,1.422396E-1,2.0068228E-2,1.734897E-1,3.968708E-1,3.202672E-1,1.0850292E-1,9.668095E-2,8.9253473E-1,8.936711E-1,1.2041378E0,2.3650244E-1,6.6290605E-1,8.690363E-1,7.238501E-1,-4.5053143E-2,-9.598719E-2,8.118542E-3,-2.5284538E-1,-1.7405984E-1,-9.016773E-2,-2.1101853E-1,-5.1342744E-1,-2.0477454E-1,-5.6985572E-2,6.0677387E-2,-8.721909E-2,5.312369E-2,-3.315117E-1,-6.273204E-1,-3.157026E-1,1.030701E-1,-2.5327904E-2,-1.3720174E-1,-4.9371853E-1,2.9194819E-2,-2.0164115E-2,-4.6749864E-2,6.013528E-2,7.2811626E-2,1.9630821E-1,7.421436E-3,4.1404877E-2,-5.7508156E-2,7.42965E-2,3.6914113E-1,1.4261118E-1,4.3131706E-1,9.574169E-2,3.135267E-2,2.5169152E-1,3.0561E-1,1.5048724E-1,-1.230124E-2,2.9349297E-1],"categories":[],"categories_nodes":[],"categories_segments":[],"categories_sizes":[],"default_left":[0,0,0,0,0,0,0,0,0,0,0,0,0,0,0,0,0,0,0,0,0,0,0,0,0,0,0,0,0,0,0,0,0,0,0,0,0,0,0,0,0,0,0,0,0,0,0,0,0,0,0,0,0,0,0,0,0,0,0,0,0,0,0,0,0,0,0,0,0,0,0,0,0,0,0,0,0,0,0,0,0,0,0,0,0,0,0,0,0,0,0,0,0,0,0,0,0,0,0],"id":2,"left_children":[1,3,5,7,9,11,13,15,17,19,21,23,25,27,29,31,-1,33,-1,35,37,39,41,43,45,47,49,51,53,55,57,59,61,63,-1,65,67,69,-1,71,73,75,77,-1,-1,-1,79,81,83,-1,85,87,89,-1,91,93,95,97,-1,-1,-1,-1,-1,-1,-1,-1,-1,-1,-1,-1,-1,-1,-1,-1,-1,-1,-1,-1,-1,-1,-1,-1,-1,-1,-1,-1,-1,-1,-1,-1,-1,-1,-1,-1,-1,-1,-1,-1,-1],"loss_changes":[3.695853E2,2.9209076E1,2.8679428E1,5.264908E0,1.9096115E1,6.2554874E0,1.103447E1,6.693578E-1,3.950863E0,9.690491E0,9.1633E0,2.5397892E0,5.322298E0,1.7106049E1,9.448853E0,6.609316E-1,0E0,3.5208092E0,0E0,5.305542E0,7.693138E0,8.79261E0,8.953936E0,5.0724983E-2,2.9513943E-1,2.5745096E0,1.3467875E0,3.1596713E0,1.08244705E1,7.786133E0,8.141838E0,6.2047005E-1,6.0191333E-1,3.1285706E0,0E0,6.9478683E0,4.906001E0,2.4042827E-1,0E0,2.9767542E0,8.058884E0,3.2094947E-1,9.228706E-3,0E0,0E0,0E0,2.6767995E-2,1.8425407E0,2.6596003E0,0E0,4.002273E-3,4.82845E-1,1.1067677E0,0E0,2.2285671E0,4.842687E0,8.498146E0,7.4983635E0,0E0,0E0,0E0,0E0,0E0,0E0,0E0,0E0,0E0,0E0,0E0,0E0,0E0,0E0,0E0,0E0,0E0,0E0,0E0,0E0,0E0,0E0,0E0,0E0,0E0,0E0,0E0,0E0,0E0,0E0,0E0,0E0,0E0,0E0,0E0,0E0,0E0,0E0,0E0,0E0,0E0],"parents":[2147483647,0,0,1,1,2,2,3,3,4,4,5,5,6,6,7,7,8,8,9,9,10,10,11,11,12,12,13,13,14,14,15,15,17,17,19,19,20,20,21,21,22,22,23,23,24,24,25,25,26,26,27,27,28,28,29,29,30,30,31,31,32,32,33,33,35,35,36,36,37,37,39,39,40,40,41,41,42,42,46,46,47,47,48,48,50,50,51,51,52,52,54,54,55,55,56,56,57,57],"right_children":[2,4,6,8,10,12,14,16,18,20,22,24,26,28,30,32,-1,34,-1,36,38,40,42,44,46,48,50,52,54,56,58,60,62,64,-1,66,68,70,-1,72,74,76,78,-1,-1,-1,80,82,84,-1,86,88,90,-1,92,94,96,98,-1,-1,-1,-1,-1,-1,-1,-1,-1,-1,-1,-1,-1,-1,-1,-1,-1,-1,-1,-1,-1,-1,-1,-1,-1,-1,-1,-1,-1,-1,-1,-1,-1,-1,-1,-1,-1,-1,-1,-1,-1],"split_conditions":[1E0,9.5801E4,4.5867E4,1.4069396E0,1.3259438E2,-2.2035165E-2,-9.386751E-1,2.330911E6,3.978584E1,6.48133E5,1.0253806E2,1.1143963E2,3.1292263E-2,1.1472E2,1.613E4,1.5032574E0,-1.7820399E-1,2.383441E-2,-4.5040414E-1,1.9963255E-2,1.7978E2,2.042E3,1.3772212E-2,4.150884E7,2.524658E7,1.1991E2,5.845544E-2,8.03E3,-1.0907207E0,-1.9734513E-2,2.4791744E7,2.562E3,7.1583E1,5.16348E6,-3.9455876E-1,8.274354E-3,7.534513E7,8.74E1,-7.0617485E-1,4.6769E2,3.7388004E7,1.7051E4,1.397035E2,3.842907E-1,1.0569219E-1,1.422396E-1,1.2245E2,-1.3651608E-2,7.69185E1,3.202672E-1,1.1878E2,1.7596358E0,1.3009E2,8.936711E-1,5.8226664E-2,2.054677E-3,-3.5773654E-2,7.724058E-3,7.238501E-1,-4.5053143E-2,-9.598719E-2,8.118542E-3,-2.5284538E-1,-1.7405984E-1,-9.016773E-2,-2.1101853E-1,-5.1342744E-1,-2.0477454E-1,-5.6985572E-2,6.0677387E-2,-8.721909E-2,5.312369E-2,-3.315117E-1,-6.273204E-1,-3.157026E-1,1.030701E-1,-2.5327904E-2,-1.3720174E-1,-4.9371853E-1,2.9194819E-2,-2.0164115E-2,-4.6749864E-2,6.013528E-2,7.2811626E-2,1.9630821E-1,7.421436E-3,4.1404877E-2,-5.7508156E-2,7.42965E-2,3.6914113E-1,1.4261118E-1,4.3131706E-1,9.574169E-2,3.135267E-2,2.5169152E-1,3.0561E-1,1.5048724E-1,-1.230124E-2,2.9349297E-1],"split_indices":[85,92,41,106,109,188,121,67,122,94,104,108,208,0,62,120,0,216,0,157,28,55,161,4,32,70,159,69,120,151,74,55,2,74,0,198,11,0,0,10,46,62,0,0,0,0,0,188,84,0,0,98,63,0,213,154,220,172,0,0,0,0,0,0,0,0,0,0,0,0,0,0,0,0,0,0,0,0,0,0,0,0,0,0,0,0,0,0,0,0,0,0,0,0,0,0,0,0,0],"split_type":[0,0,0,0,0,0,0,0,0,0,0,0,0,0,0,0,0,0,0,0,0,0,0,0,0,0,0,0,0,0,0,0,0,0,0,0,0,0,0,0,0,0,0,0,0,0,0,0,0,0,0,0,0,0,0,0,0,0,0,0,0,0,0,0,0,0,0,0,0,0,0,0,0,0,0,0,0,0,0,0,0,0,0,0,0,0,0,0,0,0,0,0,0,0,0,0,0,0,0],"sum_hessian":[1.194E3,5.62E2,6.32E2,3.05E2,2.57E2,3E2,3.32E2,1.3E2,1.75E2,2E2,5.7E1,1.6E1,2.84E2,3.8E1,2.94E2,1.26E2,4E0,1.72E2,3E0,1.93E2,7E0,4.6E1,1.1E1,9E0,7E0,2.73E2,1.1E1,2E1,1.8E1,2.17E2,7.7E1,1.23E2,3E0,1.68E2,4E0,1.11E2,8.2E1,2E0,5E0,6E0,4E1,7E0,4E0,8E0,1E0,5E0,2E0,2.03E2,7E1,9E0,2E0,9E0,1.1E1,6E0,1.2E1,6.1E1,1.56E2,7.4E1,3E0,9.4E1,2.9E1,1E0,2E0,8.1E1,8.7E1,1.04E2,7E0,4E1,4.2E1,1E0,1E0,4E0,2E0,2.4E1,1.6E1,5E0,2E0,1E0,3E0,1E0,1E0,1.5E1,1.88E2,4.5E1,2.5E1,1E0,1E0,3E0,6E0,5E0,6E0,9E0,3E0,5.1E1,1E1,4.7E1,1.09E2,8E0,6.6E1],"tree_param":{"num_deleted":"0","num_feature":"223","num_nodes":"99","size_leaf_vector":"1"}},{"base_weights":[-5.8659766E-4,-4.2222014E-1,3.7442175E-1,-3.4274086E-1,-8.306979E-1,2.3384574E-1,5.601353E-1,-2.2950895E-1,-5.02992E-1,-1.19745E0,-6.013829E-1,1.2821777E0,2.0956263E-1,1.0258644E0,4.9597153E-1,-2.091897E-1,-8.916751E-1,-1.1136006E0,-4.4219118E-1,-1.4217323E0,-4.164736E-1,-9.2364997E-1,-1.6922146E-1,5.706879E-1,5.2965003E-1,6.533101E-1,1.9347388E-1,7.5225776E-1,7.058666E-1,4.297702E-1,9.6510655E-1,-1.3764717E-1,-3.987542E-1,-1.8582857E-1,-3.8340524E-1,-6.2439436E-1,-6.488451E-1,-1.5891494E-1,-5.361353E-1,-9.0184224E-1,-1.9531173E0,-2.1900815E-1,-1.9625336E-2,-1.252925E0,-3.8728207E-1,-3.6427614E-1,2.3969027E-1,1.9686972E-1,3.498117E-3,-3.9269008E-2,2.4697237E-1,1.005003E-1,2.8165036E-1,4.5727134E-1,1.324199E0,1.0197057E0,3.766805E-1,6.94893E-1,7.4406546E-1,-3.31943E-2,-1.5463094E-1,-1.5974769E-1,3.5798103E-2,-8.428191E-2,1.4925707E-2,1.6706936E-2,-2.5019658E-1,-2.1216969E-1,-7.460502E-3,-1.9536509E-1,-3.982811E-2,-3.2698806E-2,-3.0463028E-1,-3.0671504E-1,-7.415617E-1,-5.7214867E-2,4.7402203E-2,-1.112444E-2,-4.3959132E-1,9.328446E-3,-3.4397388E-1,-2.7322936E-1,-4.540464E-3,-2.4777807E-2,1.0307103E-1,4.6517313E-2,-2.9498301E-2,2.536866E-1,7.4928336E-2,6.892682E-2,2.5409323E-1,1.8688823E-1,4.712974E-1,7.773107E-2,4.233074E-1,6.453531E-2,1.6651194E-1,4.0372866E-1,9.925597E-2],"categories":[],"categories_nodes":[],"categories_segments":[],"categories_sizes":[],"default_left":[0,0,0,0,0,0,0,0,0,0,0,0,0,0,0,0,0,0,0,0,0,0,0,0,0,0,0,0,0,0,0,0,0,0,0,0,0,0,0,0,0,0,0,0,0,0,0,0,0,0,0,0,0,0,0,0,0,0,0,0,0,0,0,0,0,0,0,0,0,0,0,0,0,0,0,0,0,0,0,0,0,0,0,0,0,0,0,0,0,0,0,0,0,0,0,0,0,0,0],"id":3,"left_children":[1,3,5,7,9,11,13,15,17,19,21,23,25,27,29,31,33,35,37,39,41,43,45,-1,47,49,51,53,-1,55,57,59,61,63,-1,65,-1,67,69,71,73,-1,75,77,79,81,83,-1,-1,-1,-1,85,87,89,91,93,95,97,-1,-1,-1,-1,-1,-1,-1,-1,-1,-1,-1,-1,-1,-1,-1,-1,-1,-1,-1,-1,-1,-1,-1,-1,-1,-1,-1,-1,-1,-1,-1,-1,-1,-1,-1,-1,-1,-1,-1,-1,-1],"loss_changes":[1.8910681E2,1.7993378E1,1.639466E1,8.467396E0,6.9331436E0,8.94665E0,7.619362E0,3.567338E0,6.7470474E0,5.3632965E0,7.92144E0,2.7256823E0,2.4080696E0,9.848663E0,7.070053E0,3.633956E0,1.9440951E0,7.3753605E0,4.6783714E0,5.421398E0,1.1055715E0,5.3429794E0,2.161077E0,0E0,3.201897E-1,1.706893E0,2.7918348E0,4.118498E0,0E0,6.286949E0,1.0149223E1,1.9727931E0,5.190792E0,1.0360286E-1,0E0,1.899487E0,0E0,3.3634157E0,6.1339607E0,1.2402372E0,3.2666702E0,0E0,1.8209122E-1,5.1100655E0,4.4830675E0,3.420646E0,3.2968462E-1,0E0,0E0,0E0,0E0,1.8484802E0,2.954093E0,1.5786843E0,5.788746E-1,4.6942444E0,5.557396E0,5.715248E0,0E0,0E0,0E0,0E0,0E0,0E0,0E0,0E0,0E0,0E0,0E0,0E0,0E0,0E0,0E0,0E0,0E0,0E0,0E0,0E0,0E0,0E0,0E0,0E0,0E0,0E0,0E0,0E0,0E0,0E0,0E0,0E0,0E0,0E0,0E0,0E0,0E0,0E0,0E0,0E0,0E0],"parents":[2147483647,0,0,1,1,2,2,3,3,4,4,5,5,6,6,7,7,8,8,9,9,10,10,11,11,12,12,13,13,14,14,15,15,16,16,17,17,18,18,19,19,20,20,21,21,22,22,24,24,25,25,26,26,27,27,29,29,30,30,31,31,32,32,33,33,35,35,37,37,38,38,39,39,40,40,42,42,43,43,44,44,45,45,46,46,51,51,52,52,53,53,54,54,55,55,56,56,57,57],"right_children":[2,4,6,8,10,12,14,16,18,20,22,24,26,28,30,32,34,36,38,40,42,44,46,-1,48,50,52,54,-1,56,58,60,62,64,-1,66,-1,68,70,72,74,-1,76,78,80,82,84,-1,-1,-1,-1,86,88,90,92,94,96,98,-1,-1,-1,-1,-1,-1,-1,-1,-1,-1,-1,-1,-1,-1,-1,-1,-1,-1,-1,-1,-1,-1,-1,-1,-1,-1,-1,-1,-1,-1,-1,-1,-1,-1,-1,-1,-1,-1,-1,-1,-1],"split_conditions":[1E0,6.527E4,4.79E3,1.033397E2,8.0088E4,-2.6039774E-2,-9.386751E-1,7.953356E6,1.39464E5,7.0850655E1,-3.5124768E-3,9.1469E1,-2.3300832E-2,-9.769386E-1,1.702401E-2,1.3287E2,3.1111E2,2.1401E4,1.33826E6,1.8686E2,6.9931E4,-1.0770232E-2,9.5479285E-5,5.706879E-1,1.16215E2,-2.6526709E0,1.3016E2,1.2957909E-3,7.058666E-1,1.436578E6,7.347807E-2,4.5967624E-2,5.5283E5,8.3445E4,-3.8340524E-1,-1.8280962E-2,-6.488451E-1,4.93251E5,7.83605E-3,8.7565E4,5.260533E6,-2.1900815E-1,3.512851E7,-7.7487207E-3,2.4908033E1,3.52828E5,3.436148E7,1.9686972E-1,3.498117E-3,-3.9269008E-2,2.4697237E-1,4.52701E5,2E0,8.1712316E-4,-2.7697355E-2,8.215E4,2.67143E5,3.0346869E-2,7.4406546E-1,-3.31943E-2,-1.5463094E-1,-1.5974769E-1,3.5798103E-2,-8.428191E-2,1.4925707E-2,1.6706936E-2,-2.5019658E-1,-2.1216969E-1,-7.460502E-3,-1.9536509E-1,-3.982811E-2,-3.2698806E-2,-3.0463028E-1,-3.0671504E-1,-7.415617E-1,-5.7214867E-2,4.7402203E-2,-1.112444E-2,-4.3959132E-1,9.328446E-3,-3.4397388E-1,-2.7322936E-1,-4.540464E-3,-2.4777807E-2,1.0307103E-1,4.6517313E-2,-2.9498301E-2,2.536866E-1,7.4928336E-2,6.892682E-2,2.5409323E-1,1.8688823E-1,4.712974E-1,7.773107E-2,4.233074E-1,6.453531E-2,1.6651194E-1,4.0372866E-1,9.925597E-2],"split_indices":[85,27,69,90,27,123,121,39,34,104,149,49,202,121,129,64,7,76,60,28,27,177,211,0,0,120,64,176,0,60,145,128,13,6,0,137,0,67,137,96,25,0,32,158,122,34,4,0,0,0,0,13,118,120,134,6,94,185,0,0,0,0,0,0,0,0,0,0,0,0,0,0,0,0,0,0,0,0,0,0,0,0,0,0,0,0,0,0,0,0,0,0,0,0,0,0,0,0,0],"split_type":[0,0,0,0,0,0,0,0,0,0,0,0,0,0,0,0,0,0,0,0,0,0,0,0,0,0,0,0,0,0,0,0,0,0,0,0,0,0,0,0,0,0,0,0,0,0,0,0,0,0,0,0,0,0,0,0,0,0,0,0,0,0,0,0,0,0,0,0,0,0,0,0,0,0,0,0,0,0,0,0,0,0,0,0,0,0,0,0,0,0,0,0,0,0,0,0,0,0,0],"sum_hessian":[1.194E3,5.62E2,6.32E2,4.72E2,9E1,3.61E2,2.71E2,2.78E2,1.94E2,3.3E1,5.7E1,7E0,3.54E2,3.1E1,2.4E2,2.71E2,7E0,1.6E1,1.78E2,2.5E1,8E0,3.2E1,2.5E1,3E0,4E0,1.1E1,3.43E2,2.7E1,4E0,2.12E2,2.8E1,1.98E2,7.3E1,3E0,4E0,1.2E1,4E0,4.5E1,1.33E2,1.4E1,1.1E1,4E0,4E0,1.9E1,1.3E1,1.7E1,8E0,3E0,1E0,2E0,9E0,1.68E2,1.75E2,1.9E1,8E0,1.6E1,1.96E2,2.5E1,3E0,1.86E2,1.2E1,5.8E1,1.5E1,2E0,1E0,3E0,9E0,8E0,3.7E1,1.03E2,3E1,2E0,1.2E1,5E0,6E0,2E0,2E0,3E0,1.6E1,9E0,4E0,6E0,1.1E1,2E0,6E0,1.32E2,3.6E1,8E0,1.67E2,1.3E1,6E0,3E0,5E0,6E0,1E1,1.04E2,9.2E1,8E0,1.7E1],"tree_param":{"num_deleted":"0","num_feature":"223","num_nodes":"99","size_leaf_vector":"1"}},{"base_weights":[-1.6824015E-4,-3.0390394E-1,2.6997927E-1,-1.6860446E-1,-4.4701105E-1,1.6634035E-1,4.0960088E-1,-9.3152004E-1,-1.5472578E-1,-8.3337003E-1,-3.7905648E-1,1.3986029E-1,5.7283145E-1,5.309334E-1,2.150346E-1,-3.2153186E-1,-5.5576313E-2,-7.659331E-1,-1.4117269E-1,-5.725223E-1,-1.558661E0,-1.1092162E-1,-4.5317647E-1,1.6533105E-1,-1.6530871E-1,3.277701E-2,6.910226E-1,1.5719922E-2,6.361177E-1,1.6086988E-1,4.6274287E-1,-2.4898414E-1,-3.599662E-1,-1.2607083E-1,-6.426529E-1,-8.8688934E-1,7.968045E-2,-1.930837E-1,-5.576641E-1,-2.5705326E-1,3.040823E-1,-9.993433E-1,-3.984631E-1,7.808135E-2,2.8455392E-1,2.609033E-1,-2.9950756E-1,4.028388E-2,-7.965124E-2,4.5264736E-1,3.6608058E-1,7.370853E-1,-2.0450953E-1,5.1000726E-1,1.018102E0,-1.1045959E-1,3.1054142E-1,-1.4555839E-2,-8.9889765E-2,-5.410113E-2,-2.0198799E-3,-3.523192E-2,-2.802879E-1,-3.0493228E-2,-3.1970215E-1,-2.1172957E-1,9.979269E-2,-2.7260986E-1,-5.3252324E-2,1.4599864E-1,3.1894404E-2,-4.073995E-1,-1.0326475E-1,-1.1087709E-1,-4.4695505E-1,8.459808E-2,1.4648828E-2,4.115928E-2,1.24012314E-1,1.0463231E-1,3.234193E-2,-1.0768594E-1,5.304509E-2,-3.6018714E-2,1.7565787E-4,2.7384278E-1,8.996589E-2,2.7762797E-1,5.3246427E-2,-1.027515E-1,1.0823253E-1,-2.4050815E-2,1.8277824E-1,5.282403E-1,1.8558986E-1,-9.678629E-2,2.5802586E-2,2.0018E-1,5.4913208E-2],"categories":[],"categories_nodes":[],"categories_segments":[],"categories_sizes":[],"default_left":[0,0,0,0,0,0,0,0,0,0,0,0,0,0,0,0,0,0,0,0,0,0,0,0,0,0,0,0,0,0,0,0,0,0,0,0,0,0,0,0,0,0,0,0,0,0,0,0,0,0,0,0,0,0,0,0,0,0,0,0,0,0,0,0,0,0,0,0,0,0,0,0,0,0,0,0,0,0,0,0,0,0,0,0,0,0,0,0,0,0,0,0,0,0,0,0,0,0,0],"id":4,"left_children":[1,3,5,7,9,11,13,15,17,19,21,23,25,27,29,-1,-1,31,33,35,37,39,41,43,45,47,49,51,53,55,-1,57,-1,59,61,63,65,-1,-1,67,69,71,73,75,77,79,81,-1,83,85,-1,87,89,91,93,95,97,-1,-1,-1,-1,-1,-1,-1,-1,-1,-1,-1,-1,-1,-1,-1,-1,-1,-1,-1,-1,-1,-1,-1,-1,-1,-1,-1,-1,-1,-1,-1,-1,-1,-1,-1,-1,-1,-1,-1,-1,-1,-1],"loss_changes":[9.813591E1,1.0825619E1,9.091522E0,2.9370556E0,6.8516808E0,3.848712E0,6.2361717E0,3.2477903E-1,2.2693057E0,6.675251E0,4.600281E0,2.7012038E0,1.3816032E0,8.931747E0,7.301414E0,0E0,0E0,1.04724E0,2.054648E0,6.426632E0,1.5507545E0,3.2317157E0,5.070324E0,3.2856684E0,1.6224656E0,6.775432E-2,1.7185125E0,4.757852E0,6.080353E0,4.1765523E0,0E0,2.6074871E-2,0E0,1.7796922E0,1.1156621E0,2.8398628E0,2.420333E0,0E0,0E0,1.8602848E0,4.537779E-1,3.2919903E0,4.7432804E0,1.0897231E0,2.4869413E0,5.6569308E-2,6.5809214E-1,0E0,9.797677E-3,7.103884E-1,0E0,5.7351446E-1,1.9177214E0,6.199438E0,8.701328E0,1.5700176E0,2.8796425E0,0E0,0E0,0E0,0E0,0E0,0E0,0E0,0E0,0E0,0E0,0E0,0E0,0E0,0E0,0E0,0E0,0E0,0E0,0E0,0E0,0E0,0E0,0E0,0E0,0E0,0E0,0E0,0E0,0E0,0E0,0E0,0E0,0E0,0E0,0E0,0E0,0E0,0E0,0E0,0E0,0E0,0E0],"parents":[2147483647,0,0,1,1,2,2,3,3,4,4,5,5,6,6,7,7,8,8,9,9,10,10,11,11,12,12,13,13,14,14,17,17,18,18,19,19,20,20,21,21,22,22,23,23,24,24,25,25,26,26,27,27,28,28,29,29,31,31,33,33,34,34,35,35,36,36,39,39,40,40,41,41,42,42,43,43,44,44,45,45,46,46,48,48,49,49,51,51,52,52,53,53,54,54,55,55,56,56],"right_children":[2,4,6,8,10,12,14,16,18,20,22,24,26,28,30,-1,-1,32,34,36,38,40,42,44,46,48,50,52,54,56,-1,58,-1,60,62,64,66,-1,-1,68,70,72,74,76,78,80,82,-1,84,86,-1,88,90,92,94,96,98,-1,-1,-1,-1,-1,-1,-1,-1,-1,-1,-1,-1,-1,-1,-1,-1,-1,-1,-1,-1,-1,-1,-1,-1,-1,-1,-1,-1,-1,-1,-1,-1,-1,-1,-1,-1,-1,-1,-1,-1,-1,-1],"split_conditions":[1E0,4.494E3,1.2140588E-2,-4.857114E-2,4.926E3,6.74881E5,2.63741E1,8.1503E4,-2.4278643E-2,1.1841E5,1.5346926E1,6.4576452E7,-9.407978E-4,-1.4394903E-2,6.48133E5,-3.2153186E-1,-5.5576313E-2,1.7652E4,1.10239E5,1.2608693E-2,8.5183E4,3.592126E7,9.142E1,3.301094E6,1.7731E4,1.88011E5,-8.0820376E-1,1.514305E7,2.498644E0,-5.1179375E-3,4.6274287E-1,5.4532E1,-3.599662E-1,6.685E4,5.5468E4,1.046332E6,1.4463394E7,-1.930837E-1,-5.576641E-1,6.394E1,2.85469E5,-4.959664E-3,5.261648E-2,2.021132E7,6.6502884E1,6.004E4,9.963E3,4.028388E-2,1.0457E2,-9.8898575E1,3.6608058E-1,3.5523804E7,-3.914907E-3,-2.2781832E-2,5.768465E7,2.8036032E7,1.105124E2,-1.4555839E-2,-8.9889765E-2,-5.410113E-2,-2.0198799E-3,-3.523192E-2,-2.802879E-1,-3.0493228E-2,-3.1970215E-1,-2.1172957E-1,9.979269E-2,-2.7260986E-1,-5.3252324E-2,1.4599864E-1,3.1894404E-2,-4.073995E-1,-1.0326475E-1,-1.1087709E-1,-4.4695505E-1,8.459808E-2,1.4648828E-2,4.115928E-2,1.24012314E-1,1.0463231E-1,3.234193E-2,-1.0768594E-1,5.304509E-2,-3.6018714E-2,1.7565787E-4,2.7384278E-1,8.996589E-2,2.7762797E-1,5.3246427E-2,-1.027515E-1,1.0823253E-1,-2.4050815E-2,1.8277824E-1,5.282403E-1,1.8558986E-1,-9.678629E-2,2.5802586E-2,2.0018E-1,5.4913208E-2],"split_indices":[85,69,172,134,69,20,122,6,126,83,105,18,158,201,93,0,0,76,83,178,6,4,49,25,76,6,121,81,98,162,0,0,0,93,41,53,81,0,0,42,93,164,148,4,112,94,69,0,0,101,0,32,130,189,18,4,88,0,0,0,0,0,0,0,0,0,0,0,0,0,0,0,0,0,0,0,0,0,0,0,0,0,0,0,0,0,0,0,0,0,0,0,0,0,0,0,0,0,0],"split_type":[0,0,0,0,0,0,0,0,0,0,0,0,0,0,0,0,0,0,0,0,0,0,0,0,0,0,0,0,0,0,0,0,0,0,0,0,0,0,0,0,0,0,0,0,0,0,0,0,0,0,0,0,0,0,0,0,0,0,0,0,0,0,0,0,0,0,0,0,0,0,0,0,0,0,0,0,0,0,0,0,0,0,0,0,0,0,0,0,0,0,0,0,0,0,0,0,0,0,0],"sum_hessian":[1.194E3,5.62E2,6.32E2,2.9E2,2.72E2,3.64E2,2.68E2,4E0,2.86E2,3.9E1,2.33E2,3.43E2,2.1E1,1.64E2,1.04E2,3E0,1E0,5E0,2.81E2,3E1,9E0,5.1E1,1.82E2,3.17E2,2.6E1,4E0,1.7E1,2.8E1,1.36E2,1.01E2,3E0,3E0,2E0,2.74E2,7E0,2E1,1E1,3E0,6E0,3.8E1,1.3E1,1.5E1,1.67E2,1.84E2,1.33E2,6E0,2E1,2E0,2E0,1.3E1,4E0,6E0,2.2E1,1.04E2,3.2E1,3.6E1,6.5E1,1E0,2E0,1.88E2,8.6E1,3E0,4E0,4E0,1.6E1,2E0,8E0,3E0,3.5E1,6E0,7E0,9E0,6E0,1.64E2,3E0,2.2E1,1.62E2,6.3E1,7E1,3E0,3E0,1.8E1,2E0,1E0,1E0,2E0,1.1E1,4E0,2E0,1.8E1,4E0,1.5E1,8.9E1,1E1,2.2E1,1.7E1,1.9E1,1.6E1,4.9E1],"tree_param":{"num_deleted":"0","num_feature":"223","num_nodes":"99","size_leaf_vector":"1"}},{"base_weights":[-7.0828176E-4,-2.1920258E-1,1.9362505E-1,-1.7005639E-1,-4.7224593E-1,1.089117E-1,3.0565667E-1,-1.5726735E-1,-8.119279E-1,-7.361803E-1,-3.0938363E-1,8.2524735E-1,9.246213E-2,6.400744E-2,3.722919E-1,-1.24744296E-1,-4.3083566E-1,2.0531094E-1,-3.3956933E-1,-8.5287845E-1,-4.944263E-2,-5.065707E-1,-4.7208335E-2,4.4040203E-1,5.278747E-1,1.0939103E-1,-1.17244214E-1,-3.188568E-1,1.87463E-1,1.1160656E0,3.4160024E-1,-1.5785868E-1,6.7408405E-2,-2.3447023E-1,-9.5658064E-1,1.3022006E-1,-3.783013E-2,-1.3115201E0,-6.157044E-1,-6.306387E-2,1.8139859E-1,-1.3500217E-1,-7.7325267E-1,-2.8091824E-1,2.5814857E-2,1.5589525E-1,-5.263583E-3,9.3905695E-2,5.939828E-1,-3.3542717E-1,1.4352413E-1,2.0505443E-1,-4.6692246E-1,1.0092161E-1,6.552049E-1,4.8137456E-1,2.2640392E-1,4.4332057E-1,1.2864831E-1,-3.9604757E-2,-1.4036071E-1,5.369567E-2,-5.275588E-2,-2.8431824E-1,-2.8022196E-2,-3.1812888E-1,-7.7082284E-2,-4.6777567E-1,-1.8361261E-1,8.435338E-3,-2.1737109E-1,1.3959781E-2,6.7669585E-2,-1.222481E-1,1.024952E-1,-2.0413145E-2,-3.2804987E-1,-7.263529E-2,4.9842883E-2,-2.4562856E-2,3.432085E-2,4.4355318E-2,2.0611031E-1,-1.529642E-1,-4.874144E-2,1.3807689E-1,-3.358965E-2,9.517694E-3,7.567664E-2,-4.4321526E-2,-1.6707054E-1,1.337959E-1,8.073178E-3,2.765785E-1,6.740408E-2,3.598094E-4,9.0321705E-2,1.6865334E-1,3.3784937E-2,8.277435E-3,1.9493951E-1],"categories":[],"categories_nodes":[],"categories_segments":[],"categories_sizes":[],"default_left":[0,0,0,0,0,0,0,0,0,0,0,0,0,0,0,0,0,0,0,0,0,0,0,0,0,0,0,0,0,0,0,0,0,0,0,0,0,0,0,0,0,0,0,0,0,0,0,0,0,0,0,0,0,0,0,0,0,0,0,0,0,0,0,0,0,0,0,0,0,0,0,0,0,0,0,0,0,0,0,0,0,0,0,0,0,0,0,0,0,0,0,0,0,0,0,0,0,0,0,0,0],"id":5,"left_children":[1,3,5,7,9,11,13,15,17,19,21,23,25,27,29,31,33,35,-1,37,39,41,43,45,-1,47,49,51,53,55,57,59,61,63,65,-1,-1,67,69,-1,71,73,75,-1,77,-1,-1,79,81,83,85,87,89,91,93,-1,95,97,99,-1,-1,-1,-1,-1,-1,-1,-1,-1,-1,-1,-1,-1,-1,-1,-1,-1,-1,-1,-1,-1,-1,-1,-1,-1,-1,-1,-1,-1,-1,-1,-1,-1,-1,-1,-1,-1,-1,-1,-1,-1,-1],"loss_changes":[5.078301E1,6.9212284E0,5.974245E0,3.755127E0,3.6838684E0,4.1892915E0,4.3560085E0,4.0834894E0,3.1617622E0,2.6826248E0,2.9745455E0,2.1016717E0,1.2731104E0,2.8957772E0,4.481043E0,2.6640196E0,4.8343782E0,2.821729E-1,0E0,2.3470497E0,2.6080674E-1,3.1656008E0,1.7123837E0,2.6315975E-1,0E0,2.41306E0,1.5843124E0,1.2593435E0,1.7959113E0,3.1136303E0,4.405245E0,2.7903452E0,1.7143044E0,3.634199E0,6.7207146E-1,0E0,0E0,6.0522175E-1,1.4922686E0,0E0,7.373616E-3,2.0874782E0,4.216572E0,0E0,9.801875E-1,0E0,0E0,1.1623349E0,3.1355405E-1,3.6974967E-1,1.1035159E0,2.4722219E-2,2.6236367E-1,1.0095417E0,5.966778E-1,0E0,6.690158E-2,5.400305E0,3.5633445E0,0E0,0E0,0E0,0E0,0E0,0E0,0E0,0E0,0E0,0E0,0E0,0E0,0E0,0E0,0E0,0E0,0E0,0E0,0E0,0E0,0E0,0E0,0E0,0E0,0E0,0E0,0E0,0E0,0E0,0E0,0E0,0E0,0E0,0E0,0E0,0E0,0E0,0E0,0E0,0E0,0E0,0E0],"parents":[2147483647,0,0,1,1,2,2,3,3,4,4,5,5,6,6,7,7,8,8,9,9,10,10,11,11,12,12,13,13,14,14,15,15,16,16,17,17,19,19,20,20,21,21,22,22,23,23,25,25,26,26,27,27,28,28,29,29,30,30,31,31,32,32,33,33,34,34,37,37,38,38,40,40,41,41,42,42,44,44,47,47,48,48,49,49,50,50,51,51,52,52,53,53,54,54,56,56,57,57,58,58],"right_children":[2,4,6,8,10,12,14,16,18,20,22,24,26,28,30,32,34,36,-1,38,40,42,44,46,-1,48,50,52,54,56,58,60,62,64,66,-1,-1,68,70,-1,72,74,76,-1,78,-1,-1,80,82,84,86,88,90,92,94,-1,96,98,100,-1,-1,-1,-1,-1,-1,-1,-1,-1,-1,-1,-1,-1,-1,-1,-1,-1,-1,-1,-1,-1,-1,-1,-1,-1,-1,-1,-1,-1,-1,-1,-1,-1,-1,-1,-1,-1,-1,-1,-1,-1,-1],"split_conditions":[1E0,6.527E4,4.79E3,5.7351205E-2,8.0088E4,-2.6039774E-2,-9.661228E-3,2.7112653E0,1.861903E1,9.095305E1,-3.5124768E-3,1.19795E2,1.3927818E2,1.1485E2,-6.5473646E-2,9.6130936E7,2.9228771E-2,1.172865E2,-3.3956933E-1,3.005E3,1.2093E2,2.1559397E-2,5.44805E1,1.194575E2,5.278747E-1,1.3281631E2,1.436044E2,2.6482344E-2,5.19031E6,2.67327E5,2.110019E6,8.907136E7,4.2797172E7,-4.7213092E-4,-2.8177138E-2,1.3022006E-1,-3.783013E-2,2.437778E-3,3.734E3,-6.306387E-2,1.2916E2,1.8875016E-2,2.036055E7,-2.8091824E-1,-2.0321258E-3,1.5589525E-1,-5.263583E-3,-5.0252086E-1,9.53666E5,1.067129E6,1.070379E6,8.8536E1,1.7050132E7,-1.499905E-2,2.67949E5,4.8137456E-1,9.0255E1,4.2038456E-2,3.65918E5,-3.9604757E-2,-1.4036071E-1,5.369567E-2,-5.275588E-2,-2.8431824E-1,-2.8022196E-2,-3.1812888E-1,-7.7082284E-2,-4.6777567E-1,-1.8361261E-1,8.435338E-3,-2.1737109E-1,1.3959781E-2,6.7669585E-2,-1.222481E-1,1.024952E-1,-2.0413145E-2,-3.2804987E-1,-7.263529E-2,4.9842883E-2,-2.4562856E-2,3.432085E-2,4.4355318E-2,2.0611031E-1,-1.529642E-1,-4.874144E-2,1.3807689E-1,-3.358965E-2,9.517694E-3,7.567664E-2,-4.4321526E-2,-1.6707054E-1,1.337959E-1,8.073178E-3,2.765785E-1,6.740408E-2,3.598094E-4,9.0321705E-2,1.6865334E-1,3.3784937E-2,8.277435E-3,1.9493951E-1],"split_indices":[85,27,69,157,27,123,162,98,122,104,149,0,97,64,150,11,208,0,0,55,0,131,0,0,0,112,90,192,39,92,67,11,4,219,139,0,0,133,55,0,0,208,81,0,211,0,0,120,60,53,60,0,81,217,34,0,0,145,93,0,0,0,0,0,0,0,0,0,0,0,0,0,0,0,0,0,0,0,0,0,0,0,0,0,0,0,0,0,0,0,0,0,0,0,0,0,0,0,0,0,0],"split_type":[0,0,0,0,0,0,0,0,0,0,0,0,0,0,0,0,0,0,0,0,0,0,0,0,0,0,0,0,0,0,0,0,0,0,0,0,0,0,0,0,0,0,0,0,0,0,0,0,0,0,0,0,0,0,0,0,0,0,0,0,0,0,0,0,0,0,0,0,0,0,0,0,0,0,0,0,0,0,0,0,0,0,0,0,0,0,0,0,0,0,0,0,0,0,0,0,0,0,0,0,0],"sum_hessian":[1.194E3,5.62E2,6.32E2,4.72E2,9E1,3.61E2,2.71E2,4.64E2,8E0,3.3E1,5.7E1,7E0,3.54E2,5.9E1,2.12E2,4.16E2,4.8E1,2E0,6E0,2.8E1,5E0,3.2E1,2.5E1,6E0,1E0,3.28E2,2.6E1,1.4E1,4.5E1,7E0,2.05E2,3.55E2,6.1E1,3.6E1,1.2E1,1E0,1E0,8E0,2E1,3E0,2E0,1.4E1,1.8E1,1E0,2.4E1,5E0,1E0,3.19E2,9E0,1.4E1,1.2E1,3E0,1.1E1,3.9E1,6E0,4E0,3E0,1.38E2,6.7E1,3.29E2,2.6E1,4.2E1,1.9E1,5E0,3.1E1,1E1,2E0,5E0,3E0,3E0,1.7E1,1E0,1E0,9E0,5E0,6E0,1.2E1,8E0,1.6E1,3.3E1,2.86E2,2E0,7E0,6E0,8E0,5E0,7E0,1E0,2E0,3E0,8E0,6E0,3.3E1,3E0,3E0,1E0,2E0,1.01E2,3.7E1,5.7E1,1E1],"tree_param":{"num_deleted":"0","num_feature":"223","num_nodes":"101","size_leaf_vector":"1"}},{"base_weights":[-8.8789663E-4,-1.5814418E-1,1.3897967E-1,-3.9689224E-2,-2.2279486E-1,4.7209167E-1,1.16911866E-1,-7.626364E-2,2.4509056E-1,-6.47642E-1,-1.9489564E-1,3.1939957E-1,1.4465181E0,3.191496E-1,1.1031627E-1,-3.242093E-2,-2.7528286E-1,1.5299821E-1,1.4415576E-1,-2.4725349E-1,-1.1985084E0,-2.3258227E-1,5.3485047E-2,4.453333E-1,-9.3890466E-2,7.4389316E-2,5.052496E-1,8.647525E-2,3.0228153E-1,-6.59375E-2,1.8370616E-1,-6.513624E-1,-9.980118E-2,2.2451775E-1,-2.7460495E-2,-5.7438374E-1,-5.8963012E-2,-1.2772986E-1,-1.5139184E0,-1.6817652E-1,-4.3240896E-1,2.2179048E-1,-1.10036194E-1,9.014899E-1,3.0068454E-1,-2.547534E-1,5.1262975E-2,5.759777E-1,7.4946225E-2,1.7229393E-1,1.2069066E0,-8.190494E-3,-7.8448884E-2,1.007571E-1,-6.818657E-2,-2.7881953E-1,-9.3331605E-2,7.063692E-4,-1.4040984E-1,2.9151067E-2,9.59374E-2,-2.6323901E-2,1.8622238E-2,-1.9303477E-1,-4.471831E-2,-9.9877626E-2,3.1803064E-2,-4.9214292E-1,-1.3216937E-1,-7.8614116E-2,-1.45428525E-2,-2.2423314E-1,-6.803348E-2,-2.414628E-2,8.689925E-2,-1.5371329E-1,6.843113E-3,3.4845388E-1,7.6288834E-2,6.5124366E-3,1.21183194E-1,-1.0877628E-2,-1.0648082E-1,3.1370513E-2,3.089877E-1,2.7154917E-2,-6.0062464E-2,2.9844275E-2,3.3911985E-1,4.586151E-1,4.8295084E-2],"categories":[],"categories_nodes":[],"categories_segments":[],"categories_sizes":[],"default_left":[0,0,0,0,0,0,0,0,0,0,0,0,0,0,0,0,0,0,0,0,0,0,0,0,0,0,0,0,0,0,0,0,0,0,0,0,0,0,0,0,0,0,0,0,0,0,0,0,0,0,0,0,0,0,0,0,0,0,0,0,0,0,0,0,0,0,0,0,0,0,0,0,0,0,0,0,0,0,0,0,0,0,0,0,0,0,0,0,0,0,0],"id":6,"left_children":[1,3,5,7,9,11,13,15,17,19,21,23,25,-1,27,29,31,33,-1,35,37,39,41,43,45,-1,-1,47,49,51,53,55,57,59,61,63,65,-1,67,69,71,73,75,77,79,81,-1,83,85,87,89,-1,-1,-1,-1,-1,-1,-1,-1,-1,-1,-1,-1,-1,-1,-1,-1,-1,-1,-1,-1,-1,-1,-1,-1,-1,-1,-1,-1,-1,-1,-1,-1,-1,-1,-1,-1,-1,-1,-1,-1],"loss_changes":[2.6306068E1,4.30272E0,4.5980234E0,2.1018224E0,4.1882343E0,5.340684E0,3.5987167E0,1.5442215E0,4.251486E-1,4.555997E0,3.223137E0,1.8634632E0,1.0065517E0,0E0,2.6832352E0,1.0769573E0,2.0468357E0,2.384792E-1,0E0,8.284697E-1,1.5489998E0,3.762535E0,1.2903945E0,1.5104628E0,4.268523E-1,0E0,0E0,2.9365926E0,7.435411E0,9.599751E-1,1.3270003E0,6.5689564E-1,8.6629254E-1,1.266529E-1,3.7832797E-2,5.096233E-2,4.8725814E-1,0E0,9.231281E-2,2.5379453E0,4.4947147E0,4.9519908E-1,1.2944797E0,7.143431E-1,6.249839E-1,1.18466675E-1,0E0,2.4604309E0,2.2330523E0,3.9337747E0,2.4466133E0,0E0,0E0,0E0,0E0,0E0,0E0,0E0,0E0,0E0,0E0,0E0,0E0,0E0,0E0,0E0,0E0,0E0,0E0,0E0,0E0,0E0,0E0,0E0,0E0,0E0,0E0,0E0,0E0,0E0,0E0,0E0,0E0,0E0,0E0,0E0,0E0,0E0,0E0,0E0,0E0],"parents":[2147483647,0,0,1,1,2,2,3,3,4,4,5,5,6,6,7,7,8,8,9,9,10,10,11,11,12,12,14,14,15,15,16,16,17,17,19,19,20,20,21,21,22,22,23,23,24,24,27,27,28,28,29,29,30,30,31,31,32,32,33,33,34,34,35,35,36,36,38,38,39,39,40,40,41,41,42,42,43,43,44,44,45,45,47,47,48,48,49,49,50,50],"right_children":[2,4,6,8,10,12,14,16,18,20,22,24,26,-1,28,30,32,34,-1,36,38,40,42,44,46,-1,-1,48,50,52,54,56,58,60,62,64,66,-1,68,70,72,74,76,78,80,82,-1,84,86,88,90,-1,-1,-1,-1,-1,-1,-1,-1,-1,-1,-1,-1,-1,-1,-1,-1,-1,-1,-1,-1,-1,-1,-1,-1,-1,-1,-1,-1,-1,-1,-1,-1,-1,-1,-1,-1,-1,-1,-1,-1],"split_conditions":[1E0,3.8691E4,-9.386751E-1,1.69298E5,4.1719E4,7.362765E-3,1.1283E2,7.628774E1,2.594289E6,3.024E3,1.3162E2,1.7880388E1,1.31735E2,3.191496E-1,2.4597969E-2,7.471E1,7.92575E1,6.430112E6,1.4415576E-1,1.38073E5,2.769342E6,2.9640888E7,9.92834E5,1.6381137E0,4.0475E2,7.4389316E-2,5.052496E-1,-6.635647E-3,-3.6978677E-2,9.190172E-1,3.0817E6,6.6307E4,1.73772E5,7.67994E5,4E0,2.1178656E7,1.573314E7,-1.2772986E-1,8.935612E7,-6.330759E-4,3.4448916E7,2.260874E7,6.14E4,2.1340888E7,1.0379332E8,9.056E1,5.1262975E-2,1.8517025E-2,9.299996E1,2.4791744E7,4.163757E6,-8.190494E-3,-7.8448884E-2,1.007571E-1,-6.818657E-2,-2.7881953E-1,-9.3331605E-2,7.063692E-4,-1.4040984E-1,2.9151067E-2,9.59374E-2,-2.6323901E-2,1.8622238E-2,-1.9303477E-1,-4.471831E-2,-9.9877626E-2,3.1803064E-2,-4.9214292E-1,-1.3216937E-1,-7.8614116E-2,-1.45428525E-2,-2.2423314E-1,-6.803348E-2,-2.414628E-2,8.689925E-2,-1.5371329E-1,6.843113E-3,3.4845388E-1,7.6288834E-2,6.5124366E-3,1.21183194E-1,-1.0877628E-2,-1.0648082E-1,3.1370513E-2,3.089877E-1,2.7154917E-2,-6.0062464E-2,2.9844275E-2,3.3911985E-1,4.586151E-1,4.8295084E-2],"split_indices":[85,41,121,34,41,217,64,97,60,55,64,122,1,0,216,1,84,74,0,34,25,46,67,98,9,0,0,128,204,120,25,93,96,67,117,4,46,0,11,217,32,4,93,81,11,1,0,183,113,74,25,0,0,0,0,0,0,0,0,0,0,0,0,0,0,0,0,0,0,0,0,0,0,0,0,0,0,0,0,0,0,0,0,0,0,0,0,0,0,0,0],"split_type":[0,0,0,0,0,0,0,0,0,0,0,0,0,0,0,0,0,0,0,0,0,0,0,0,0,0,0,0,0,0,0,0,0,0,0,0,0,0,0,0,0,0,0,0,0,0,0,0,0,0,0,0,0,0,0,0,0,0,0,0,0,0,0,0,0,0,0,0,0,0,0,0,0,0,0,0,0,0,0,0,0,0,0,0,0,0,0,0,0,0,0],"sum_hessian":[1.194E3,5.62E2,6.32E2,1.99E2,3.63E2,3.8E1,5.94E2,1.77E2,2.2E1,2.1E1,3.42E2,3.4E1,4E0,3E0,5.91E2,1.46E2,3.1E1,1.7E1,5E0,1.3E1,8E0,2.97E2,4.5E1,2.6E1,8E0,1E0,3E0,5.27E2,6.4E1,1.27E2,1.9E1,9E0,2.2E1,1.2E1,5E0,4E0,9E0,3E0,5E0,2.26E2,7.1E1,2.2E1,2.3E1,5E0,2.1E1,5E0,3E0,1.1E1,5.16E2,5.7E1,7E0,1.07E2,2E1,1.4E1,5E0,4E0,5E0,1.8E1,4E0,6E0,6E0,3E0,2E0,3E0,1E0,3E0,6E0,4E0,1E0,1.26E2,1E2,2.7E1,4.4E1,4E0,1.8E1,5E0,1.8E1,3E0,2E0,6E0,1.5E1,2E0,3E0,6E0,5E0,4.89E2,2.7E1,5.4E1,3E0,5E0,2E0],"tree_param":{"num_deleted":"0","num_feature":"223","num_nodes":"91","size_leaf_vector":"1"}},{"base_weights":[-5.076015E-6,-1.1395455E-1,1.01343356E-1,-1.0471962E-1,-7.4153805E-1,9.629919E-1,9.433289E-2,-7.117932E-2,-2.6880938E-1,-3.3246925E-1,-9.778763E-2,4.3584272E-1,4.5653254E-2,6.0584128E-2,2.185497E-1,-6.1668046E-2,-4.9587345E-1,-4.2244726E-1,-5.083705E-2,6.324267E-2,-8.127683E-2,6.438135E-1,4.9703702E-2,1.1170099E0,1.8944748E-1,-5.634413E-2,-2.5297454E-1,-8.388278E-1,2.2826503E-1,-9.1495687E-1,-2.7852538E-1,9.575879E-2,-4.008739E-1,4.3524435E-1,-1.4894804E-3,6.682916E-2,-2.2365542E-1,3.9493343E-1,7.780581E-2,3.216405E-1,5.4384053E-2,-2.7143816E-2,2.699437E-2,-3.0451536E-1,3.277688E-2,8.4672734E-2,9.949914E-3,-3.875914E-1,-9.6784174E-2,-1.808612E-1,-3.212058E-2,9.609655E-2,-2.447963E-2,1.1818395E-2,-1.8777977E-1,9.152544E-2,-6.931435E-2,8.705141E-2,1.1665372E-2,6.994522E-2,-9.85614E-2,1.3034111E-1,-1.7432166E-2,1.7820725E-1,-5.9127747E-3],"categories":[],"categories_nodes":[],"categories_segments":[],"categories_sizes":[],"default_left":[0,0,0,0,0,0,0,0,0,0,0,0,0,0,0,0,0,0,0,0,0,0,0,0,0,0,0,0,0,0,0,0,0,0,0,0,0,0,0,0,0,0,0,0,0,0,0,0,0,0,0,0,0,0,0,0,0,0,0,0,0,0,0,0,0],"id":7,"left_children":[1,3,5,7,9,11,13,15,17,-1,19,-1,-1,21,23,25,27,29,31,-1,-1,33,35,37,39,41,-1,43,45,47,49,51,53,-1,55,57,59,-1,-1,61,63,-1,-1,-1,-1,-1,-1,-1,-1,-1,-1,-1,-1,-1,-1,-1,-1,-1,-1,-1,-1,-1,-1,-1,-1],"loss_changes":[1.3812127E1,3.1853213E0,3.7328343E0,3.0408788E0,1.780097E0,1.764669E0,2.6236305E0,1.8396552E0,3.1264725E0,0E0,2.708285E-1,0E0,0E0,3.115509E0,3.292108E0,1.8416122E0,2.6749392E0,3.6437206E0,2.0909452E0,0E0,0E0,4.689002E0,2.29947E0,3.4276342E-1,2.3214402E0,2.2658145E0,0E0,1.2804236E0,3.276275E-2,2.263054E0,2.3823445E0,1.1811483E0,1.2136933E0,0E0,4.9274927E-1,2.8596716E0,1.466018E0,0E0,0E0,2.853139E0,2.6506329E0,0E0,0E0,0E0,0E0,0E0,0E0,0E0,0E0,0E0,0E0,0E0,0E0,0E0,0E0,0E0,0E0,0E0,0E0,0E0,0E0,0E0,0E0,0E0,0E0],"parents":[2147483647,0,0,1,1,2,2,3,3,4,4,5,5,6,6,7,7,8,8,10,10,13,13,14,14,15,15,16,16,17,17,18,18,21,21,22,22,23,23,24,24,25,25,27,27,28,28,29,29,30,30,31,31,32,32,34,34,35,35,36,36,39,39,40,40],"right_children":[2,4,6,8,10,12,14,16,18,-1,20,-1,-1,22,24,26,28,30,32,-1,-1,34,36,38,40,42,-1,44,46,48,50,52,54,-1,56,58,60,-1,-1,62,64,-1,-1,-1,-1,-1,-1,-1,-1,-1,-1,-1,-1,-1,-1,-1,-1,-1,-1,-1,-1,-1,-1,-1,-1],"split_conditions":[1E0,6.48133E5,-9.949831E1,1.3422874E2,1.1894E4,1.45681E5,2.3623502E-3,1.1289282E8,1.41216E2,-3.3246925E-1,8.74E1,4.3584272E-1,4.5653254E-2,-2.4217872E-2,3.0541627E-3,2.9878976E-2,1.3091E2,7.119764E7,1.512917E6,6.324267E-2,-8.127683E-2,5.851819E6,3.04527E5,2.01068E7,3.6177778E-4,2.0649064E7,-2.5297454E-1,1.240418E8,5.8775E1,8.141887E-3,3.592219E6,1.45849E2,7.581565E6,4.3524435E-1,7.9106E4,-4.171106E-2,-1.4382615E-2,3.9493343E-1,7.780581E-2,4.477741E6,3.576031E1,-2.7143816E-2,2.699437E-2,-3.0451536E-1,3.277688E-2,8.4672734E-2,9.949914E-3,-3.875914E-1,-9.6784174E-2,-1.808612E-1,-3.212058E-2,9.609655E-2,-2.447963E-2,1.1818395E-2,-1.8777977E-1,9.152544E-2,-6.931435E-2,8.705141E-2,1.1665372E-2,6.994522E-2,-9.85614E-2,1.3034111E-1,-1.7432166E-2,1.7820725E-1,-5.9127747E-3],"split_indices":[85,94,101,110,62,6,210,18,84,0,0,0,0,123,210,146,63,11,60,0,0,74,93,4,199,81,0,18,0,123,39,3,74,0,6,182,164,0,0,39,115,0,0,0,0,0,0,0,0,0,0,0,0,0,0,0,0,0,0,0,0,0,0,0,0],"split_type":[0,0,0,0,0,0,0,0,0,0,0,0,0,0,0,0,0,0,0,0,0,0,0,0,0,0,0,0,0,0,0,0,0,0,0,0,0,0,0,0,0,0,0,0,0,0,0,0,0,0,0,0,0,0,0,0,0,0,0,0,0,0,0,0,0],"sum_hessian":[1.194E3,5.62E2,6.32E2,5.55E2,7E0,4E0,6.28E2,4.62E2,9.3E1,4E0,3E0,2E0,2E0,4.95E2,1.33E2,4.53E2,9E0,5.4E1,3.9E1,1E0,2E0,8E0,4.87E2,3E0,1.3E2,4.51E2,2E0,6E0,3E0,1.1E1,4.3E1,2.8E1,1.1E1,3E0,5E0,4.59E2,2.8E1,2E0,1E0,6.5E1,6.5E1,3.66E2,8.5E1,5E0,1E0,2E0,1E0,6E0,5E0,1.4E1,2.9E1,1.2E1,1.6E1,4E0,7E0,2E0,3E0,5E1,4.09E2,5E0,2.3E1,5E1,1.5E1,7E0,5.8E1],"tree_param":{"num_deleted":"0","num_feature":"223","num_nodes":"65","size_leaf_vector":"1"}},{"base_weights":[1.5089277E-4,-8.257891E-2,7.3731825E-2,-4.1000888E-1,-6.97638E-2,1.4832662E-2,1.5286355E-1,-5.5006593E-1,3.181139E-2,-4.409566E-2,-2.0755099E-1,2.1653919E-1,-1.4300042E-2,-1.1181641E-1,1.9803382E-1,-6.4046323E-1,5.5143494E-2,1.7173356E-1,-4.9606588E-2,-1.8538901E-1,-3.769251E-2,-3.4696162E-1,-6.33136E-2,3.7440044E-1,-7.4777074E-2,5.941063E-1,-2.3911888E-2,-2.21428E-1,1.6239631E-1,1.5658325E-1,6.050833E-1,-8.121932E-2,-2.1500622E-1,2.547715E-2,-6.6257716E-4,1.1534603E-2,6.1003685E-2,1.1902016E-1,-6.411647E-2,-4.50888E-1,-3.64047E-3,2.7718106E-1,-1.7489323E-1,2.7435616E-1,2.012654E-1,-1.8811218E-1,2.3484962E-1,4.6682764E-2,2.503704E-1,1.1780988E-2,-2.1791366E-1,-3.18675E-1,2.044646E-1,2.5325203E-1,-5.8376443E-2,-3.3764166E-1,1.8285136E-1,9.527601E-1,-7.8986466E-2,-8.007093E-2,6.8416595E-2,-1.100519E-1,-1.1086256E-2,-7.889261E-2,-2.5703686E-1,-9.62927E-2,4.6644654E-2,-1.2698794E-2,1.05866E-1,-7.280658E-2,1.131886E-1,-7.979692E-2,8.420469E-2,-4.878859E-3,-9.992651E-2,9.156669E-3,8.3490275E-2,4.7048152E-4,1.6398412E-1,5.0768066E-2,-8.5939884E-2,-6.230855E-2,-2.096578E-1,-2.3262128E-2,8.291211E-2,1.2856224E-1,3.507245E-2,3.9283477E-2,-1.3689643E-1,1.12746224E-1,3.0008195E-2,3.5303232E-1,9.4253846E-2,-1.10031866E-1,9.014794E-2],"categories":[],"categories_nodes":[],"categories_segments":[],"categories_sizes":[],"default_left":[0,0,0,0,0,0,0,0,0,0,0,0,0,0,0,0,0,0,0,0,0,0,0,0,0,0,0,0,0,0,0,0,0,0,0,0,0,0,0,0,0,0,0,0,0,0,0,0,0,0,0,0,0,0,0,0,0,0,0,0,0,0,0,0,0,0,0,0,0,0,0,0,0,0,0,0,0,0,0,0,0,0,0,0,0,0,0,0,0,0,0,0,0,0,0],"id":8,"left_children":[1,3,5,7,9,11,13,15,17,19,21,23,25,27,29,31,33,35,-1,-1,37,39,41,43,45,47,49,51,53,55,57,-1,-1,-1,-1,-1,-1,59,61,63,65,67,69,-1,71,73,75,-1,-1,77,79,81,83,85,-1,87,89,91,93,-1,-1,-1,-1,-1,-1,-1,-1,-1,-1,-1,-1,-1,-1,-1,-1,-1,-1,-1,-1,-1,-1,-1,-1,-1,-1,-1,-1,-1,-1,-1,-1,-1,-1,-1,-1],"loss_changes":[7.280456E0,2.3337743E0,2.948014E0,1.3169787E0,1.911298E0,2.1420538E0,3.2501736E0,9.10666E-1,1.9392498E-1,1.6633314E0,1.687232E0,2.1434238E0,1.8796893E0,1.2382348E0,3.8027868E0,2.0052624E-1,5.3114556E-3,9.035274E-3,0E0,0E0,1.891772E0,1.5326047E0,1.6821445E0,2.6213498E0,6.407349E-1,3.973422E-1,2.1837788E0,1.2662442E0,4.3848875E-1,2.8010154E0,5.069794E0,0E0,0E0,0E0,0E0,0E0,0E0,2.8380957E0,3.193278E0,2.291728E0,6.0535324E-1,2.810133E-1,1.3269476E0,0E0,9.652495E-1,3.184657E-1,3.5897106E-2,0E0,0E0,1.457522E0,1.3489137E0,8.6747766E-1,1.4310247E-1,1.8889552E-1,0E0,6.714823E-1,3.174891E0,1.6329975E0,9.8388517E-1,0E0,0E0,0E0,0E0,0E0,0E0,0E0,0E0,0E0,0E0,0E0,0E0,0E0,0E0,0E0,0E0,0E0,0E0,0E0,0E0,0E0,0E0,0E0,0E0,0E0,0E0,0E0,0E0,0E0,0E0,0E0,0E0,0E0,0E0,0E0,0E0],"parents":[2147483647,0,0,1,1,2,2,3,3,4,4,5,5,6,6,7,7,8,8,9,9,10,10,11,11,12,12,13,13,14,14,15,15,16,16,17,17,20,20,21,21,22,22,23,23,24,24,25,25,26,26,27,27,28,28,29,29,30,30,37,37,38,38,39,39,40,40,41,41,42,42,44,44,45,45,46,46,49,49,50,50,51,51,52,52,53,53,55,55,56,56,57,57,58,58],"right_children":[2,4,6,8,10,12,14,16,18,20,22,24,26,28,30,32,34,36,-1,-1,38,40,42,44,46,48,50,52,54,56,58,-1,-1,-1,-1,-1,-1,60,62,64,66,68,70,-1,72,74,76,-1,-1,78,80,82,84,86,-1,88,90,92,94,-1,-1,-1,-1,-1,-1,-1,-1,-1,-1,-1,-1,-1,-1,-1,-1,-1,-1,-1,-1,-1,-1,-1,-1,-1,-1,-1,-1,-1,-1,-1,-1,-1,-1,-1,-1],"split_conditions":[1E0,-2.9579705E-2,1.85781E5,-1.6602373E-2,6.527E4,-1.5467259E-2,2E0,1.1742E2,1.42684E5,-3.253792E-2,3.4669824E7,2.7914379E-2,-2.2831472E-2,9.153E1,2.3802E4,3.5568E4,1.365E2,2.048058E7,-4.9606588E-2,-1.8538901E-1,-2.4394145E-2,3.8827027E-3,9.14193E1,2.5441596E-2,-1.215048E-2,9.70363E1,1.9710204E-2,2.3737386E-2,1.6552E2,-2.9758818E-2,3.08862E5,-8.121932E-2,-2.1500622E-1,2.547715E-2,-6.6257716E-4,1.1534603E-2,6.1003685E-2,-8.858934E-3,-1.8774265E-2,6.982E4,2.1514542E-2,1.8151484E1,2.1578856E-3,2.7435616E-1,-1.0812204E-2,-2.9796127E-2,5.69475E1,4.6682764E-2,2.503704E-1,1.9672463E-2,1.379851E1,5.7173204E-3,1.024875E2,5.5468E4,-5.8376443E-2,1.09965E2,-3.0681605E0,-8.039111E-3,3.580042E6,-8.007093E-2,6.8416595E-2,-1.100519E-1,-1.1086256E-2,-7.889261E-2,-2.5703686E-1,-9.62927E-2,4.6644654E-2,-1.2698794E-2,1.05866E-1,-7.280658E-2,1.131886E-1,-7.979692E-2,8.420469E-2,-4.878859E-3,-9.992651E-2,9.156669E-3,8.3490275E-2,4.7048152E-4,1.6398412E-1,5.0768066E-2,-8.5939884E-2,-6.230855E-2,-2.096578E-1,-2.3262128E-2,8.291211E-2,1.2856224E-1,3.507245E-2,3.9283477E-2,-1.3689643E-1,1.12746224E-1,3.0008195E-2,3.5303232E-1,9.4253846E-2,-1.10031866E-1,9.014794E-2],"split_indices":[85,186,34,214,27,126,117,70,6,181,46,208,146,51,62,48,0,4,0,0,214,165,54,141,189,0,148,133,77,156,95,0,0,0,0,0,0,130,214,48,218,122,199,0,219,151,0,0,0,219,105,216,0,41,0,56,103,147,25,0,0,0,0,0,0,0,0,0,0,0,0,0,0,0,0,0,0,0,0,0,0,0,0,0,0,0,0,0,0,0,0,0,0,0,0],"split_type":[0,0,0,0,0,0,0,0,0,0,0,0,0,0,0,0,0,0,0,0,0,0,0,0,0,0,0,0,0,0,0,0,0,0,0,0,0,0,0,0,0,0,0,0,0,0,0,0,0,0,0,0,0,0,0,0,0,0,0,0,0,0,0,0,0,0,0,0,0,0,0,0,0,0,0,0,0,0,0,0,0,0,0,0,0,0,0,0,0,0,0,0,0,0,0],"sum_hessian":[1.194E3,5.62E2,6.32E2,2E1,5.42E2,3.63E2,2.69E2,1.5E1,5E0,4.58E2,8.4E1,4.5E1,3.18E2,3.9E1,2.3E2,1.3E1,2E0,3E0,2E0,4E0,4.54E2,4.2E1,4.2E1,2.9E1,1.6E1,4E0,3.14E2,2.8E1,1.1E1,2.1E2,2E1,3E0,1E1,1E0,1E0,1E0,2E0,6.5E1,3.89E2,3.2E1,1E1,1E1,3.2E1,6E0,2.3E1,1.2E1,4E0,2E0,2E0,2.66E2,4.8E1,2.3E1,5E0,9E0,2E0,1E1,2E2,1.3E1,7E0,1.4E1,5.1E1,3.1E1,3.58E2,2.3E1,9E0,3E0,7E0,2E0,8E0,2.9E1,3E0,3E0,2E1,6E0,6E0,1E0,3E0,2.62E2,4E0,7E0,4.1E1,1.9E1,4E0,1E0,4E0,3E0,6E0,2E0,8E0,5.9E1,1.41E2,9E0,4E0,4E0,3E0],"tree_param":{"num_deleted":"0","num_feature":"223","num_nodes":"95","size_leaf_vector":"1"}},{"base_weights":[3.0624587E-4,-5.9259392E-2,5.3284362E-2,-2.4262017E-1,-4.208773E-2,6.8590486E-1,4.817087E-2,-6.041394E-1,-1.0533211E-1,-3.835645E-2,-2.9455462E-1,3.2612494E-1,5.6091707E-2,7.087291E-2,-4.21228E-2,-1.311608E-1,-3.402263E-1,-5.6670785E-1,5.833304E-3,-3.3205733E-2,-2.064177E-1,3.0306602E-2,-5.065334E-3,5.8983266E-2,5.524421E-1,-6.7649506E-2,4.839406E-1,2.8765375E-2,-8.94835E-2,-4.7581322E-2,-2.0946851E-1,-1.3061519E-1,2.917918E-1,-2.9751927E-2,-2.6971525E-1,-1.7420556E-1,7.236763E-2,1.4539002E-1,6.719717E-1,-3.504412E-2,-3.383374E-1,-6.745851E-2,6.7067343E-1,-1.4010278E-2,2.8392965E-2,2.4003135E-2,-7.991569E-2,-2.617432E-2,1.4001039E-1,-9.265727E-2,-6.206561E-3,-9.2270315E-2,1.0314698E-1,4.1952287E-3,4.23159E-2,1.6584778E-2,6.235685E-2,2.2281797E-1,1.588989E-2,-1.8196251E-2,1.05136305E-1,-1.3835452E-2,-1.16182685E-1,2.2294389E-1,5.7117302E-2],"categories":[],"categories_nodes":[],"categories_segments":[],"categories_sizes":[],"default_left":[0,0,0,0,0,0,0,0,0,0,0,0,0,0,0,0,0,0,0,0,0,0,0,0,0,0,0,0,0,0,0,0,0,0,0,0,0,0,0,0,0,0,0,0,0,0,0,0,0,0,0,0,0,0,0,0,0,0,0,0,0,0,0,0,0],"id":9,"left_children":[1,3,5,7,9,11,13,15,17,19,-1,-1,21,23,25,27,-1,29,31,33,-1,-1,-1,35,37,39,41,43,-1,-1,-1,45,47,49,-1,51,53,55,57,59,61,-1,63,-1,-1,-1,-1,-1,-1,-1,-1,-1,-1,-1,-1,-1,-1,-1,-1,-1,-1,-1,-1,-1,-1],"loss_changes":[3.7741895E0,1.7624556E0,2.0146513E0,2.3187134E0,1.7717001E0,1.2023602E0,1.2923411E0,3.1097565E0,1.8497108E0,1.7005656E0,0E0,0E0,1.1542222E-2,2.8474348E0,1.7381787E0,2.2239181E-1,0E0,2.6497555E-1,1.2086706E0,1.5043685E0,0E0,0E0,0E0,1.5481807E0,4.861591E-1,1.064901E0,9.4494855E-1,2.9277712E-2,0E0,0E0,0E0,6.21845E-1,7.036947E-1,1.286258E0,0E0,1.9710555E0,1.8667314E0,1.1023819E-2,3.548398E-1,1.1072464E0,1.680485E-1,0E0,3.2548666E-2,0E0,0E0,0E0,0E0,0E0,0E0,0E0,0E0,0E0,0E0,0E0,0E0,0E0,0E0,0E0,0E0,0E0,0E0,0E0,0E0,0E0,0E0],"parents":[2147483647,0,0,1,1,2,2,3,3,4,4,5,5,6,6,7,7,8,8,9,9,12,12,13,13,14,14,15,15,17,17,18,18,19,19,23,23,24,24,25,25,26,26,27,27,31,31,32,32,33,33,35,35,36,36,37,37,38,38,39,39,40,40,42,42],"right_children":[2,4,6,8,10,12,14,16,18,20,-1,-1,22,24,26,28,-1,30,32,34,-1,-1,-1,36,38,40,42,44,-1,-1,-1,46,48,50,-1,52,54,56,58,60,62,-1,64,-1,-1,-1,-1,-1,-1,-1,-1,-1,-1,-1,-1,-1,-1,-1,-1,-1,-1,-1,-1,-1,-1],"split_conditions":[1E0,-1.0515815E-2,-9.949831E1,4.622245E6,1.4090338E2,1.45681E5,6.4053635E1,2.3509893E4,2.3243489E-2,5.261648E-2,-2.9455462E-1,3.2612494E-1,8.645E1,3.4356266E1,1.6373E2,3.22046E5,-3.402263E-1,1E2,2.4597969E-2,4.4454775E0,-2.064177E-1,3.0306602E-2,-5.065334E-3,7.20963E5,-9.1305174E-2,5.7107E4,5.1609E4,9.871E1,-8.94835E-2,-4.7581322E-2,-2.0946851E-1,1.067002E6,-2.0403003E-2,-2.9579705E-2,-2.6971525E-1,5.536067E-4,1.85781E5,7.15E1,3.626282E7,1.7103257E-2,4.2472E4,-6.745851E-2,5.8675E4,-1.4010278E-2,2.8392965E-2,2.4003135E-2,-7.991569E-2,-2.617432E-2,1.4001039E-1,-9.265727E-2,-6.206561E-3,-9.2270315E-2,1.0314698E-1,4.1952287E-3,4.23159E-2,1.6584778E-2,6.235685E-2,2.2281797E-1,1.588989E-2,-1.8196251E-2,1.05136305E-1,-1.3835452E-2,-1.16182685E-1,2.2294389E-1,5.7117302E-2],"split_indices":[85,211,101,74,109,6,115,100,131,148,0,0,0,122,80,13,0,0,216,120,0,0,0,53,121,48,6,0,0,0,0,67,189,186,0,180,34,2,4,123,92,0,6,0,0,0,0,0,0,0,0,0,0,0,0,0,0,0,0,0,0,0,0,0,0],"split_type":[0,0,0,0,0,0,0,0,0,0,0,0,0,0,0,0,0,0,0,0,0,0,0,0,0,0,0,0,0,0,0,0,0,0,0,0,0,0,0,0,0,0,0,0,0,0,0,0,0,0,0,0,0,0,0,0,0,0,0,0,0,0,0,0,0],"sum_hessian":[1.194E3,5.62E2,6.32E2,4.7E1,5.15E2,4E0,6.28E2,1.2E1,3.5E1,5.14E2,1E0,2E0,2E0,5.02E2,1.26E2,7E0,5E0,6E0,2.9E1,5.11E2,3E0,1E0,1E0,4.91E2,1.1E1,1.21E2,5E0,4E0,3E0,2E0,4E0,2E1,9E0,5.1E2,1E0,2.6E1,4.65E2,3E0,8E0,1.09E2,1.2E1,1E0,4E0,2E0,2E0,8E0,1.2E1,3E0,6E0,1.5E1,4.95E2,2.1E1,5E0,2.52E2,2.13E2,2E0,1E0,7E0,1E0,1.03E2,6E0,2E0,1E1,3E0,1E0],"tree_param":{"num_deleted":"0","num_feature":"223","num_nodes":"65","size_leaf_vector":"1"}}]},"name":"gbtree"},"learner_model_param":{"base_score":"6.098829E-2","boost_from_average":"1","num_class":"0","num_feature":"223","num_target":"1"},"objective":{"name":"reg:squarederror","reg_loss_param":{"scale_pos_weight":"1"}}},"version":[2,0,0]}